{"learner":{"attributes":{"scikit_learn":"{\"_estimator_type\": \"regressor\"}"},"feature_names":["vix","VX2-VX1_RATIO","spx_vs_ma20","spx_ret_10d","vix_stretch_ma63","VXTH_zscore_63d","vix_vs_ma63","vix_velocity_10d","spx_vs_ma200","VX1-VX2","yield_curve_curvature_zscore","vix_vs_ma252","vix_zscore_252d","yield_curve_level_zscore","bb_position_20d","spx_realized_vol_21d","yield_2y3m_percentile_252d","vix_momentum_z_21d","spx_momentum_z_21d","yield_curve_curvature","vix_percentile_252d","dgs6mo_vol_63d","vx_dollar_corr_21d","vix_bb_position_20d","skew_vs_vix","vix_vol_10d","VXTH","spx_vs_ma50","spx_ret_63d","days_in_regime","spx_realized_vol_10d","yield_curve_level","SKEW_percentile_63d","crude_oil_ret_21d","yield_2y3m","macd_histogram","Dollar_Index_lag1","spx_realized_vol_63d","vx_term_structure_divergence","VX1-VX2_zscore_63d","SKEW","vix_vol_63d","VXTH_change_21d","yield_10y2y_percentile_252d","vix_velocity_21d","vix_rv_ratio_21d","vix_ret_21d","spx_dollar_corr_21d","vix_velocity_5d","yield_10y3m_percentile_252d","yield_10y3m"],"feature_types":["float","float","float","float","float","float","float","float","float","float","float","float","float","float","float","float","float","float","float","float","float","float","float","float","float","float","float","float","float","float","float","float","float","float","float","float","float","float","float","float","float","float","float","float","float","float","float","float","float","float","float"],"gradient_booster":{"model":{"cats":{"enc":[],"feature_segments":[],"sorted_idx":[]},"gbtree_model_param":{"num_parallel_tree":"1","num_trees":"150"},"iteration_indptr":[0,1,2,3,4,5,6,7,8,9,10,11,12,13,14,15,16,17,18,19,20,21,22,23,24,25,26,27,28,29,30,31,32,33,34,35,36,37,38,39,40,41,42,43,44,45,46,47,48,49,50,51,52,53,54,55,56,57,58,59,60,61,62,63,64,65,66,67,68,69,70,71,72,73,74,75,76,77,78,79,80,81,82,83,84,85,86,87,88,89,90,91,92,93,94,95,96,97,98,99,100,101,102,103,104,105,106,107,108,109,110,111,112,113,114,115,116,117,118,119,120,121,122,123,124,125,126,127,128,129,130,131,132,133,134,135,136,137,138,139,140,141,142,143,144,145,146,147,148,149,150],"tree_info":[0,0,0,0,0,0,0,0,0,0,0,0,0,0,0,0,0,0,0,0,0,0,0,0,0,0,0,0,0,0,0,0,0,0,0,0,0,0,0,0,0,0,0,0,0,0,0,0,0,0,0,0,0,0,0,0,0,0,0,0,0,0,0,0,0,0,0,0,0,0,0,0,0,0,0,0,0,0,0,0,0,0,0,0,0,0,0,0,0,0,0,0,0,0,0,0,0,0,0,0,0,0,0,0,0,0,0,0,0,0,0,0,0,0,0,0,0,0,0,0,0,0,0,0,0,0,0,0,0,0,0,0,0,0,0,0,0,0,0,0,0,0,0,0,0,0,0,0,0,0],"trees":[{"base_weights":[1.2921836E-2,-1.5168875E0,2.1063768E1,-4.264118E0,2.7642026E0,9.3782103E-1,1.6832512E1,-4.6930857E0,1.1759633E0,-4.249124E-1,4.7163243E0,4.202246E1,1.45156765E1,-6.627338E-2,-4.031392E-2,-2.4203158E-3,2.0555516E-1,4.7551293E-2,-1.5722202E-2,7.175938E-2,2.1435624E-2,2.883921E-1,5.942332E-1,1.7463191E-1,4.7897767E-2],"categories":[],"categories_nodes":[],"categories_segments":[],"categories_sizes":[],"default_left":[0,0,0,0,0,0,0,0,0,0,0,0,0,0,0,0,0,0,0,0,0,0,0,0,0],"id":0,"left_children":[1,3,5,7,9,-1,11,13,15,17,19,21,23,-1,-1,-1,-1,-1,-1,-1,-1,-1,-1,-1,-1],"loss_changes":[9.167545E4,3.122264E4,5.0460047E4,3.7779688E3,6.4630645E3,0E0,1.0086645E4,2.0104805E3,2.8737957E3,1.8442782E3,3.1149453E3,1.5377207E3,1.9981914E3,0E0,0E0,0E0,0E0,0E0,0E0,0E0,0E0,0E0,0E0,0E0,0E0],"parents":[2147483647,0,0,1,1,2,2,3,3,4,4,6,6,7,7,8,8,9,9,10,10,11,11,12,12],"right_children":[2,4,6,8,10,-1,12,14,16,18,20,22,24,-1,-1,-1,-1,-1,-1,-1,-1,-1,-1,-1,-1],"split_conditions":[2.965E1,1.782E1,-2.8826017E0,1.1720425E1,-6.717585E-1,9.3782103E-1,-9.632807E0,1.377E1,6.2E-1,1.0344948E2,5.4279107E-1,-1.2563382E1,8.214095E0,-6.627338E-2,-4.031392E-2,-2.4203158E-3,2.0555516E-1,4.7551293E-2,-1.5722202E-2,7.175938E-2,2.1435624E-2,2.883921E-1,5.942332E-1,1.7463191E-1,4.7897767E-2],"split_indices":[0,0,13,6,11,0,3,0,34,24,14,33,28,0,0,0,0,0,0,0,0,0,0,0,0],"split_type":[0,0,0,0,0,0,0,0,0,0,0,0,0,0,0,0,0,0,0,0,0,0,0,0,0],"sum_hessian":[2.845E3,2.653E3,1.92E2,1.616E3,1.037E3,1.1E1,1.81E2,1.498E3,1.18E2,3.94E2,6.43E2,1.4E1,1.67E2,6.81E2,8.17E2,1.1E2,8E0,6.8E1,3.26E2,3.95E2,2.48E2,7E0,7E0,1.49E2,1.8E1],"tree_param":{"num_deleted":"0","num_feature":"51","num_nodes":"25","size_leaf_vector":"1"}},{"base_weights":[-6.1597094E-2,5.3338417E1,-5.7501054E-1,7.99779E-1,3.4867266E-1,-2.5867815E0,8.334241E0,2.2632227E0,-3.8439853E0,1.5097525E1,5.5961537E0,1.5356448E-2,1.1119447E-1,-5.071331E-2,-1.634481E-2,1.2134673E-1,2.541984E-1,5.5419333E-2,2.0920596E-1],"categories":[],"categories_nodes":[],"categories_segments":[],"categories_sizes":[],"default_left":[0,0,0,0,0,0,0,0,0,0,0,0,0,0,0,0,0,0,0],"id":1,"left_children":[1,3,5,-1,-1,7,9,11,13,15,17,-1,-1,-1,-1,-1,-1,-1,-1],"loss_changes":[7.7335555E4,9.0455E3,5.009391E4,0E0,0E0,1.3908862E4,9.461211E3,3.1941255E3,3.088459E3,4.5883984E3,2.8806514E3,0E0,0E0,0E0,0E0,0E0,0E0,0E0,0E0],"parents":[2147483647,0,0,1,1,2,2,5,5,6,6,7,7,8,8,9,9,10,10],"right_children":[2,4,6,-1,-1,8,10,12,14,16,18,-1,-1,-1,-1,-1,-1,-1,-1],"split_conditions":[-1.05197504E-1,-2.8960814E1,1.9483538E1,7.99779E-1,3.4867266E-1,-4.9483487E-1,-4.321508E0,7.84E0,-1.7296942E-1,6.170002E0,1.24496E2,1.5356448E-2,1.1119447E-1,-5.071331E-2,-1.634481E-2,1.2134673E-1,2.541984E-1,5.5419333E-2,2.0920596E-1],"split_indices":[1,35,15,0,0,2,27,44,12,7,36,0,0,0,0,0,0,0,0],"split_type":[0,0,0,0,0,0,0,0,0,0,0,0,0,0,0,0,0,0,0],"sum_hessian":[2.819E3,2.6E1,2.793E3,1.3E1,1.3E1,2.279E3,5.14E2,4.69E2,1.81E3,1.47E2,3.67E2,4.22E2,4.7E1,1.388E3,4.22E2,9.7E1,5E1,3.52E2,1.5E1],"tree_param":{"num_deleted":"0","num_feature":"51","num_nodes":"19","size_leaf_vector":"1"}},{"base_weights":[-5.4291435E-2,-2.7297103E0,1.1013037E1,-5.1332374E0,-4.02817E-1,9.705337E-1,9.89412E0,-7.529724E0,-4.628825E0,1.7613419E0,-2.2045493E0,4.0235653E1,8.910549E0,-8.660678E-2,-2.7222326E-2,-4.0324308E-2,-6.2807694E-2,1.9663006E-1,1.512316E-2,-4.19852E-2,7.696989E-3,2.733099E-1,5.46494E-1,3.7489917E-2,1.296006E-1],"categories":[],"categories_nodes":[],"categories_segments":[],"categories_sizes":[],"default_left":[0,0,0,0,0,0,0,0,0,0,0,0,0,0,0,0,0,0,0,0,0,0,0,0,0],"id":2,"left_children":[1,3,5,7,9,-1,11,13,15,17,19,21,23,-1,-1,-1,-1,-1,-1,-1,-1,-1,-1,-1,-1],"loss_changes":[8.393568E4,1.2765586E4,4.638754E4,1.3270488E3,4.529831E3,0E0,1.5950293E4,2.4399121E2,9.337969E2,3.345894E3,2.8929521E3,1.3149746E3,8.0273555E3,0E0,0E0,0E0,0E0,0E0,0E0,0E0,0E0,0E0,0E0,0E0,0E0],"parents":[2147483647,0,0,1,1,2,2,3,3,4,4,6,6,7,7,8,8,9,9,10,10,11,11,12,12],"right_children":[2,4,6,8,10,-1,12,14,16,18,20,22,24,-1,-1,-1,-1,-1,-1,-1,-1,-1,-1,-1,-1],"split_conditions":[2.299E1,1.565E1,-9.2507327E-1,1.187E1,4.588224E-1,9.705337E-1,-1.0350095E1,2.4439978E2,1.3285149E0,-3.4022903E1,1.6467447E1,9.44664E1,1.6204341E-1,-8.660678E-2,-2.7222326E-2,-4.0324308E-2,-6.2807694E-2,1.9663006E-1,1.512316E-2,-4.19852E-2,7.696989E-3,2.733099E-1,5.46494E-1,3.7489917E-2,1.296006E-1],"split_indices":[0,0,22,0,2,0,27,26,2,42,15,43,21,0,0,0,0,0,0,0,0,0,0,0,0],"split_type":[0,0,0,0,0,0,0,0,0,0,0,0,0,0,0,0,0,0,0,0,0,0,0,0,0],"sum_hessian":[2.833E3,2.282E3,5.51E2,1.122E3,1.16E3,7E0,5.44E2,1.93E2,9.29E2,5.27E2,6.33E2,1.6E1,5.28E2,1.83E2,1E1,4.72E2,4.57E2,1.2E1,5.15E2,4.1E2,2.23E2,7E0,9E0,1.76E2,3.52E2],"tree_param":{"num_deleted":"0","num_feature":"51","num_nodes":"25","size_leaf_vector":"1"}},{"base_weights":[7.432776E-2,-1.4785818E0,2.1494404E1,-4.0033646E0,3.1522589E0,1.5320721E1,6.1325714E1,-5.4507365E0,-2.2403178E0,1.0822787E0,6.0921345E0,1.4197997E1,4.0995502E-1,3.5876012E-1,7.517248E1,-8.3128974E-2,-5.4339264E-2,-3.514097E-2,1.2169249E-2,2.050294E-1,8.538374E-3,2.7872302E-2,1.0106345E-1,1.8312366E-1,1.0494675E-1,9.6485615E-1,5.810983E-1],"categories":[],"categories_nodes":[],"categories_segments":[],"categories_sizes":[],"default_left":[0,0,0,0,0,0,0,0,0,0,0,0,0,0,0,0,0,0,0,0,0,0,0,0,0,0,0],"id":3,"left_children":[1,3,5,7,9,11,13,15,17,19,21,23,-1,-1,25,-1,-1,-1,-1,-1,-1,-1,-1,-1,-1,-1,-1],"loss_changes":[9.5888445E4,3.143702E4,4.7106195E4,4.429074E3,5.768461E3,3.6617617E3,8.30407E3,1.0546992E3,2.4205852E3,3.0285554E3,4.1977363E3,1.6323047E3,0E0,0E0,5.8039844E2,0E0,0E0,0E0,0E0,0E0,0E0,0E0,0E0,0E0,0E0,0E0,0E0],"parents":[2147483647,0,0,1,1,2,2,3,3,4,4,5,5,6,6,7,7,8,8,9,9,10,10,11,11,14,14],"right_children":[2,4,6,8,10,12,14,16,18,20,22,24,-1,-1,26,-1,-1,-1,-1,-1,-1,-1,-1,-1,-1,-1,-1],"split_conditions":[2.965E1,1.837E1,1.4499988E2,1.476E1,2.273E1,6.644716E-1,-3.9625877E-1,1.187E1,8.069666E0,-3.4022903E1,1.6204341E-1,1.2669755E2,4.0995502E-1,3.5876012E-1,6.25E0,-8.3128974E-2,-5.4339264E-2,-3.514097E-2,1.2169249E-2,2.050294E-1,8.538374E-3,2.7872302E-2,1.0106345E-1,1.8312366E-1,1.0494675E-1,9.6485615E-1,5.810983E-1],"split_indices":[0,0,11,0,0,47,47,0,6,42,21,40,0,0,32,0,0,0,0,0,0,0,0,0,0,0,0],"split_type":[0,0,0,0,0,0,0,0,0,0,0,0,0,0,0,0,0,0,0,0,0,0,0,0,0,0,0],"sum_hessian":[2.881E3,2.687E3,1.94E2,1.739E3,9.48E2,1.69E2,2.5E1,9.54E2,7.85E2,5.57E2,3.91E2,1.62E2,7E0,9E0,1.6E1,2.04E2,7.5E2,6.15E2,1.7E2,9E0,5.48E2,1.79E2,2.12E2,1.08E2,5.4E1,9E0,7E0],"tree_param":{"num_deleted":"0","num_feature":"51","num_nodes":"27","size_leaf_vector":"1"}},{"base_weights":[-6.527755E-2,5.9243176E1,-6.282437E-1,9.9682534E-1,3.9559933E1,6.1644144E0,-2.850524E0,5.575079E-1,2.951336E-1,3.3672287E0,1.2975366E1,-3.6755943E0,2.7616255E0,3.068589E-2,1.6381358E-1,3.1067324E-1,1.2651235E-1,-4.1884907E-2,2.0963049E-1,2.4209742E-2,1.5062414E-1],"categories":[],"categories_nodes":[],"categories_segments":[],"categories_sizes":[],"default_left":[0,0,0,0,0,0,0,0,0,0,0,0,0,0,0,0,0,0,0,0,0],"id":4,"left_children":[1,3,5,-1,7,9,11,-1,-1,13,15,17,19,-1,-1,-1,-1,-1,-1,-1,-1],"loss_changes":[9.538433E4,1.3047555E4,4.273239E4,0E0,1.3139922E3,1.3257332E4,9.884814E3,0E0,0E0,3.3804102E3,4.5566406E3,3.9998945E3,1.6970679E3,0E0,0E0,0E0,0E0,0E0,0E0,0E0,0E0],"parents":[2147483647,0,0,1,1,2,2,4,4,5,5,6,6,9,9,10,10,11,11,12,12],"right_children":[2,4,6,-1,8,10,12,-1,-1,14,16,18,20,-1,-1,-1,-1,-1,-1,-1,-1],"split_conditions":[-1.05197504E-1,6.25E0,9.145609E-1,9.9682534E-1,-5.087057E0,1.1097391E0,3.17E0,5.575079E-1,2.951336E-1,2.0299069E2,-6.365692E0,4.811273E1,3.430606E-2,3.068589E-2,1.6381358E-1,3.1067324E-1,1.2651235E-1,-4.1884907E-2,2.0963049E-1,2.4209742E-2,1.5062414E-1],"split_indices":[1,32,8,0,2,12,44,0,0,25,2,33,18,0,0,0,0,0,0,0,0],"split_type":[0,0,0,0,0,0,0,0,0,0,0,0,0,0,0,0,0,0,0,0,0],"sum_hessian":[2.855E3,2.6E1,2.829E3,9E0,1.7E1,6.97E2,2.132E3,8E0,9E0,4.95E2,2.02E2,1.859E3,2.73E2,4.71E2,2.4E1,1.8E1,1.84E2,1.852E3,7E0,2.6E2,1.3E1],"tree_param":{"num_deleted":"0","num_feature":"51","num_nodes":"21","size_leaf_vector":"1"}},{"base_weights":[-1.7129488E-1,-2.2041626E0,1.0685568E1,3.2366872E0,-3.3657103E0,9.024011E0,6.9849014E-1,5.7482615E0,2.2091037E-1,-4.7149822E-1,-4.4565845E0,2.1125174E1,7.6023407E0,5.420565E-2,1.6515978E-1,-1.423417E-2,4.526959E-2,1.6324807E-2,-2.2221126E-2,-5.12782E-2,1.02708235E-1,4.2458692E-1,1.5663227E-1,1.15594864E-1,4.3327622E-2],"categories":[],"categories_nodes":[],"categories_segments":[],"categories_sizes":[],"default_left":[0,0,0,0,0,0,0,0,0,0,0,0,0,0,0,0,0,0,0,0,0,0,0,0,0],"id":5,"left_children":[1,3,5,7,9,11,-1,13,15,17,19,21,23,-1,-1,-1,-1,-1,-1,-1,-1,-1,-1,-1,-1],"loss_changes":[6.351411E4,1.5327733E4,3.8857062E4,3.2319902E3,6.3057812E3,7.445496E3,0E0,1.7835933E3,1.1322997E3,1.6275372E3,3.1839277E3,5.042424E3,4.0705176E3,0E0,0E0,0E0,0E0,0E0,0E0,0E0,0E0,0E0,0E0,0E0,0E0],"parents":[2147483647,0,0,1,1,2,2,3,3,4,4,5,5,7,7,8,8,9,9,10,10,11,11,12,12],"right_children":[2,4,6,8,10,12,-1,14,16,18,20,22,24,-1,-1,-1,-1,-1,-1,-1,-1,-1,-1,-1,-1],"split_conditions":[1.9902306E1,9.145609E-1,2.4271533E0,7.068495E-1,5.7855535E-1,-6.496011E0,6.9849014E-1,2.0632114E2,2.4060555E1,-1.5E-1,6.6546865E0,-1.1456046E0,8.0192655E-1,5.420565E-2,1.6515978E-1,-1.423417E-2,4.526959E-2,1.6324807E-2,-2.2221126E-2,-5.12782E-2,1.02708235E-1,4.2458692E-1,1.5663227E-1,1.15594864E-1,4.3327622E-2],"split_indices":[11,8,5,14,14,3,0,25,37,19,27,13,8,0,0,0,0,0,0,0,0,0,0,0,0],"split_type":[0,0,0,0,0,0,0,0,0,0,0,0,0,0,0,0,0,0,0,0,0,0,0,0,0],"sum_hessian":[2.876E3,2.423E3,4.53E2,4.26E2,1.997E3,4.4E2,1.3E1,2.32E2,1.94E2,5.47E2,1.45E3,4.5E1,3.95E2,2.13E2,1.9E1,1.4E2,5.4E1,2.41E2,3.06E2,1.434E3,1.6E1,1.2E1,3.3E1,2.24E2,1.71E2],"tree_param":{"num_deleted":"0","num_feature":"51","num_nodes":"25","size_leaf_vector":"1"}},{"base_weights":[-1.3866213E-1,5.662244E1,-5.3786653E-1,3.018509E-1,8.279345E-1,-2.185203E0,8.768269E0,2.865926E0,-3.4036543E0,1.2260396E1,5.173952E0,5.6203634E-2,-9.383745E-5,-4.3539602E-2,1.1174932E-2,1.0445253E-1,1.8777362E-1,1.6935113E-1,4.368518E-2],"categories":[],"categories_nodes":[],"categories_segments":[],"categories_sizes":[],"default_left":[0,0,0,0,0,0,0,0,0,0,0,0,0,0,0,0,0,0,0],"id":6,"left_children":[1,3,5,-1,-1,7,9,11,13,15,17,-1,-1,-1,-1,-1,-1,-1,-1],"loss_changes":[6.4442375E4,8.719605E3,4.330715E4,0E0,0E0,1.4778502E4,5.277756E3,2.9420227E3,4.3933027E3,2.712996E3,2.5853037E3,0E0,0E0,0E0,0E0,0E0,0E0,0E0,0E0],"parents":[2147483647,0,0,1,1,2,2,5,5,6,6,7,7,8,8,9,9,10,10],"right_children":[2,4,6,-1,-1,8,10,12,14,16,18,-1,-1,-1,-1,-1,-1,-1,-1],"split_conditions":[-7.4921665E0,5.0988144E1,1.9902306E1,3.018509E-1,8.279345E-1,1.3043337E0,-1.9795964E0,6.9511366E-1,2.3400002E0,8.8217115E-1,-5.706191E-1,5.6203634E-2,-9.383745E-5,-4.3539602E-2,1.1174932E-2,1.0445253E-1,1.8777362E-1,1.6935113E-1,4.368518E-2],"split_indices":[2,43,11,0,0,8,8,14,7,5,22,0,0,0,0,0,0,0,0],"split_type":[0,0,0,0,0,0,0,0,0,0,0,0,0,0,0,0,0,0,0],"sum_hessian":[2.842E3,1.9E1,2.823E3,8E0,1.1E1,2.399E3,4.24E2,4.66E2,1.933E3,2.14E2,2.1E2,2.64E2,2.02E2,1.731E3,2.02E2,1.34E2,8E1,2.2E1,1.88E2],"tree_param":{"num_deleted":"0","num_feature":"51","num_nodes":"19","size_leaf_vector":"1"}},{"base_weights":[8.274222E-2,-2.2273092E0,1.255694E1,-4.0390086E0,1.4547427E0,5.376018E1,1.0148616E1,-5.2963133E0,-2.2779741E0,3.8340151E0,-1.5840663E-1,3.4792107E-1,7.7362484E-1,3.6646907E0,1.2826788E1,-8.056353E-2,-5.254654E-2,-3.7911475E-2,-4.5292713E-3,3.405144E-2,1.5499511E-1,2.9687624E-2,-1.2115951E-2,3.1022701E-2,1.530277E-1,1.3324596E-1,3.434747E-1],"categories":[],"categories_nodes":[],"categories_segments":[],"categories_sizes":[],"default_left":[0,0,0,0,0,0,0,0,0,0,0,0,0,0,0,0,0,0,0,0,0,0,0,0,0,0,0],"id":7,"left_children":[1,3,5,7,9,11,13,15,17,19,21,-1,-1,23,25,-1,-1,-1,-1,-1,-1,-1,-1,-1,-1,-1,-1],"loss_changes":[8.3702125E4,1.6354253E4,4.4565445E4,3.627004E3,3.1051074E3,6.9724062E3,7.4237344E3,1.0320156E3,1.453388E3,2.5068662E3,1.2761613E3,0E0,0E0,1.0855697E3,4.2679844E3,0E0,0E0,0E0,0E0,0E0,0E0,0E0,0E0,0E0,0E0,0E0,0E0],"parents":[2147483647,0,0,1,1,2,2,3,3,4,4,5,5,6,6,7,7,8,8,9,9,10,10,13,13,14,14],"right_children":[2,4,6,8,10,12,14,16,18,20,22,-1,-1,24,26,-1,-1,-1,-1,-1,-1,-1,-1,-1,-1,-1,-1],"split_conditions":[2.452E1,1.782E1,-9.632807E0,1.48E1,1.2582173E0,5.0988144E1,1.6307528E-1,1.187E1,6.700001E-1,1.4020706E2,-1.0417607E0,3.4792107E-1,7.7362484E-1,9.859155E-2,9.920949E1,-8.056353E-2,-5.254654E-2,-3.7911475E-2,-4.5292713E-3,3.405144E-2,1.5499511E-1,2.9687624E-2,-1.2115951E-2,3.1022701E-2,1.530277E-1,1.3324596E-1,3.434747E-1],"split_indices":[0,0,3,0,28,43,21,0,44,40,3,0,0,1,20,0,0,0,0,0,0,0,0,0,0,0,0],"split_type":[0,0,0,0,0,0,0,0,0,0,0,0,0,0,0,0,0,0,0,0,0,0,0,0,0,0,0],"sum_hessian":[2.903E3,2.45E3,4.53E2,1.642E3,8.08E2,2.4E1,4.29E2,9.57E2,6.85E2,3.26E2,4.82E2,1.1E1,1.3E1,1.26E2,3.03E2,2.13E2,7.44E2,4.26E2,2.59E2,3.04E2,2.2E1,1.19E2,3.63E2,1.17E2,9E0,2.91E2,1.2E1],"tree_param":{"num_deleted":"0","num_feature":"51","num_nodes":"27","size_leaf_vector":"1"}},{"base_weights":[-1.0785516E-3,5.52114E1,-4.679716E-1,2.3179673E-1,7.6005757E-1,-3.033091E0,5.7029924E0,5.5723944E0,-3.4661636E0,1.1715703E1,3.278217E0,3.633582E-2,1.7185852E-1,-1.7387541E-2,-5.004663E-2,1.1823693E-1,3.4906515E-1,2.6583372E-2,1.23507395E-1],"categories":[],"categories_nodes":[],"categories_segments":[],"categories_sizes":[],"default_left":[0,0,0,0,0,0,0,0,0,0,0,0,0,0,0,0,0,0,0],"id":8,"left_children":[1,3,5,-1,-1,7,9,11,13,15,17,-1,-1,-1,-1,-1,-1,-1,-1],"loss_changes":[7.3356984E4,9.581086E3,4.468285E4,0E0,0E0,7.447336E3,1.2050967E4,2.1397256E3,3.7410547E3,4.7464863E3,4.0854912E3,0E0,0E0,0E0,0E0,0E0,0E0,0E0,0E0],"parents":[2147483647,0,0,1,1,2,2,5,5,6,6,7,7,8,8,9,9,10,10],"right_children":[2,4,6,-1,-1,8,10,12,14,16,18,-1,-1,-1,-1,-1,-1,-1,-1],"split_conditions":[-9.632807E0,1.541502E1,7.9689307E0,2.3179673E-1,7.6005757E-1,1.00834724E2,-3.3745809E0,1.233062E2,6.7454886E-1,1.099288E0,3.1839718E1,3.633582E-2,1.7185852E-1,-1.7387541E-2,-5.004663E-2,1.1823693E-1,3.4906515E-1,2.6583372E-2,1.23507395E-1],"split_indices":[3,43,11,0,0,24,27,36,14,5,37,0,0,0,0,0,0,0,0],"split_type":[0,0,0,0,0,0,0,0,0,0,0,0,0,0,0,0,0,0,0],"sum_hessian":[2.844E3,2.3E1,2.821E3,7E0,1.6E1,1.993E3,8.28E2,9.5E1,1.898E3,2.37E2,5.91E2,7.8E1,1.7E1,6.71E2,1.227E3,2.26E2,1.1E1,5.32E2,5.9E1],"tree_param":{"num_deleted":"0","num_feature":"51","num_nodes":"19","size_leaf_vector":"1"}},{"base_weights":[2.856883E-3,-2.1577175E0,1.1724184E1,-4.0073714E0,9.9024206E-1,9.641224E0,5.766332E1,-5.2775435E0,-2.439439E0,3.0677352E0,-1.1707684E0,3.632592E0,1.237605E1,9.038678E-1,4.1972023E-1,-7.945776E-2,-5.2161228E-2,-1.2283135E-2,-4.304513E-2,1.8196578E-1,2.9326668E-2,3.3101514E-2,-2.0650117E-2,1.0542509E-1,2.290854E-2,9.198717E-2,1.7806387E-1],"categories":[],"categories_nodes":[],"categories_segments":[],"categories_sizes":[],"default_left":[0,0,0,0,0,0,0,0,0,0,0,0,0,0,0,0,0,0,0,0,0,0,0,0,0,0,0],"id":9,"left_children":[1,3,5,7,9,11,13,15,17,19,21,23,25,-1,-1,-1,-1,-1,-1,-1,-1,-1,-1,-1,-1,-1,-1],"loss_changes":[7.140912E4,1.3866372E4,4.1513812E4,2.975791E3,3.9622407E3,6.8767695E3,6.233207E3,8.7528125E2,1.283822E3,2.5272544E3,1.2400599E3,1.2049932E3,4.2043945E3,0E0,0E0,0E0,0E0,0E0,0E0,0E0,0E0,0E0,0E0,0E0,0E0,0E0,0E0],"parents":[2147483647,0,0,1,1,2,2,3,3,4,4,5,5,6,6,7,7,8,8,9,9,10,10,11,11,12,12],"right_children":[2,4,6,8,10,12,14,16,18,20,22,24,26,-1,-1,-1,-1,-1,-1,-1,-1,-1,-1,-1,-1,-1,-1],"split_conditions":[2.452E1,1.722E1,1.4499988E2,1.433E1,6.225992E-1,1.6307528E-1,6.25E0,1.187E1,7.28399E-1,-3.4022903E1,1.0488874E2,-5.422114E-1,5.862222E0,9.038678E-1,4.1972023E-1,-7.945776E-2,-5.2161228E-2,-1.2283135E-2,-4.304513E-2,1.8196578E-1,2.9326668E-2,3.3101514E-2,-2.0650117E-2,1.0542509E-1,2.290854E-2,9.198717E-2,1.7806387E-1],"split_indices":[0,0,11,0,14,21,32,0,14,42,24,22,4,0,0,0,0,0,0,0,0,0,0,0,0,0,0],"split_type":[0,0,0,0,0,0,0,0,0,0,0,0,0,0,0,0,0,0,0,0,0,0,0,0,0,0,0],"sum_hessian":[2.818E3,2.38E3,4.38E2,1.499E3,8.81E2,4.2E2,1.8E1,8.27E2,6.72E2,4.49E2,4.32E2,1.32E2,2.88E2,7E0,1.1E1,1.94E2,6.33E2,3.49E2,3.23E2,1.3E1,4.36E2,6.1E1,3.71E2,2.7E1,1.05E2,1.37E2,1.51E2],"tree_param":{"num_deleted":"0","num_feature":"51","num_nodes":"27","size_leaf_vector":"1"}},{"base_weights":[6.9930986E-2,-1.6825336E0,1.5222377E1,-3.8013692E0,2.1322703E0,5.1942364E1,1.1938928E1,-5.4451036E0,-2.5487108E0,4.913248E0,5.817462E-1,7.3631316E-1,3.626066E-1,1.0723179E1,2.8640131E1,-6.6802174E-2,-4.2034093E-2,-8.110818E-3,-4.3324582E-2,4.75829E-2,1.7276852E-1,2.92874E-2,-9.313945E-3,1.4834778E-1,7.843945E-2,4.7284544E-1,1.5145327E-1],"categories":[],"categories_nodes":[],"categories_segments":[],"categories_sizes":[],"default_left":[0,0,0,0,0,0,0,0,0,0,0,0,0,0,0,0,0,0,0,0,0,0,0,0,0,0,0],"id":10,"left_children":[1,3,5,7,9,11,13,15,17,19,21,-1,-1,23,25,-1,-1,-1,-1,-1,-1,-1,-1,-1,-1,-1,-1],"loss_changes":[7.527308E4,2.0544664E4,3.4894523E4,3.3520605E3,3.9121055E3,4.7333867E3,5.2341562E3,6.453535E2,2.2787886E3,2.121999E3,1.7048987E3,0E0,0E0,2.3624434E3,3.229455E3,0E0,0E0,0E0,0E0,0E0,0E0,0E0,0E0,0E0,0E0,0E0,0E0],"parents":[2147483647,0,0,1,1,2,2,3,3,4,4,5,5,6,6,7,7,8,8,9,9,10,10,13,13,14,14],"right_children":[2,4,6,8,10,12,14,16,18,20,22,-1,-1,24,26,-1,-1,-1,-1,-1,-1,-1,-1,-1,-1,-1,-1],"split_conditions":[2.687E1,1.803E1,-1.05197504E-1,1.377E1,-5.858556E-1,-6.365692E0,9.920949E1,8.573113E0,6.706809E-1,1.261251E2,5.517625E-1,7.3631316E-1,3.626066E-1,-2.2662318E0,1.7E-1,-6.6802174E-2,-4.2034093E-2,-8.110818E-3,-4.3324582E-2,4.75829E-2,1.7276852E-1,2.92874E-2,-9.313945E-3,1.4834778E-1,7.843945E-2,4.7284544E-1,1.5145327E-1],"split_indices":[0,0,1,0,28,2,20,8,14,36,14,0,0,8,34,0,0,0,0,0,0,0,0,0,0,0,0],"split_type":[0,0,0,0,0,0,0,0,0,0,0,0,0,0,0,0,0,0,0,0,0,0,0,0,0,0,0],"sum_hessian":[2.833E3,2.54E3,2.93E2,1.633E3,9.07E2,2.3E1,2.7E2,7.05E2,9.28E2,3.24E2,5.83E2,1.2E1,1.1E1,2.53E2,1.7E1,5.24E2,1.81E2,3.96E2,5.32E2,3.07E2,1.7E1,2.38E2,3.45E2,1.46E2,1.07E2,8E0,9E0],"tree_param":{"num_deleted":"0","num_feature":"51","num_nodes":"27","size_leaf_vector":"1"}},{"base_weights":[-2.1598965E-1,-7.403517E-1,4.4767986E1,7.6860228E0,-2.1773205E0,5.5756622E1,2.0094351E-1,4.8535E0,1.25398035E1,-3.3738718E0,1.9020764E0,6.554185E1,3.768975E-1,4.0901683E-2,1.045179E-1,3.5990873E-1,1.2480944E-1,-4.4479553E-2,-3.1258217E-3,1.6193343E-2,1.5152973E-1,5.0786406E-1,8.687699E-1],"categories":[],"categories_nodes":[],"categories_segments":[],"categories_sizes":[],"default_left":[0,0,0,0,0,0,0,0,0,0,0,0,0,0,0,0,0,0,0,0,0,0,0],"id":11,"left_children":[1,3,5,7,9,11,-1,13,15,17,19,21,-1,-1,-1,-1,-1,-1,-1,-1,-1,-1,-1],"loss_changes":[6.727352E4,3.4146336E4,8.764906E3,5.5958965E3,1.1763719E4,2.9664297E3,0E0,1.3623662E3,3.600371E3,3.6236836E3,2.836541E3,6.4428906E2,0E0,0E0,0E0,0E0,0E0,0E0,0E0,0E0,0E0,0E0,0E0],"parents":[2147483647,0,0,1,1,2,2,3,3,4,4,5,5,7,7,8,8,9,9,10,10,11,11],"right_children":[2,4,6,8,10,12,-1,14,16,18,20,22,-1,-1,-1,-1,-1,-1,-1,-1,-1,-1,-1],"split_conditions":[1.6707777E1,-6.5692466E-1,9.6707504E1,1.2469189E0,1.789999E0,-2.6556305E1,2.0094351E-1,1.7478586E0,8.70753E1,1.5698016E1,9.7338085E0,3.5694522E-1,3.768975E-1,4.0901683E-2,1.045179E-1,3.5990873E-1,1.2480944E-1,-4.4479553E-2,-3.1258217E-3,1.6193343E-2,1.5152973E-1,5.0786406E-1,8.687699E-1],"split_indices":[4,8,24,12,44,35,0,13,36,15,4,10,0,0,0,0,0,0,0,0,0,0,0],"split_type":[0,0,0,0,0,0,0,0,0,0,0,0,0,0,0,0,0,0,0,0,0,0,0],"sum_hessian":[2.85E3,2.818E3,3.2E1,4.1E2,2.408E3,2.2E1,1E1,2.6E2,1.5E2,1.862E3,5.46E2,1.4E1,8E0,2.08E2,5.2E1,8E0,1.42E2,1.547E3,3.15E2,5.27E2,1.9E1,7E0,7E0],"tree_param":{"num_deleted":"0","num_feature":"51","num_nodes":"23","size_leaf_vector":"1"}},{"base_weights":[-1.7855631E-1,-2.487658E0,9.34438E0,-4.182092E0,2.9070694E-2,8.092395E0,7.399401E-1,-5.3104625E0,-3.2111576E0,1.6715027E0,-1.7647456E0,2.489316E0,1.1149446E1,-7.4902736E-2,-5.179253E-2,-8.208707E-3,-4.2491615E-2,1.606906E-2,1.0280619E-1,3.6995E-2,-2.7676566E-2,1.7436024E-2,8.3639234E-2,1.0897739E-1,3.0989963E-1],"categories":[],"categories_nodes":[],"categories_segments":[],"categories_sizes":[],"default_left":[0,0,0,0,0,0,0,0,0,0,0,0,0,0,0,0,0,0,0,0,0,0,0,0,0],"id":12,"left_children":[1,3,5,7,9,11,-1,13,15,17,19,21,23,-1,-1,-1,-1,-1,-1,-1,-1,-1,-1,-1,-1],"loss_changes":[6.308256E4,9.846169E3,3.966166E4,1.496873E3,2.7421213E3,9.377207E3,0E0,5.642207E2,1.1248364E3,8.181752E2,1.6525957E3,8.929319E2,7.734207E3,0E0,0E0,0E0,0E0,0E0,0E0,0E0,0E0,0E0,0E0,0E0,0E0],"parents":[2147483647,0,0,1,1,2,2,3,3,4,4,5,5,7,7,8,8,9,9,10,10,11,11,12,12],"right_children":[2,4,6,8,10,12,-1,14,16,18,20,22,24,-1,-1,-1,-1,-1,-1,-1,-1,-1,-1,-1,-1],"split_conditions":[2.273E1,1.657E1,2.4271533E0,1.356E1,6.2988234E-1,1.6307528E-1,7.399401E-1,1.187E1,-8.6207265E-1,7.84E0,1.0531979E2,2.8056316E-2,9.881423E1,-7.4902736E-2,-5.179253E-2,-8.208707E-3,-4.2491615E-2,1.606906E-2,1.0280619E-1,3.6995E-2,-2.7676566E-2,1.7436024E-2,8.3639234E-2,1.0897739E-1,3.0989963E-1],"split_indices":[0,0,5,0,2,21,0,0,18,44,24,47,20,0,0,0,0,0,0,0,0,0,0,0,0],"split_type":[0,0,0,0,0,0,0,0,0,0,0,0,0,0,0,0,0,0,0,0,0,0,0,0,0],"sum_hessian":[2.867E3,2.308E3,5.59E2,1.379E3,9.29E2,5.48E2,1.1E1,6.36E2,7.43E2,4.85E2,4.44E2,1.94E2,3.54E2,1.96E2,4.4E2,1.48E2,5.95E2,4.72E2,1.3E1,5.5E1,3.89E2,1.65E2,2.9E1,3.29E2,2.5E1],"tree_param":{"num_deleted":"0","num_feature":"51","num_nodes":"25","size_leaf_vector":"1"}},{"base_weights":[1.0978848E-3,-7.778934E-1,3.0232836E1,-2.991935E0,4.7020593E0,9.0494066E-1,2.3623365E1,3.3197548E0,-3.3848224E0,9.367226E0,2.9051394E0,4.8054194E-1,1.7984917E1,2.0621276E-2,1.5644877E-1,-1.22211855E-2,-4.43979E-2,2.4978815E-1,9.765456E-2,2.3631204E-2,1.2010334E-1,1.3428868E-1,3.7115696E-1],"categories":[],"categories_nodes":[],"categories_segments":[],"categories_sizes":[],"default_left":[0,0,0,0,0,0,0,0,0,0,0,0,0,0,0,0,0,0,0,0,0,0,0],"id":13,"left_children":[1,3,5,7,9,-1,11,13,15,17,19,-1,21,-1,-1,-1,-1,-1,-1,-1,-1,-1,-1],"loss_changes":[6.737136E4,3.3848926E4,2.2662312E4,4.9366777E3,6.706635E3,0E0,6.505242E3,1.8179508E3,2.607537E3,1.5197832E3,3.5535454E3,0E0,4.368258E3,0E0,0E0,0E0,0E0,0E0,0E0,0E0,0E0,0E0,0E0],"parents":[2147483647,0,0,1,1,2,2,3,3,4,4,6,6,7,7,8,8,9,9,10,10,12,12],"right_children":[2,4,6,8,10,-1,12,14,16,18,20,-1,22,-1,-1,-1,-1,-1,-1,-1,-1,-1,-1],"split_conditions":[1.2602221E1,8.3181E0,1.5625E0,1.0273943E2,-3.2549508E0,9.0494066E-1,-9.632807E0,1.6909282E0,-1.02743365E-1,-4.6E-1,3.1408709E1,4.8054194E-1,1.1338407E0,2.0621276E-2,1.5644877E-1,-1.22211855E-2,-4.43979E-2,2.4978815E-1,9.765456E-2,2.3631204E-2,1.2010334E-1,1.3428868E-1,3.7115696E-1],"split_indices":[4,11,32,24,27,0,3,13,3,19,37,0,5,0,0,0,0,0,0,0,0,0,0],"split_type":[0,0,0,0,0,0,0,0,0,0,0,0,0,0,0,0,0,0,0,0,0,0,0],"sum_hessian":[2.859E3,2.788E3,7.1E1,1.986E3,8.02E2,7E0,6.4E1,1.16E2,1.87E3,2.22E2,5.8E2,1.3E1,5.1E1,1.03E2,1.3E1,3.95E2,1.475E3,8E0,2.14E2,5.29E2,5.1E1,3.8E1,1.3E1],"tree_param":{"num_deleted":"0","num_feature":"51","num_nodes":"23","size_leaf_vector":"1"}},{"base_weights":[-5.762987E-2,-1.7225312E0,1.4176197E1,-3.7609494E0,1.7686809E0,6.8614274E-1,1.2144981E1,-5.3340874E0,-2.4988012E0,4.790538E0,2.5072163E-1,3.1549747E1,1.0884271E1,-7.559236E-2,-5.1725287E-2,-3.2746572E-2,2.6507286E-2,4.714199E-2,1.8070932E-1,2.2453645E-2,-1.6326662E-2,1.685999E-1,4.983942E-1,1.4477505E-1,6.326335E-2],"categories":[],"categories_nodes":[],"categories_segments":[],"categories_sizes":[],"default_left":[0,0,0,0,0,0,0,0,0,0,0,0,0,0,0,0,0,0,0,0,0,0,0,0,0],"id":14,"left_children":[1,3,5,7,9,-1,11,13,15,17,19,21,23,-1,-1,-1,-1,-1,-1,-1,-1,-1,-1,-1,-1],"loss_changes":[6.672718E4,1.7945615E4,2.7846016E4,3.1490488E3,4.2641953E3,0E0,6.647453E3,6.784824E2,1.9436982E3,1.8940688E3,1.8898296E3,3.0859238E3,2.9182793E3,0E0,0E0,0E0,0E0,0E0,0E0,0E0,0E0,0E0,0E0,0E0,0E0],"parents":[2147483647,0,0,1,1,2,2,3,3,4,4,6,6,7,7,8,8,9,9,10,10,11,11,12,12],"right_children":[2,4,6,8,10,-1,12,14,16,18,20,22,24,-1,-1,-1,-1,-1,-1,-1,-1,-1,-1,-1,-1],"split_conditions":[2.723E1,1.782E1,-1.4131607E-1,1.377E1,-1.3720608E0,6.8614274E-1,-9.632807E0,1.198E1,1.5635572E1,1.266098E2,6.2478954E-1,2.56917E1,9.4657534E-1,-7.559236E-2,-5.1725287E-2,-3.2746572E-2,2.6507286E-2,4.714199E-2,1.8070932E-1,2.2453645E-2,-1.6326662E-2,1.685999E-1,4.983942E-1,1.4477505E-1,6.326335E-2],"split_indices":[0,0,1,0,28,0,3,0,6,36,14,43,28,0,0,0,0,0,0,0,0,0,0,0,0],"split_type":[0,0,0,0,0,0,0,0,0,0,0,0,0,0,0,0,0,0,0,0,0,0,0,0,0],"sum_hessian":[2.814E3,2.52E3,2.94E2,1.591E3,9.29E2,1.1E1,2.83E2,7.07E2,8.84E2,3.1E2,6.19E2,1.6E1,2.67E2,2.21E2,4.86E2,8.1E2,7.4E1,2.97E2,1.3E1,3.05E2,3.14E2,8E0,8E0,1.88E2,7.9E1],"tree_param":{"num_deleted":"0","num_feature":"51","num_nodes":"25","size_leaf_vector":"1"}},{"base_weights":[-8.802753E-2,-2.5144904E0,9.859384E0,-4.390997E0,-2.7566266E-1,4.477251E1,8.282904E0,-5.241874E0,-3.2122548E0,1.9220017E0,-2.1633873E0,1.7811273E-1,6.209464E-1,2.6128018E0,1.1283219E1,-8.376989E-2,-5.396167E-2,-2.5416125E-2,-5.0320763E-2,3.9895233E-2,1.0087854E-2,-3.1514525E-2,6.551769E-3,1.7719497E-1,2.2377972E-2,1.15402155E-1,3.0454463E-1],"categories":[],"categories_nodes":[],"categories_segments":[],"categories_sizes":[],"default_left":[0,0,0,0,0,0,0,0,0,0,0,0,0,0,0,0,0,0,0,0,0,0,0,0,0,0,0],"id":15,"left_children":[1,3,5,7,9,11,13,15,17,19,21,-1,-1,23,25,-1,-1,-1,-1,-1,-1,-1,-1,-1,-1,-1,-1],"loss_changes":[6.854291E4,9.589566E3,3.0328828E4,1.2308613E3,4.3258433E3,6.8470703E3,9.056426E3,6.0559766E2,6.2756104E2,8.124281E2,1.0404109E3,0E0,0E0,1.4560807E3,4.8014844E3,0E0,0E0,0E0,0E0,0E0,0E0,0E0,0E0,0E0,0E0,0E0,0E0],"parents":[2147483647,0,0,1,1,2,2,3,3,4,4,5,5,6,6,7,7,8,8,9,9,10,10,13,13,14,14],"right_children":[2,4,6,8,10,12,14,16,18,20,22,-1,-1,24,26,-1,-1,-1,-1,-1,-1,-1,-1,-1,-1,-1,-1],"split_conditions":[2.273E1,1.595E1,-7.4921665E0,1.377E1,4.588224E-1,6.7193675E0,1.6204341E-1,1.088E1,1.2993678E0,1.5810277E1,1.848773E1,1.7811273E-1,6.209464E-1,-3.2E0,1.5823853E0,-8.376989E-2,-5.396167E-2,-2.5416125E-2,-5.0320763E-2,3.9895233E-2,1.0087854E-2,-3.1514525E-2,6.551769E-3,1.7719497E-1,2.2377972E-2,1.15402155E-1,3.0454463E-1],"split_indices":[0,0,2,0,2,43,21,0,35,43,15,0,0,9,5,0,0,0,0,0,0,0,0,0,0,0,0],"split_type":[0,0,0,0,0,0,0,0,0,0,0,0,0,0,0,0,0,0,0,0,0,0,0,0,0,0,0],"sum_hessian":[2.838E3,2.282E3,5.56E2,1.241E3,1.041E3,2.3E1,5.33E2,7.19E2,5.22E2,4.81E2,5.6E2,7E0,1.6E1,1.85E2,3.48E2,1.01E2,6.18E2,3.08E2,2.14E2,1.81E2,3E2,4.5E2,1.1E2,7E0,1.78E2,3.31E2,1.7E1],"tree_param":{"num_deleted":"0","num_feature":"51","num_nodes":"27","size_leaf_vector":"1"}},{"base_weights":[-1.4479306E-1,-2.417655E0,9.299622E0,-3.8859038E0,2.8739506E-1,4.486759E1,7.797065E0,-6.0340934E0,-3.3023775E0,2.1794705E0,-1.8532741E0,1.7169291E-1,6.425108E-1,4.9866233E0,1.266313E1,-7.093416E-2,-2.9667668E-2,-2.2889446E-2,-4.8889786E-2,5.8506753E-2,1.5312472E-2,-3.966538E-2,-4.8253857E-4,3.0215412E-2,7.97203E-2,1.1756352E-1,2.2581805E-1],"categories":[],"categories_nodes":[],"categories_segments":[],"categories_sizes":[],"default_left":[0,0,0,0,0,0,0,0,0,0,0,0,0,0,0,0,0,0,0,0,0,0,0,0,0,0,0],"id":16,"left_children":[1,3,5,7,9,11,13,15,17,19,21,-1,-1,23,25,-1,-1,-1,-1,-1,-1,-1,-1,-1,-1,-1,-1],"loss_changes":[6.0185066E4,8.976496E3,2.8762926E4,1.818877E3,3.2269753E3,7.5606562E3,7.0957656E3,3.5212988E2,1.5654941E3,1.0393812E3,1.1612489E3,0E0,0E0,1.6342842E3,2.8588828E3,0E0,0E0,0E0,0E0,0E0,0E0,0E0,0E0,0E0,0E0,0E0,0E0],"parents":[2147483647,0,0,1,1,2,2,3,3,4,4,5,5,6,6,7,7,8,8,9,9,10,10,13,13,14,14],"right_children":[2,4,6,8,10,12,14,16,18,20,22,-1,-1,24,26,-1,-1,-1,-1,-1,-1,-1,-1,-1,-1,-1,-1],"split_conditions":[2.273E1,1.707E1,-7.4921665E0,1.244E1,6.4698917E-1,1.1067194E1,1.1726612E0,2.1235633E0,1.0724119E0,-3.6220357E-1,1.5698016E1,1.7169291E-1,6.425108E-1,1.6204341E-1,6.612988E-1,-7.093416E-2,-2.9667668E-2,-2.2889446E-2,-4.8889786E-2,5.8506753E-2,1.5312472E-2,-3.966538E-2,-4.8253857E-4,3.0215412E-2,7.97203E-2,1.1756352E-1,2.2581805E-1],"split_indices":[0,0,2,0,14,43,12,45,2,8,15,0,0,21,21,0,0,0,0,0,0,0,0,0,0,0,0],"split_type":[0,0,0,0,0,0,0,0,0,0,0,0,0,0,0,0,0,0,0,0,0,0,0,0,0,0,0],"sum_hessian":[2.802E3,2.259E3,5.43E2,1.464E3,7.95E2,2.1E1,5.22E2,3.11E2,1.153E3,4.22E2,3.73E2,7E0,1.4E1,3.32E2,1.9E2,2.81E2,3E1,5.42E2,6.11E2,8.6E1,3.36E2,1.91E2,1.82E2,1.64E2,1.68E2,1.51E2,3.9E1],"tree_param":{"num_deleted":"0","num_feature":"51","num_nodes":"27","size_leaf_vector":"1"}},{"base_weights":[1.1669817E-1,4.1974884E1,-5.5002785E-1,2.167227E1,6.556538E1,-2.3641665E0,7.361995E0,1.460638E-1,3.3400804E-1,5.396136E-1,9.576527E-1,-4.4791512E0,-4.418515E-1,2.767838E0,9.917362E0,-3.7708774E-2,-5.8927704E-2,1.20909335E-2,-2.5767263E-2,1.0401101E-1,2.280008E-2,9.195656E-2,1.6919753E-1],"categories":[],"categories_nodes":[],"categories_segments":[],"categories_sizes":[],"default_left":[0,0,0,0,0,0,0,0,0,0,0,0,0,0,0,0,0,0,0,0,0,0,0],"id":17,"left_children":[1,3,5,7,9,11,13,-1,-1,-1,-1,15,17,19,21,-1,-1,-1,-1,-1,-1,-1,-1],"loss_changes":[7.807539E4,1.9780914E4,3.9542484E4,1.436626E3,3.3521562E3,9.108796E3,6.008701E3,0E0,0E0,0E0,0E0,9.387617E2,3.3764546E3,8.5572E2,2.7660742E3,0E0,0E0,0E0,0E0,0E0,0E0,0E0,0E0],"parents":[2147483647,0,0,1,1,2,2,3,3,4,4,5,5,6,6,11,11,12,12,13,13,14,14],"right_children":[2,4,6,8,10,12,14,-1,-1,-1,-1,16,18,20,22,-1,-1,-1,-1,-1,-1,-1,-1],"split_conditions":[-6.365692E0,3.1225296E1,2.273E1,-2.4357955E-1,7.4803597E-1,1.543E1,1.6204341E-1,1.460638E-1,3.3400804E-1,5.396136E-1,9.576527E-1,7.5729746E-1,6.706809E-1,-2.8E0,1.762685E2,-3.7708774E-2,-5.8927704E-2,1.20909335E-2,-2.5767263E-2,1.0401101E-1,2.280008E-2,9.195656E-2,1.6919753E-1],"split_indices":[2,43,0,47,47,0,21,0,0,0,0,14,14,9,25,0,0,0,0,0,0,0,0],"split_type":[0,0,0,0,0,0,0,0,0,0,0,0,0,0,0,0,0,0,0,0,0,0,0],"sum_hessian":[2.796E3,4.3E1,2.753E3,2.4E1,1.9E1,2.24E3,5.13E2,1.3E1,1.1E1,1.2E1,7E0,1.066E3,1.174E3,1.84E2,3.29E2,4.62E2,6.04E2,6.47E2,5.27E2,1.7E1,1.67E2,2.53E2,7.6E1],"tree_param":{"num_deleted":"0","num_feature":"51","num_nodes":"23","size_leaf_vector":"1"}},{"base_weights":[-6.369034E-2,5.205997E1,-5.4088014E-1,8.866002E-1,3.3177376E1,-2.2924728E0,6.9795175E0,4.6030694E-1,2.1321669E-1,-4.379248E0,-3.121646E-1,1.200323E1,4.2635593E0,-7.402281E-2,-4.221752E-2,1.9278286E-2,-2.2650586E-2,1.1477307E-1,3.0379736E-1,4.2944852E-2,2.3417985E-1],"categories":[],"categories_nodes":[],"categories_segments":[],"categories_sizes":[],"default_left":[0,0,0,0,0,0,0,0,0,0,0,0,0,0,0,0,0,0,0,0,0],"id":18,"left_children":[1,3,5,-1,7,9,11,-1,-1,13,15,17,19,-1,-1,-1,-1,-1,-1,-1,-1],"loss_changes":[7.090753E4,1.1258172E4,3.7224688E4,0E0,1.2592148E3,9.469754E3,7.2396777E3,0E0,0E0,1.4547031E3,4.1622E3,4.5533223E3,2.2605342E3,0E0,0E0,0E0,0E0,0E0,0E0,0E0,0E0],"parents":[2147483647,0,0,1,1,2,2,4,4,5,5,6,6,9,9,10,10,11,11,12,12],"right_children":[2,4,6,-1,8,10,12,-1,-1,14,16,18,20,-1,-1,-1,-1,-1,-1,-1,-1],"split_conditions":[-1.05197504E-1,4.6875E0,2.273E1,8.866002E-1,9.253407E1,1.546E1,-4.62746E0,4.6030694E-1,2.1321669E-1,1.204E1,4.588224E-1,5.825353E1,5.0783825E0,-7.402281E-2,-4.221752E-2,1.9278286E-2,-2.2650586E-2,1.1477307E-1,3.0379736E-1,4.2944852E-2,2.3417985E-1],"split_indices":[1,32,0,0,24,0,8,0,0,0,2,6,2,0,0,0,0,0,0,0,0],"split_type":[0,0,0,0,0,0,0,0,0,0,0,0,0,0,0,0,0,0,0,0,0],"sum_hessian":[2.849E3,2.5E1,2.824E3,9E0,1.6E1,2.291E3,5.33E2,9E0,7E0,1.115E3,1.176E3,1.86E2,3.47E2,2.24E2,8.91E2,5.38E2,6.38E2,1.69E2,1.7E1,3.4E2,7E0],"tree_param":{"num_deleted":"0","num_feature":"51","num_nodes":"21","size_leaf_vector":"1"}},{"base_weights":[2.1311863E-1,-3.2463568E-1,5.075327E1,-2.2083857E0,8.025118E0,1.6799037E-1,6.550036E1,-3.7486415E0,7.170243E-1,5.3090224E0,1.2837452E1,5.229555E-1,1.0091343E0,-6.480114E-2,-3.2753974E-2,2.7960703E-2,-1.5088142E-2,1.4158255E-1,4.5272447E-2,2.0386957E-1,1.20047614E-1],"categories":[],"categories_nodes":[],"categories_segments":[],"categories_sizes":[],"default_left":[0,0,0,0,0,0,0,0,0,0,0,0,0,0,0,0,0,0,0,0,0],"id":19,"left_children":[1,3,5,7,9,-1,11,13,15,17,19,-1,-1,-1,-1,-1,-1,-1,-1,-1,-1],"loss_changes":[7.708878E4,4.4163875E4,1.4837359E4,1.0324727E4,6.696664E3,0E0,6.050047E3,2.4891035E3,2.955703E3,3.0003848E3,1.9110996E3,0E0,0E0,0E0,0E0,0E0,0E0,0E0,0E0,0E0,0E0],"parents":[2147483647,0,0,1,1,2,2,3,3,4,4,6,6,7,7,8,8,9,9,10,10],"right_children":[2,4,6,8,10,-1,12,14,16,18,20,-1,-1,-1,-1,-1,-1,-1,-1,-1,-1],"split_conditions":[1.1180089E2,2.325E1,2.9701975E1,1.722E1,2.965E1,1.6799037E-1,7.901859E-1,1.284E1,6.2478954E-1,-4.9088254E0,-1.3835133E0,5.229555E-1,1.0091343E0,-6.480114E-2,-3.2753974E-2,2.7960703E-2,-1.5088142E-2,1.4158255E-1,4.5272447E-2,2.0386957E-1,1.20047614E-1],"split_indices":[6,0,15,0,0,0,47,0,14,3,18,0,0,0,0,0,0,0,0,0,0],"split_type":[0,0,0,0,0,0,0,0,0,0,0,0,0,0,0,0,0,0,0,0,0],"sum_hessian":[2.835E3,2.806E3,2.9E1,2.29E3,5.16E2,9E0,2E1,1.5E3,7.9E2,3.31E2,1.85E2,1.3E1,7E0,4.15E2,1.085E3,4.23E2,3.67E2,4.6E1,2.85E2,4.8E1,1.37E2],"tree_param":{"num_deleted":"0","num_feature":"51","num_nodes":"21","size_leaf_vector":"1"}},{"base_weights":[8.169529E-2,-1.2379022E0,1.8436192E1,-3.3750005E0,2.613862E0,5.7563766E1,1.3536922E1,-3.9346292E0,-3.797045E-2,5.9398317E0,1.2366581E0,8.8479125E-1,4.2779303E-1,3.660309E-1,1.18818E1,-5.464412E-2,-3.298034E-2,-1.3626544E-2,4.2452354E-2,5.9526548E-2,2.552112E-1,1.9676583E-1,1.1545325E-2,1.4693014E-1,4.2995203E-2],"categories":[],"categories_nodes":[],"categories_segments":[],"categories_sizes":[],"default_left":[0,0,0,0,0,0,0,0,0,0,0,0,0,0,0,0,0,0,0,0,0,0,0,0,0],"id":20,"left_children":[1,3,5,7,9,11,13,15,17,19,21,-1,-1,-1,23,-1,-1,-1,-1,-1,-1,-1,-1,-1,-1],"loss_changes":[6.856082E4,2.1746137E4,3.572269E4,3.172416E3,4.312343E3,6.1299844E3,5.1172383E3,1.3697461E3,1.1268024E3,2.6300469E3,2.157605E3,0E0,0E0,0E0,1.6524336E3,0E0,0E0,0E0,0E0,0E0,0E0,0E0,0E0,0E0,0E0],"parents":[2147483647,0,0,1,1,2,2,3,3,4,4,5,5,6,6,7,7,8,8,9,9,10,10,14,14],"right_children":[2,4,6,8,10,12,14,16,18,20,22,-1,-1,-1,24,-1,-1,-1,-1,-1,-1,-1,-1,-1,-1],"split_conditions":[2.965E1,1.833E1,-1.05197504E-1,1.789999E0,-6.5692466E-1,4.6875E0,-9.632807E0,1.391E1,2.4985712E0,1.1871183E2,-3.363733E1,8.8479125E-1,4.2779303E-1,3.660309E-1,-5.1682055E-1,-5.464412E-2,-3.298034E-2,-1.3626544E-2,4.2452354E-2,5.9526548E-2,2.552112E-1,1.9676583E-1,1.1545325E-2,1.4693014E-1,4.2995203E-2],"split_indices":[0,0,1,44,8,32,3,0,4,24,6,0,0,0,8,0,0,0,0,0,0,0,0,0,0],"split_type":[0,0,0,0,0,0,0,0,0,0,0,0,0,0,0,0,0,0,0,0,0,0,0,0,0],"sum_hessian":[2.829E3,2.64E3,1.89E2,1.698E3,9.42E2,2E1,1.69E2,1.454E3,2.44E2,2.75E2,6.67E2,8E0,1.2E1,1.2E1,1.57E2,7.19E2,7.35E2,1.87E2,5.7E1,2.67E2,8E0,7E0,6.6E2,1.34E2,2.3E1],"tree_param":{"num_deleted":"0","num_feature":"51","num_nodes":"25","size_leaf_vector":"1"}},{"base_weights":[8.648654E-2,5.2393974E1,-4.364868E-1,8.941201E-1,3.279139E1,-2.5830455E0,5.672828E0,2.2642009E-1,4.3525895E-1,-3.8965986E0,-1.6403624E-1,3.8644183E0,1.1992473E1,-7.125918E-2,-3.835211E-2,2.0405143E-2,-2.4416316E-2,7.910907E-2,2.4130354E-2,1.5983294E-1,7.305502E-2],"categories":[],"categories_nodes":[],"categories_segments":[],"categories_sizes":[],"default_left":[0,0,0,0,0,0,0,0,0,0,0,0,0,0,0,0,0,0,0,0,0],"id":21,"left_children":[1,3,5,-1,7,9,11,-1,-1,13,15,17,19,-1,-1,-1,-1,-1,-1,-1,-1],"loss_changes":[7.6995125E4,1.3056422E4,3.6559492E4,0E0,7.255508E2,6.5541074E3,8.243822E3,0E0,0E0,1.4778223E3,2.9601233E3,3.0990137E3,2.0027891E3,0E0,0E0,0E0,0E0,0E0,0E0,0E0,0E0],"parents":[2147483647,0,0,1,1,2,2,4,4,5,5,6,6,9,9,10,10,11,11,12,12],"right_children":[2,4,6,-1,8,10,12,-1,-1,14,16,18,20,-1,-1,-1,-1,-1,-1,-1,-1],"split_conditions":[-1.05197504E-1,6.25E0,2.098E1,8.941201E-1,2.1243174E1,1.65E1,2.965E1,2.2642009E-1,4.3525895E-1,1.187E1,6.2478954E-1,-1.5702803E0,1.26898605E2,-7.125918E-2,-3.835211E-2,2.0405143E-2,-2.4416316E-2,7.910907E-2,2.4130354E-2,1.5983294E-1,7.305502E-2],"split_indices":[1,32,0,0,4,0,0,0,0,0,14,8,40,0,0,0,0,0,0,0,0],"split_type":[0,0,0,0,0,0,0,0,0,0,0,0,0,0,0,0,0,0,0,0,0],"sum_hessian":[2.813E3,2.7E1,2.786E3,1E1,1.7E1,2.062E3,7.24E2,7E0,1E1,1.336E3,7.26E2,5.64E2,1.6E2,1.99E2,1.137E3,3.66E2,3.6E2,1.92E2,3.72E2,1.1E2,5E1],"tree_param":{"num_deleted":"0","num_feature":"51","num_nodes":"21","size_leaf_vector":"1"}},{"base_weights":[-1.3016051E-1,-1.4783373E0,1.3181351E1,-3.3256536E0,2.2007735E0,8.207948E-1,1.1241696E1,-3.9333055E0,-1.3083327E-1,-8.036228E-2,3.6281106E0,9.709201E0,3.2101772E1,-5.57205E-2,-3.249588E-2,-1.2522671E-2,4.706722E-2,-1.611665E-2,1.7483585E-2,-1.642988E-2,4.7378466E-2,1.6628996E-1,8.287E-2,1.5923764E-1,4.8290485E-1],"categories":[],"categories_nodes":[],"categories_segments":[],"categories_sizes":[],"default_left":[0,0,0,0,0,0,0,0,0,0,0,0,0,0,0,0,0,0,0,0,0,0,0,0,0],"id":22,"left_children":[1,3,5,7,9,-1,11,13,15,17,19,21,23,-1,-1,-1,-1,-1,-1,-1,-1,-1,-1,-1,-1],"loss_changes":[5.0514902E4,1.73772E4,2.9754145E4,3.3033672E3,2.7837095E3,0E0,7.7819824E3,1.547E3,1.1910289E3,7.4941034E2,1.7130166E3,2.6942598E3,2.8655117E3,0E0,0E0,0E0,0E0,0E0,0E0,0E0,0E0,0E0,0E0,0E0,0E0],"parents":[2147483647,0,0,1,1,2,2,3,3,4,4,6,6,7,7,8,8,9,9,10,10,11,11,12,12],"right_children":[2,4,6,8,10,-1,12,14,16,18,20,22,24,-1,-1,-1,-1,-1,-1,-1,-1,-1,-1,-1,-1],"split_conditions":[2.75E1,1.833E1,-2.8826017E0,1.2378517E1,-6.717585E-1,8.207948E-1,4.856051E0,1.391E1,8.697424E0,5.4157275E-1,-4.5E-1,-3.7177641E0,1.35E0,-5.57205E-2,-3.249588E-2,-1.2522671E-2,4.706722E-2,-1.611665E-2,1.7483585E-2,-1.642988E-2,4.7378466E-2,1.6628996E-1,8.287E-2,1.5923764E-1,4.8290485E-1],"split_indices":[0,0,13,46,11,0,12,0,8,13,34,2,9,0,0,0,0,0,0,0,0,0,0,0,0],"split_type":[0,0,0,0,0,0,0,0,0,0,0,0,0,0,0,0,0,0,0,0,0,0,0,0,0],"sum_hessian":[2.813E3,2.555E3,2.58E2,1.701E3,8.54E2,7E0,2.51E2,1.429E3,2.72E2,3.29E2,5.25E2,2.35E2,1.6E1,6.88E2,7.41E2,2.22E2,5E1,1.8E2,1.49E2,5.8E1,4.67E2,6.9E1,1.66E2,7E0,9E0],"tree_param":{"num_deleted":"0","num_feature":"51","num_nodes":"25","size_leaf_vector":"1"}},{"base_weights":[1.1992619E-1,-1.4831048E0,1.5005729E1,-3.2780287E0,2.1313713E0,1.1870736E1,6.0415348E1,-4.8483987E0,-2.1025755E0,1.7281874E0,1.2268651E1,1.0223189E1,2.6016554E1,4.133887E-1,8.443495E-1,-6.065305E-2,-3.556434E-2,-2.7830137E-2,3.1858403E-2,4.908696E-2,6.414185E-3,2.721543E-1,4.693274E-2,8.2496576E-2,1.3999547E-1,3.747107E-1,1.0869393E-1],"categories":[],"categories_nodes":[],"categories_segments":[],"categories_sizes":[],"default_left":[0,0,0,0,0,0,0,0,0,0,0,0,0,0,0,0,0,0,0,0,0,0,0,0,0,0,0],"id":23,"left_children":[1,3,5,7,9,11,13,15,17,19,21,23,25,-1,-1,-1,-1,-1,-1,-1,-1,-1,-1,-1,-1,-1,-1],"loss_changes":[6.869216E4,1.6866709E4,3.922111E4,3.1971426E3,3.508124E3,5.896207E3,4.017461E3,7.316992E2,1.994123E3,2.5695908E3,3.1420596E3,1.4940703E3,3.0754766E3,0E0,0E0,0E0,0E0,0E0,0E0,0E0,0E0,0E0,0E0,0E0,0E0,0E0,0E0],"parents":[2147483647,0,0,1,1,2,2,3,3,4,4,5,5,6,6,7,7,8,8,9,9,10,10,11,11,12,12],"right_children":[2,4,6,8,10,12,14,16,18,20,22,24,26,-1,-1,-1,-1,-1,-1,-1,-1,-1,-1,-1,-1,-1,-1],"split_conditions":[2.723E1,1.833E1,2.4271533E0,1.384E1,1.250662E2,3.6472077E0,6.52E-1,8.573113E0,2.7507378E1,-1.4627253E0,1.2486521E2,1.0280745E0,3.5245377E2,4.133887E-1,8.443495E-1,-6.065305E-2,-3.556434E-2,-2.7830137E-2,3.1858403E-2,4.908696E-2,6.414185E-3,2.721543E-1,4.693274E-2,8.2496576E-2,1.3999547E-1,3.747107E-1,1.0869393E-1],"split_indices":[0,0,5,0,36,12,31,8,46,3,41,12,25,0,0,0,0,0,0,0,0,0,0,0,0,0,0],"split_type":[0,0,0,0,0,0,0,0,0,0,0,0,0,0,0,0,0,0,0,0,0,0,0,0,0,0,0],"sum_hessian":[2.877E3,2.598E3,2.79E2,1.736E3,8.62E2,2.62E2,1.7E1,7.42E2,9.94E2,8.3E2,3.2E1,2.36E2,2.6E1,8E0,9E0,5.4E2,2.02E2,9.2E2,7.4E1,2.48E2,5.82E2,1.2E1,2E1,1.1E2,1.26E2,1.7E1,9E0],"tree_param":{"num_deleted":"0","num_feature":"51","num_nodes":"27","size_leaf_vector":"1"}},{"base_weights":[1.0600876E-2,-1.4447304E0,1.3011393E1,-3.172958E0,1.9687095E0,1.0093288E1,4.5816044E1,-1.6242942E0,-4.3242903E0,1.6348175E0,1.2551657E1,7.4704885E0,1.4059198E1,2.3105219E-1,5.5726772E1,-2.7886176E-2,5.5143926E-3,-7.8099005E-2,-4.392881E-2,4.583113E-3,4.0842324E-2,3.219118E-1,5.7032775E-2,6.5792054E-2,1.4983997E-1,1.7338432E-1,5.9784316E-2,4.0650123E-1,7.4763787E-1],"categories":[],"categories_nodes":[],"categories_segments":[],"categories_sizes":[],"default_left":[0,0,0,0,0,0,0,0,0,0,0,0,0,0,0,0,0,0,0,0,0,0,0,0,0,0,0,0,0],"id":24,"left_children":[1,3,5,7,9,11,13,15,17,19,21,23,25,-1,27,-1,-1,-1,-1,-1,-1,-1,-1,-1,-1,-1,-1,-1,-1],"loss_changes":[5.3161395E4,1.4911875E4,2.6677863E4,2.9855E3,2.9850703E3,2.622457E3,4.6689023E3,1.347061E3,9.403828E2,2.0563857E3,3.0215178E3,1.4112139E3,1.3064414E3,0E0,1.3854531E3,0E0,0E0,0E0,0E0,0E0,0E0,0E0,0E0,0E0,0E0,0E0,0E0,0E0,0E0],"parents":[2147483647,0,0,1,1,2,2,3,3,4,4,5,5,6,6,7,7,8,8,9,9,10,10,11,11,12,12,14,14],"right_children":[2,4,6,8,10,12,14,16,18,20,22,24,26,-1,28,-1,-1,-1,-1,-1,-1,-1,-1,-1,-1,-1,-1,-1,-1],"split_conditions":[2.657E1,1.818E1,2.1243174E1,7.28399E-1,1.261251E2,8.8142296E1,3.9044003E1,6.2845848E1,1.152E1,2.233E1,1.2486521E2,5.5819464E-1,9.7628456E1,2.3105219E-1,6.52E-1,-2.7886176E-2,5.5143926E-3,-7.8099005E-2,-4.392881E-2,4.583113E-3,4.0842324E-2,3.219118E-1,5.7032775E-2,6.5792054E-2,1.4983997E-1,1.7338432E-1,5.9784316E-2,4.0650123E-1,7.4763787E-1],"split_indices":[0,0,4,14,36,20,30,20,0,0,41,22,16,0,31,0,0,0,0,0,0,0,0,0,0,0,0,0,0],"split_type":[0,0,0,0,0,0,0,0,0,0,0,0,0,0,0,0,0,0,0,0,0,0,0,0,0,0,0,0,0],"sum_hessian":[2.808E3,2.526E3,2.82E2,1.677E3,8.49E2,2.6E2,2.2E1,7.16E2,9.61E2,8.24E2,2.5E1,1.58E2,1.02E2,7E0,1.5E1,5.05E2,2.11E2,1.14E2,8.47E2,5.16E2,3.08E2,7E0,1.8E1,1.27E2,3.1E1,8.6E1,1.6E1,7E0,8E0],"tree_param":{"num_deleted":"0","num_feature":"51","num_nodes":"29","size_leaf_vector":"1"}},{"base_weights":[2.8745955E-2,-1.7749662E0,1.0272313E1,-3.4639678E0,8.071144E-1,8.836696E0,4.9362495E1,-4.3573704E0,-1.876404E0,3.004051E0,-1.1316024E0,1.8390266E1,7.2843323E0,6.7879516E-1,3.5800254E-1,-5.6922235E-2,-3.5218418E-2,-3.403692E-2,-6.659242E-3,6.4993184E-3,5.059725E-2,-3.1326305E-2,6.5933997E-3,3.1509322E-1,1.4158326E-1,4.229608E-2,1.0938189E-1],"categories":[],"categories_nodes":[],"categories_segments":[],"categories_sizes":[],"default_left":[0,0,0,0,0,0,0,0,0,0,0,0,0,0,0,0,0,0,0,0,0,0,0,0,0,0,0],"id":25,"left_children":[1,3,5,7,9,11,13,15,17,19,21,23,25,-1,-1,-1,-1,-1,-1,-1,-1,-1,-1,-1,-1,-1,-1],"loss_changes":[5.243102E4,1.0525287E4,2.3465418E4,2.0619805E3,4.0699526E3,5.97734E3,1.2891641E3,8.340508E2,7.969099E2,1.6764795E3,1.4800048E3,2.8888184E3,3.126539E3,0E0,0E0,0E0,0E0,0E0,0E0,0E0,0E0,0E0,0E0,0E0,0E0,0E0,0E0],"parents":[2147483647,0,0,1,1,2,2,3,3,4,4,5,5,6,6,7,7,8,8,9,9,10,10,11,11,12,12],"right_children":[2,4,6,8,10,12,14,16,18,20,22,24,26,-1,-1,-1,-1,-1,-1,-1,-1,-1,-1,-1,-1,-1,-1],"split_conditions":[2.479E1,1.703E1,2.3361862E0,1.476E1,5.8576393E-1,-5.087057E0,4.6875E0,7.4065213E0,1.4015512E-1,-2.7134677E-2,1.5698016E1,-1.5E-1,1.9577799E1,6.7879516E-1,3.5800254E-1,-5.6922235E-2,-3.5218418E-2,-3.403692E-2,-6.659242E-3,6.4993184E-3,5.059725E-2,-3.1326305E-2,6.5933997E-3,3.1509322E-1,1.4158326E-1,4.229608E-2,1.0938189E-1],"split_indices":[0,0,5,0,14,2,32,8,17,12,15,19,11,0,0,0,0,0,0,0,0,0,0,0,0,0,0],"split_type":[0,0,0,0,0,0,0,0,0,0,0,0,0,0,0,0,0,0,0,0,0,0,0,0,0,0,0],"sum_hessian":[2.836E3,2.412E3,4.24E2,1.458E3,9.54E2,4.1E2,1.4E1,9.32E2,5.26E2,4.47E2,5.07E2,5.6E1,3.54E2,7E0,7E0,5.65E2,3.67E2,2.72E2,2.54E2,1.75E2,2.72E2,2.56E2,2.51E2,1.9E1,3.7E1,1.51E2,2.03E2],"tree_param":{"num_deleted":"0","num_feature":"51","num_nodes":"27","size_leaf_vector":"1"}},{"base_weights":[9.842581E-3,-2.1939933E0,8.937053E0,-4.0777073E0,-4.3231824E-1,4.2816338E1,7.482631E0,-2.8251586E0,-5.0463443E0,9.317666E-1,-1.9531057E0,3.2719135E-1,6.138786E-1,2.5807889E0,1.0067445E1,-3.3200536E-2,8.082875E-2,-6.103865E-2,-2.5966005E-2,4.8055645E-2,3.8583998E-3,-3.3452902E-2,6.513041E-3,8.497273E-2,1.6124243E-2,9.697931E-2,1.8306535E-1],"categories":[],"categories_nodes":[],"categories_segments":[],"categories_sizes":[],"default_left":[0,0,0,0,0,0,0,0,0,0,0,0,0,0,0,0,0,0,0,0,0,0,0,0,0,0,0],"id":26,"left_children":[1,3,5,7,9,11,13,15,17,19,21,-1,-1,23,25,-1,-1,-1,-1,-1,-1,-1,-1,-1,-1,-1,-1],"loss_changes":[5.5633027E4,7.5242734E3,2.7309875E4,1.317125E3,2.4346719E3,2.395539E3,6.792254E3,8.077136E2,7.358701E2,1.2260344E3,1.491636E3,0E0,0E0,1.0597423E3,2.8958125E3,0E0,0E0,0E0,0E0,0E0,0E0,0E0,0E0,0E0,0E0,0E0,0E0],"parents":[2147483647,0,0,1,1,2,2,3,3,4,4,5,5,6,6,7,7,8,8,9,9,10,10,13,13,14,14],"right_children":[2,4,6,8,10,12,14,16,18,20,22,-1,-1,24,26,-1,-1,-1,-1,-1,-1,-1,-1,-1,-1,-1,-1],"split_conditions":[2.273E1,1.539E1,-7.4921665E0,7.649767E-1,6.706809E-1,2.0247737E2,1.6307528E-1,5.0371134E-1,1.207028E2,-3.6220357E-1,1.6467447E1,3.2719135E-1,6.138786E-1,-5.1577324E-1,7.5760185E1,-3.3200536E-2,8.082875E-2,-6.103865E-2,-2.5966005E-2,4.8055645E-2,3.8583998E-3,-3.3452902E-2,6.513041E-3,8.497273E-2,1.6124243E-2,9.697931E-2,1.8306535E-1],"split_indices":[0,0,2,14,14,11,21,12,36,8,15,0,0,22,11,0,0,0,0,0,0,0,0,0,0,0,0],"split_type":[0,0,0,0,0,0,0,0,0,0,0,0,0,0,0,0,0,0,0,0,0,0,0,0,0,0,0],"sum_hessian":[2.826E3,2.267E3,5.59E2,1.095E3,1.172E3,2.2E1,5.37E2,4.79E2,6.16E2,6.18E2,5.54E2,1.2E1,1E1,1.86E2,3.51E2,4.72E2,7E0,5.28E2,8.8E1,9E1,5.28E2,3.91E2,1.63E2,3.3E1,1.53E2,2.92E2,5.9E1],"tree_param":{"num_deleted":"0","num_feature":"51","num_nodes":"27","size_leaf_vector":"1"}},{"base_weights":[2.8703736E-2,-1.1587707E0,1.6553524E1,-3.3595903E0,2.2267456E0,6.8994623E-1,1.3235887E1,-3.8754656E0,-5.2990943E-1,7.2113913E-1,4.847179E0,2.1360783E1,9.632129E0,-6.8267934E-2,-3.9022785E-2,3.671047E-2,-1.6334513E-2,2.7179794E-2,-1.3466499E-2,4.8644703E-2,2.1470308E-1,1.7720278E-1,4.042024E-1,9.5908515E-2,2.0782147E-1],"categories":[],"categories_nodes":[],"categories_segments":[],"categories_sizes":[],"default_left":[0,0,0,0,0,0,0,0,0,0,0,0,0,0,0,0,0,0,0,0,0,0,0,0,0],"id":27,"left_children":[1,3,5,7,9,-1,11,13,15,17,19,21,23,-1,-1,-1,-1,-1,-1,-1,-1,-1,-1,-1,-1],"loss_changes":[5.6449305E4,2.000369E4,2.8428594E4,2.3729746E3,4.1705044E3,0E0,5.117676E3,1.1157539E3,9.119513E2,2.2462708E3,2.5477373E3,3.9581816E3,1.0117539E3,0E0,0E0,0E0,0E0,0E0,0E0,0E0,0E0,0E0,0E0,0E0,0E0],"parents":[2147483647,0,0,1,1,2,2,3,3,4,4,6,6,7,7,8,8,9,9,10,10,11,11,12,12],"right_children":[2,4,6,8,10,-1,12,14,16,18,20,22,24,-1,-1,-1,-1,-1,-1,-1,-1,-1,-1,-1,-1],"split_conditions":[2.965E1,1.775E1,-2.8826017E0,1.4400005E0,2.273E1,6.8994623E-1,-1.4003665E0,1.187E1,-4.563221E-1,6.225992E-1,3.2702164E1,2.56917E1,1.7466589E0,-6.8267934E-2,-3.9022785E-2,3.671047E-2,-1.6334513E-2,2.7179794E-2,-1.3466499E-2,4.8644703E-2,2.1470308E-1,1.7720278E-1,4.042024E-1,9.5908515E-2,2.0782147E-1],"split_indices":[0,0,13,44,0,0,18,0,22,14,42,43,5,0,0,0,0,0,0,0,0,0,0,0,0],"split_type":[0,0,0,0,0,0,0,0,0,0,0,0,0,0,0,0,0,0,0,0,0,0,0,0,0],"sum_hessian":[2.875E3,2.683E3,1.92E2,1.626E3,1.057E3,1.2E1,1.8E2,1.375E3,2.51E2,6.72E2,3.85E2,5.4E1,1.26E2,1.88E2,1.187E3,4.9E1,2.02E2,3.55E2,3.17E2,3.74E2,1.1E1,4.1E1,1.3E1,1.15E2,1.1E1],"tree_param":{"num_deleted":"0","num_feature":"51","num_nodes":"25","size_leaf_vector":"1"}},{"base_weights":[2.7323132E-2,-4.0990278E-1,5.169544E1,-2.0868564E0,6.516313E0,3.350727E1,9.4483095E-1,-3.344456E0,2.8858104E-1,3.574659E0,1.0448489E1,4.652028E-1,2.4317689E-1,-2.2665808E-2,-4.7387484E-2,2.0136276E-2,-1.8995415E-2,3.3321634E-2,2.1669947E-1,3.6623046E-1,1.0702646E-1],"categories":[],"categories_nodes":[],"categories_segments":[],"categories_sizes":[],"default_left":[0,0,0,0,0,0,0,0,0,0,0,0,0,0,0,0,0,0,0,0,0],"id":28,"left_children":[1,3,5,7,9,11,-1,13,15,17,19,-1,-1,-1,-1,-1,-1,-1,-1,-1,-1],"loss_changes":[6.424135E4,3.2764174E4,1.200982E4,6.78475E3,6.327836E3,8.4706445E2,0E0,1.7751328E3,2.3982104E3,2.845919E3,4.0415781E3,0E0,0E0,0E0,0E0,0E0,0E0,0E0,0E0,0E0,0E0],"parents":[2147483647,0,0,1,1,2,2,3,3,4,4,5,5,7,7,8,8,9,9,10,10],"right_children":[2,4,6,8,10,12,-1,14,16,18,20,-1,-1,-1,-1,-1,-1,-1,-1,-1,-1],"split_conditions":[1.4499988E2,2.263E1,7.4803597E-1,1.722E1,-1.5E-1,7.894064E-1,9.4483095E-1,7.28399E-1,6.68268E-1,3.2702164E1,8.68067E1,4.652028E-1,2.4317689E-1,-2.2665808E-2,-4.7387484E-2,2.0136276E-2,-1.8995415E-2,3.3321634E-2,2.1669947E-1,3.6623046E-1,1.0702646E-1],"split_indices":[11,0,47,0,9,10,0,14,14,42,36,0,0,0,0,0,0,0,0,0,0],"split_type":[0,0,0,0,0,0,0,0,0,0,0,0,0,0,0,0,0,0,0,0,0],"sum_hessian":[2.842E3,2.819E3,2.3E1,2.27E3,5.49E2,1.6E1,7E0,1.484E3,7.86E2,3.15E2,2.34E2,8E0,8E0,6.15E2,8.69E2,4.46E2,3.4E2,3.05E2,1E1,7E0,2.27E2],"tree_param":{"num_deleted":"0","num_feature":"51","num_nodes":"21","size_leaf_vector":"1"}},{"base_weights":[-1.778618E-1,-1.8859712E0,9.180619E0,-3.3742995E0,6.59534E-1,4.3624466E1,7.450271E0,-4.0742884E0,-1.4163659E0,2.9666998E0,-1.4363079E0,6.12047E-1,2.527624E-1,4.8967495E0,1.1146732E1,-6.881302E-2,-4.0728845E-2,-2.2384193E-2,3.3819173E-2,7.4397735E-2,1.5419104E-2,-4.891943E-4,-3.6088765E-2,4.9030945E-2,1.9588667E-1,2.7077532E-1,1.11286946E-1],"categories":[],"categories_nodes":[],"categories_segments":[],"categories_sizes":[],"default_left":[0,0,0,0,0,0,0,0,0,0,0,0,0,0,0,0,0,0,0,0,0,0,0,0,0,0,0],"id":29,"left_children":[1,3,5,7,9,11,13,15,17,19,21,-1,-1,23,25,-1,-1,-1,-1,-1,-1,-1,-1,-1,-1,-1,-1],"loss_changes":[4.555473E4,9.131849E3,2.5934504E4,2.0793047E3,4.3065923E3,3.9085938E3,3.9157012E3,9.5015234E2,1.0773551E3,2.4875444E3,1.1773574E3,0E0,0E0,1.4725366E3,2.3444316E3,0E0,0E0,0E0,0E0,0E0,0E0,0E0,0E0,0E0,0E0,0E0,0E0],"parents":[2147483647,0,0,1,1,2,2,3,3,4,4,5,5,6,6,7,7,8,8,9,9,10,10,13,13,14,14],"right_children":[2,4,6,8,10,12,14,16,18,20,22,-1,-1,24,26,-1,-1,-1,-1,-1,-1,-1,-1,-1,-1,-1,-1],"split_conditions":[2.435E1,1.717E1,-1.05197504E-1,3.8260834E0,5.8576393E-1,-7.469473E0,2.965E1,1.198E1,1.098791E1,1.3530087E-1,5.2265496E0,6.12047E-1,2.527624E-1,1.4354993E0,-9.632807E0,-6.881302E-2,-4.0728845E-2,-2.2384193E-2,3.3819173E-2,7.4397735E-2,1.5419104E-2,-4.891943E-4,-3.6088765E-2,4.9030945E-2,1.9588667E-1,2.7077532E-1,1.11286946E-1],"split_indices":[0,0,1,46,14,3,0,0,8,8,8,0,0,5,3,0,0,0,0,0,0,0,0,0,0,0,0],"split_type":[0,0,0,0,0,0,0,0,0,0,0,0,0,0,0,0,0,0,0,0,0,0,0,0,0,0,0],"sum_hessian":[2.848E3,2.409E3,4.39E2,1.52E3,8.89E2,2E1,4.19E2,1.119E3,4.01E2,4.23E2,4.66E2,1.2E1,8E0,2.49E2,1.7E2,1.79E2,9.4E2,3.54E2,4.7E1,1.25E2,2.98E2,2.64E2,2.02E2,2.41E2,8E0,1.2E1,1.58E2],"tree_param":{"num_deleted":"0","num_feature":"51","num_nodes":"27","size_leaf_vector":"1"}},{"base_weights":[4.4586225E-3,-1.7022381E0,9.266863E0,-3.2989037E0,7.44739E-1,7.636013E0,3.9509E1,-5.38007E0,-2.723491E0,2.284052E0,-9.9944055E-1,2.7459474E0,9.639787E0,1.1938123E-1,5.1617813E1,1.6451173E-5,-6.1910465E-2,-3.1346995E-2,9.922033E-2,1.1966721E-1,2.2531366E-2,7.749709E-3,-2.9029215E-2,1.39131E-1,2.211905E-2,1.0073936E-1,2.2516099E-1,4.028613E-1,7.030175E-1],"categories":[],"categories_nodes":[],"categories_segments":[],"categories_sizes":[],"default_left":[0,0,0,0,0,0,0,0,0,0,0,0,0,0,0,0,0,0,0,0,0,0,0,0,0,0,0,0,0],"id":30,"left_children":[1,3,5,7,9,11,13,15,17,19,21,23,25,-1,27,-1,-1,-1,-1,-1,-1,-1,-1,-1,-1,-1,-1,-1,-1],"loss_changes":[4.580768E4,9.562068E3,2.197566E4,1.760584E3,2.5978618E3,4.1791777E3,7.483742E3,3.301504E2,1.3439365E3,1.0984304E3,1.2439661E3,9.0750165E2,1.692373E3,0E0,8.5946875E2,0E0,0E0,0E0,0E0,0E0,0E0,0E0,0E0,0E0,0E0,0E0,0E0,0E0,0E0],"parents":[2147483647,0,0,1,1,2,2,3,3,4,4,5,5,6,6,7,7,8,8,9,9,10,10,11,11,12,12,14,14],"right_children":[2,4,6,8,10,12,14,16,18,20,22,24,26,-1,28,-1,-1,-1,-1,-1,-1,-1,-1,-1,-1,-1,-1,-1,-1],"split_conditions":[2.452E1,1.703E1,2.1243174E1,1.244E1,6.225992E-1,1.6307528E-1,1.55E0,-2E0,9.090909E1,-3.4022903E1,1.3438735E1,-3E0,2.7408657E0,1.1938123E-1,-1.9668844E-2,1.6451173E-5,-6.1910465E-2,-3.1346995E-2,9.922033E-2,1.1966721E-1,2.2531366E-2,7.749709E-3,-2.9029215E-2,1.39131E-1,2.211905E-2,1.0073936E-1,2.2516099E-1,4.028613E-1,7.030175E-1],"split_indices":[0,0,4,0,14,21,9,9,20,42,43,9,17,0,47,0,0,0,0,0,0,0,0,0,0,0,0,0,0],"split_type":[0,0,0,0,0,0,0,0,0,0,0,0,0,0,0,0,0,0,0,0,0,0,0,0,0,0,0,0,0],"sum_hessian":[2.896E3,2.446E3,4.5E2,1.48E3,9.66E2,4.28E2,2.2E1,3.19E2,1.161E3,5.13E2,4.53E2,1.25E2,3.03E2,7E0,1.5E1,1.1E1,3.08E2,1.152E3,9E0,1.4E1,4.99E2,2.21E2,2.32E2,8E0,1.17E2,2.89E2,1.4E1,8E0,7E0],"tree_param":{"num_deleted":"0","num_feature":"51","num_nodes":"29","size_leaf_vector":"1"}},{"base_weights":[-8.725048E-3,-1.1238897E0,1.4625232E1,-2.9218311E0,2.1393456E0,1.2036102E1,4.632866E1,-4.193608E0,-1.3661009E0,5.1613193E0,5.7187766E-1,3.3886185E-1,1.0731783E1,6.5283E-1,3.2024404E-1,-3.297762E-2,-5.3739548E-2,1.3623146E-3,-2.9932234E-2,1.1722956E-1,4.6664007E-2,2.614745E-3,1.0818952E-1,1.3169806E-1,5.1878296E-2],"categories":[],"categories_nodes":[],"categories_segments":[],"categories_sizes":[],"default_left":[0,0,0,0,0,0,0,0,0,0,0,0,0,0,0,0,0,0,0,0,0,0,0,0,0],"id":31,"left_children":[1,3,5,7,9,11,13,15,17,19,21,-1,23,-1,-1,-1,-1,-1,-1,-1,-1,-1,-1,-1,-1],"loss_changes":[4.6293113E4,1.5470287E4,1.600573E4,3.3581973E3,4.4351157E3,4.2164023E3,1.7711855E3,7.2406055E2,1.51414E3,1.6191904E3,1.9036355E3,0E0,1.1469258E3,0E0,0E0,0E0,0E0,0E0,0E0,0E0,0E0,0E0,0E0,0E0,0E0],"parents":[2147483647,0,0,1,1,2,2,3,3,4,4,5,5,6,6,7,7,8,8,9,9,10,10,12,12],"right_children":[2,4,6,8,10,12,14,16,18,20,22,-1,24,-1,-1,-1,-1,-1,-1,-1,-1,-1,-1,-1,-1],"split_conditions":[2.965E1,1.837E1,2.4271533E0,1.476E1,-1.3720608E0,-3E-2,1.6674067E-1,7.373105E-1,6.7959225E-1,-3.8623877E0,6.411946E0,3.3886185E-1,-5.1682055E-1,6.5283E-1,3.2024404E-1,-3.297762E-2,-5.3739548E-2,1.3623146E-3,-2.9932234E-2,1.1722956E-1,4.6664007E-2,2.614745E-3,1.0818952E-1,1.3169806E-1,5.1878296E-2],"split_indices":[0,0,5,0,28,34,14,14,14,2,27,0,8,0,0,0,0,0,0,0,0,0,0,0,0],"split_type":[0,0,0,0,0,0,0,0,0,0,0,0,0,0,0,0,0,0,0,0,0,0,0,0,0],"sum_hessian":[2.835E3,2.635E3,2E2,1.699E3,9.36E2,1.86E2,1.4E1,9.34E2,7.65E2,3.19E2,6.17E2,1.1E1,1.75E2,7E0,7E0,3.23E2,6.11E2,3.61E2,4.04E2,4.7E1,2.72E2,5.96E2,2.1E1,1.47E2,2.8E1],"tree_param":{"num_deleted":"0","num_feature":"51","num_nodes":"25","size_leaf_vector":"1"}},{"base_weights":[1.8086393E-1,-3.324467E-1,3.8013966E1,-1.9821575E0,6.517799E0,7.357768E-1,2.4338322E1,-3.3800685E0,1.6952676E-1,2.0652602E0,8.897566E0,3.9056104E-1,1.3568716E1,-3.931963E-2,5.871245E-2,1.7570755E-2,-1.9189855E-2,-8.98528E-3,4.0027846E-2,1.4695832E-1,7.98732E-2,9.449402E-2,1.9047982E-1],"categories":[],"categories_nodes":[],"categories_segments":[],"categories_sizes":[],"default_left":[0,0,0,0,0,0,0,0,0,0,0,0,0,0,0,0,0,0,0,0,0,0,0],"id":32,"left_children":[1,3,5,7,9,-1,11,13,15,17,19,-1,21,-1,-1,-1,-1,-1,-1,-1,-1,-1,-1],"loss_changes":[5.4929094E4,3.1550371E4,1.3212602E4,6.767835E3,5.7255156E3,0E0,2.7154941E3,1.8902871E3,2.3769949E3,8.4131104E2,2.5280488E3,0E0,1.4281812E2,0E0,0E0,0E0,0E0,0E0,0E0,0E0,0E0,0E0,0E0],"parents":[2147483647,0,0,1,1,2,2,3,3,4,4,6,6,7,7,8,8,9,9,10,10,12,12],"right_children":[2,4,6,8,10,-1,12,14,16,18,20,-1,22,-1,-1,-1,-1,-1,-1,-1,-1,-1,-1],"split_conditions":[1.6707777E1,2.273E1,9.375E0,1.661E1,1.6204341E-1,7.357768E-1,-7.692308E-2,2.1420347E1,6.9074976E-1,4.5244205E-1,-3.7177641E0,3.9056104E-1,-1.655481E-2,-3.931963E-2,5.871245E-2,1.7570755E-2,-1.9189855E-2,-8.98528E-3,4.0027846E-2,1.4695832E-1,7.98732E-2,9.449402E-2,1.9047982E-1],"split_indices":[4,0,32,0,21,0,1,6,14,23,2,0,1,0,0,0,0,0,0,0,0,0,0],"split_type":[0,0,0,0,0,0,0,0,0,0,0,0,0,0,0,0,0,0,0,0,0,0,0],"sum_hessian":[2.827E3,2.79E3,3.7E1,2.249E3,5.41E2,1.1E1,2.6E1,1.363E3,8.86E2,1.89E2,3.52E2,1.2E1,1.4E1,1.339E3,2.4E1,5.08E2,3.78E2,6.6E1,1.23E2,9.8E1,2.54E2,7E0,7E0],"tree_param":{"num_deleted":"0","num_feature":"51","num_nodes":"23","size_leaf_vector":"1"}},{"base_weights":[-3.481386E-3,8.858863E0,-1.642203E0,7.0641317E0,5.142034E1,-2.89402E0,1.6738654E0,4.114403E0,1.0639843E1,7.478212E-1,3.6280546E-1,-1.5570401E0,-3.759362E0,8.818536E-1,8.459871E0,1.7677051E-1,3.923864E-2,2.4844515E-1,1.05230525E-1,-4.43164E-2,-1.0389166E-2,-5.046553E-2,-2.6347673E-2,-4.4754483E-3,3.1978793E-2,1.276637E-1,2.5896994E-2],"categories":[],"categories_nodes":[],"categories_segments":[],"categories_sizes":[],"default_left":[0,0,0,0,0,0,0,0,0,0,0,0,0,0,0,0,0,0,0,0,0,0,0,0,0,0,0],"id":33,"left_children":[1,3,5,7,9,11,13,15,17,-1,-1,19,21,23,25,-1,-1,-1,-1,-1,-1,-1,-1,-1,-1,-1,-1],"loss_changes":[4.1400707E4,3.36671E4,9.991201E3,4.474791E3,3.427789E3,2.0158721E3,3.5398782E3,1.5730627E3,2.459832E3,0E0,0E0,1.0370004E3,1.1416963E3,1.5187839E3,1.2553306E3,0E0,0E0,0E0,0E0,0E0,0E0,0E0,0E0,0E0,0E0,0E0,0E0],"parents":[2147483647,0,0,1,1,2,2,3,3,4,4,5,5,6,6,7,7,8,8,11,11,12,12,13,13,14,14],"right_children":[2,4,6,8,10,12,14,16,18,-1,-1,20,22,24,26,-1,-1,-1,-1,-1,-1,-1,-1,-1,-1,-1,-1],"split_conditions":[-6.5692466E-1,1.1180089E2,2.2559278E0,1.1097391E0,6.25E0,7.28399E-1,6.523809E0,8.786567E1,1.2814743E2,7.478212E-1,3.6280546E-1,9.696547E0,2.6366055E2,2.4399986E0,-6.3397056E-1,1.7677051E-1,3.923864E-2,2.4844515E-1,1.05230525E-1,-4.43164E-2,-1.0389166E-2,-5.046553E-2,-2.6347673E-2,-4.4754483E-3,3.1978793E-2,1.276637E-1,2.5896994E-2],"split_indices":[8,6,11,12,32,14,4,24,41,0,0,37,26,7,13,0,0,0,0,0,0,0,0,0,0,0,0],"split_type":[0,0,0,0,0,0,0,0,0,0,0,0,0,0,0,0,0,0,0,0,0,0,0,0,0,0,0],"sum_hessian":[2.849E3,4.44E2,2.405E3,4.27E2,1.7E1,1.746E3,6.59E2,2.35E2,1.92E2,8E0,9E0,6.87E2,1.059E3,5.91E2,6.8E1,1E1,2.25E2,1.6E1,1.76E2,1.39E2,5.48E2,6.76E2,3.83E2,3.6E2,2.31E2,4.5E1,2.3E1],"tree_param":{"num_deleted":"0","num_feature":"51","num_nodes":"27","size_leaf_vector":"1"}},{"base_weights":[1.1148567E-2,5.0247E1,-4.0214655E-1,4.0092304E-1,8.146037E-1,-1.9647717E0,6.14178E0,-3.2768993E0,3.755696E-1,1.8399734E0,8.558619E0,-4.6348557E-2,-2.300597E-2,2.2990365E-2,-1.949119E-2,1.1043593E-2,8.113725E-2,8.6388946E-2,2.329677E-1],"categories":[],"categories_nodes":[],"categories_segments":[],"categories_sizes":[],"default_left":[0,0,0,0,0,0,0,0,0,0,0,0,0,0,0,0,0,0,0],"id":34,"left_children":[1,3,5,-1,-1,7,9,11,13,15,17,-1,-1,-1,-1,-1,-1,-1,-1],"loss_changes":[5.8170547E4,5.1866953E3,2.8426145E4,0E0,0E0,6.891628E3,5.557457E3,1.5438486E3,2.9132642E3,8.8949945E2,3.1933965E3,0E0,0E0,0E0,0E0,0E0,0E0,0E0,0E0],"parents":[2147483647,0,0,1,1,2,2,5,5,6,6,7,7,8,8,9,9,10,10],"right_children":[2,4,6,-1,-1,8,10,12,14,16,18,-1,-1,-1,-1,-1,-1,-1,-1],"split_conditions":[-7.4921665E0,4.676182E-1,2.273E1,4.0092304E-1,8.146037E-1,1.703E1,1.6204341E-1,1.433E1,6.706809E-1,1.2341089E-1,1.5823853E0,-4.6348557E-2,-2.300597E-2,2.2990365E-2,-1.949119E-2,1.1043593E-2,8.113725E-2,8.6388946E-2,2.329677E-1],"split_indices":[2,10,0,0,0,0,21,0,14,47,5,0,0,0,0,0,0,0,0],"split_type":[0,0,0,0,0,0,0,0,0,0,0,0,0,0,0,0,0,0,0],"sum_hessian":[2.8E3,2.2E1,2.778E3,1.5E1,7E0,2.243E3,5.35E2,1.437E3,8.06E2,1.93E2,3.42E2,8.24E2,6.13E2,4.49E2,3.57E2,1.68E2,2.5E1,3.23E2,1.9E1],"tree_param":{"num_deleted":"0","num_feature":"51","num_nodes":"19","size_leaf_vector":"1"}},{"base_weights":[-1.5532027E-1,-1.4851428E0,1.1391425E1,-2.940047E0,1.3446656E0,9.572342E0,6.027479E-1,-3.6477032E0,-7.595559E-1,-5.252598E-1,3.0640907E0,1.613911E1,6.61451E0,-4.9823396E-2,-3.0332288E-2,-1.4485195E-2,4.4597168E-2,-2.6592249E-2,9.899764E-3,-1.5550545E-2,4.8240855E-2,1.3150951E-1,2.5980708E-1,1.1401356E-1,4.9019303E-2],"categories":[],"categories_nodes":[],"categories_segments":[],"categories_sizes":[],"default_left":[0,0,0,0,0,0,0,0,0,0,0,0,0,0,0,0,0,0,0,0,0,0,0,0,0],"id":35,"left_children":[1,3,5,7,9,11,-1,13,15,17,19,21,23,-1,-1,-1,-1,-1,-1,-1,-1,-1,-1,-1,-1],"loss_changes":[4.3989348E4,1.0579703E4,2.2615266E4,2.6158467E3,2.8078608E3,5.440506E3,0E0,9.724961E2,1.0870466E3,1.1099531E3,2.5989868E3,2.4994082E3,1.5500537E3,0E0,0E0,0E0,0E0,0E0,0E0,0E0,0E0,0E0,0E0,0E0,0E0],"parents":[2147483647,0,0,1,1,2,2,3,3,4,4,5,5,7,7,8,8,9,9,10,10,11,11,12,12],"right_children":[2,4,6,8,10,12,-1,14,16,18,20,22,24,-1,-1,-1,-1,-1,-1,-1,-1,-1,-1,-1,-1],"split_conditions":[2.657E1,1.803E1,5.354E1,7.399998E-1,1.6500245E-1,-3.7177641E0,6.027479E-1,1.391E1,2.1420347E1,-6.429256E0,-4.5E-1,-1.6113085E-1,-2.8915662E-2,-4.9823396E-2,-3.0332288E-2,-1.4485195E-2,4.4597168E-2,-2.6592249E-2,9.899764E-3,-1.5550545E-2,4.8240855E-2,1.3150951E-1,2.5980708E-1,1.1401356E-1,4.9019303E-2],"split_indices":[0,0,0,44,21,2,0,0,6,6,34,47,1,0,0,0,0,0,0,0,0,0,0,0,0],"split_type":[0,0,0,0,0,0,0,0,0,0,0,0,0,0,0,0,0,0,0,0,0,0,0,0,0],"sum_hessian":[2.863E3,2.568E3,2.95E2,1.696E3,8.72E2,2.84E2,1.1E1,1.28E3,4.16E2,4.18E2,4.54E2,8.7E1,1.97E2,6.68E2,6.12E2,3.74E2,4.2E1,1.8E2,2.38E2,1.01E2,3.53E2,5.6E1,3.1E1,7.3E1,1.24E2],"tree_param":{"num_deleted":"0","num_feature":"51","num_nodes":"25","size_leaf_vector":"1"}},{"base_weights":[-3.6690053E-2,4.483172E1,-3.8430038E-1,6.587336E-1,1.9846064E-1,4.929336E0,-2.0667384E0,2.6158884E0,1.0582056E1,-2.944419E0,1.0827188E0,1.7567697E-3,4.486423E-2,2.3743896E-1,1.02103725E-1,-3.7858028E-2,-8.20593E-3,4.653714E-2,2.0568774E-3],"categories":[],"categories_nodes":[],"categories_segments":[],"categories_sizes":[],"default_left":[0,0,0,0,0,0,0,0,0,0,0,0,0,0,0,0,0,0,0],"id":36,"left_children":[1,3,5,-1,-1,7,9,11,13,15,17,-1,-1,-1,-1,-1,-1,-1,-1],"loss_changes":[4.435331E4,7.6074727E3,2.523579E4,0E0,0E0,8.853541E3,5.9288867E3,1.6867053E3,2.7880898E3,1.7093369E3,1.3034236E3,0E0,0E0,0E0,0E0,0E0,0E0,0E0,0E0],"parents":[2147483647,0,0,1,1,2,2,5,5,6,6,7,7,8,8,9,9,10,10],"right_children":[2,4,6,-1,-1,8,10,12,14,16,18,-1,-1,-1,-1,-1,-1,-1,-1],"split_conditions":[-1.05197504E-1,-2.5335042E0,9.145609E-1,6.587336E-1,1.9846064E-1,1.2092636E0,1.789999E0,1.6034977E1,1.2814743E2,1.5036992E1,1.1065165E2,1.7567697E-3,4.486423E-2,2.3743896E-1,1.02103725E-1,-3.7858028E-2,-8.20593E-3,4.653714E-2,2.0568774E-3],"split_indices":[1,13,8,0,0,12,44,30,41,15,24,0,0,0,0,0,0,0,0],"split_type":[0,0,0,0,0,0,0,0,0,0,0,0,0,0,0,0,0,0,0],"sum_hessian":[2.842E3,2.1E1,2.821E3,1.3E1,8E0,6.78E2,2.143E3,4.82E2,1.96E2,1.676E3,4.67E2,1.77E2,3.05E2,2.1E1,1.75E2,1.385E3,2.91E2,1.04E2,3.63E2],"tree_param":{"num_deleted":"0","num_feature":"51","num_nodes":"19","size_leaf_vector":"1"}},{"base_weights":[7.4841164E-2,4.2050663E1,-3.0811584E-1,7.421419E-1,2.5429539E1,-1.8788512E0,6.266562E0,3.570931E-1,1.9841395E-1,-3.9218645E0,-4.7049835E-1,1.2345976E1,4.514181E0,-4.8458047E-2,-2.1536551E-2,1.5090495E-2,-1.800281E-2,3.1744793E-1,1.2210975E-1,4.33117E-2,1.81283E-1],"categories":[],"categories_nodes":[],"categories_segments":[],"categories_sizes":[],"default_left":[0,0,0,0,0,0,0,0,0,0,0,0,0,0,0,0,0,0,0,0,0],"id":37,"left_children":[1,3,5,-1,7,9,11,-1,-1,13,15,17,19,-1,-1,-1,-1,-1,-1,-1,-1],"loss_changes":[4.598409E4,9.168699E3,2.928591E4,0E0,3.6081055E2,6.5840273E3,5.777588E3,0E0,0E0,8.062666E2,2.852433E3,2.4101504E3,3.0416504E3,0E0,0E0,0E0,0E0,0E0,0E0,0E0,0E0],"parents":[2147483647,0,0,1,1,2,2,4,4,5,5,6,6,9,9,10,10,11,11,12,12],"right_children":[2,4,6,-1,8,10,12,-1,-1,14,16,18,20,-1,-1,-1,-1,-1,-1,-1,-1],"split_conditions":[-1.05197504E-1,6.25E0,2.299E1,7.421419E-1,-1.4131607E-1,1.476E1,-3.8623877E0,3.570931E-1,1.9841395E-1,8.901427E0,5.238536E-1,8.72178E1,4.738338E0,-4.8458047E-2,-2.1536551E-2,1.5090495E-2,-1.800281E-2,3.1744793E-1,1.2210975E-1,4.33117E-2,1.81283E-1],"split_indices":[1,32,0,0,1,0,2,0,0,28,14,36,2,0,0,0,0,0,0,0,0],"split_type":[0,0,0,0,0,0,0,0,0,0,0,0,0,0,0,0,0,0,0,0,0],"sum_hessian":[2.859E3,2.5E1,2.834E3,9E0,1.6E1,2.288E3,5.46E2,7E0,9E0,9.33E2,1.355E3,1.21E2,4.25E2,7.63E2,1.7E2,5.23E2,8.32E2,8E0,1.13E2,4.05E2,2E1],"tree_param":{"num_deleted":"0","num_feature":"51","num_nodes":"21","size_leaf_vector":"1"}},{"base_weights":[5.487428E-2,-1.0042593E0,1.3935976E1,-2.738298E0,2.193759E0,6.91587E-1,1.1945657E1,-3.2375493E0,5.382149E-1,3.8494346E0,5.389053E-2,2.5258615E1,9.51585E0,-6.0463376E-2,-3.24137E-2,-2.4221812E-3,1.058359E-1,1.0393486E-1,3.549942E-2,-3.0115754E-3,1.1253518E-1,1.747267E-1,3.9204416E-1,1.4677829E-1,8.621938E-2],"categories":[],"categories_nodes":[],"categories_segments":[],"categories_sizes":[],"default_left":[0,0,0,0,0,0,0,0,0,0,0,0,0,0,0,0,0,0,0,0,0,0,0,0,0],"id":38,"left_children":[1,3,5,7,9,-1,11,13,15,17,19,21,23,-1,-1,-1,-1,-1,-1,-1,-1,-1,-1,-1,-1],"loss_changes":[4.2278375E4,1.4821967E4,1.895741E4,2.8361768E3,3.329608E3,0E0,6.16017E3,1.0480977E3,1.5640818E3,1.8831069E3,1.3474373E3,2.3745527E3,1.00022754E3,0E0,0E0,0E0,0E0,0E0,0E0,0E0,0E0,0E0,0E0,0E0,0E0],"parents":[2147483647,0,0,1,1,2,2,3,3,4,4,6,6,7,7,8,8,9,9,10,10,11,11,12,12],"right_children":[2,4,6,8,10,-1,12,14,16,18,20,22,24,-1,-1,-1,-1,-1,-1,-1,-1,-1,-1,-1,-1],"split_conditions":[2.965E1,1.833E1,-8.64556E-1,7.2523117E0,5.8576393E-1,6.91587E-1,-9.297895E0,1.187E1,6.2E-1,-3.8623877E0,5.0783825E0,1.4499988E2,-1.1262624E0,-6.0463376E-2,-3.24137E-2,-2.4221812E-3,1.058359E-1,1.0393486E-1,3.549942E-2,-3.0115754E-3,1.1253518E-1,1.747267E-1,3.9204416E-1,1.4677829E-1,8.621938E-2],"split_indices":[0,0,22,6,14,0,27,0,34,2,2,11,18,0,0,0,0,0,0,0,0,0,0,0,0],"split_type":[0,0,0,0,0,0,0,0,0,0,0,0,0,0,0,0,0,0,0,0,0,0,0,0,0],"sum_hessian":[2.874E3,2.671E3,2.03E2,1.732E3,9.39E2,7E0,1.96E2,1.503E3,2.29E2,5.29E2,4.1E2,2.9E1,1.67E2,1.89E2,1.314E3,2.12E2,1.7E1,5.5E1,4.74E2,3.98E2,1.2E1,1.6E1,1.3E1,5.2E1,1.15E2],"tree_param":{"num_deleted":"0","num_feature":"51","num_nodes":"25","size_leaf_vector":"1"}},{"base_weights":[-1.0535972E-1,-6.525217E-1,2.2079863E1,4.146343E0,-2.092159E0,5.586876E-1,1.5120994E1,1.9605187E0,6.8252354E0,-2.9230227E0,8.841975E-1,2.252458E1,9.166533E0,1.683092E-2,1.7318903E-1,2.3895167E-1,7.029976E-2,7.698478E-3,-3.5360977E-2,5.8147717E-2,1.2228518E-3,1.1819573E-1,3.989577E-1,2.5925976E-1,3.9704505E-2],"categories":[],"categories_nodes":[],"categories_segments":[],"categories_sizes":[],"default_left":[0,0,0,0,0,0,0,0,0,0,0,0,0,0,0,0,0,0,0,0,0,0,0,0,0],"id":39,"left_children":[1,3,5,7,9,-1,11,13,15,17,19,21,23,-1,-1,-1,-1,-1,-1,-1,-1,-1,-1,-1,-1],"loss_changes":[3.3720086E4,1.8735768E4,1.2464604E4,3.653082E3,5.160494E3,0E0,2.2399277E3,2.0801333E3,1.9371357E3,1.5315312E3,1.5341598E3,3.4652979E3,2.4521846E3,0E0,0E0,0E0,0E0,0E0,0E0,0E0,0E0,0E0,0E0,0E0,0E0],"parents":[2147483647,0,0,1,1,2,2,3,3,4,4,6,6,7,7,8,8,9,9,10,10,11,11,12,12],"right_children":[2,4,6,8,10,-1,12,14,16,18,20,22,24,-1,-1,-1,-1,-1,-1,-1,-1,-1,-1,-1,-1],"split_conditions":[1.2602221E1,9.145609E-1,9.375E0,7.272727E1,1.789999E0,5.586876E-1,1.8205222E2,1.9857993E2,-5E-1,-4.9483487E-1,1.078505E2,1.5810276E0,8.955245E1,1.683092E-2,1.7318903E-1,2.3895167E-1,7.029976E-2,7.698478E-3,-3.5360977E-2,5.8147717E-2,1.2228518E-3,1.1819573E-1,3.989577E-1,2.5925976E-1,3.9704505E-2],"split_indices":[4,8,32,20,44,0,41,25,19,2,24,16,24,0,0,0,0,0,0,0,0,0,0,0,0],"split_type":[0,0,0,0,0,0,0,0,0,0,0,0,0,0,0,0,0,0,0,0,0,0,0,0,0],"sum_hessian":[2.776E3,2.71E3,6.6E1,6.25E2,2.085E3,1.2E1,5.4E1,3.45E2,2.8E2,1.63E3,4.55E2,2.3E1,3.1E1,3.35E2,1E1,8E0,2.72E2,1.09E2,1.521E3,6.8E1,3.87E2,1.3E1,1E1,8E0,2.3E1],"tree_param":{"num_deleted":"0","num_feature":"51","num_nodes":"25","size_leaf_vector":"1"}},{"base_weights":[-3.362825E-2,-1.826315E0,7.026353E0,-2.9752972E0,4.1709077E-1,3.3606903E1,6.0673637E0,-1.6610551E0,-3.7260604E0,1.4304699E-1,2.0489787E-1,1.8573663E-1,4.6309555E-1,2.0188568E0,8.384895E0,-2.0277398E-2,8.243521E-2,-6.282366E-2,-3.7241284E-2,1.6765192E-2,-1.7562177E-2,-1.1486777E-2,3.9483566E-2,8.72552E-2,2.57277E-1],"categories":[],"categories_nodes":[],"categories_segments":[],"categories_sizes":[],"default_left":[0,0,0,0,0,0,0,0,0,0,0,0,0,0,0,0,0,0,0,0,0,0,0,0,0],"id":40,"left_children":[1,3,5,7,9,11,13,15,17,-1,19,-1,-1,21,23,-1,-1,-1,-1,-1,-1,-1,-1,-1,-1],"loss_changes":[3.5991176E4,5.846837E3,1.4502412E4,1.4744492E3,2.0297612E3,2.1058398E3,5.2099863E3,8.25235E2,6.7205176E2,0E0,1.7641116E3,0E0,0E0,9.5820917E2,2.623711E3,0E0,0E0,0E0,0E0,0E0,0E0,0E0,0E0,0E0,0E0],"parents":[2147483647,0,0,1,1,2,2,3,3,4,4,5,5,6,6,7,7,8,8,10,10,13,13,14,14],"right_children":[2,4,6,8,10,12,14,16,18,-1,20,-1,-1,22,24,-1,-1,-1,-1,-1,-1,-1,-1,-1,-1],"split_conditions":[2.273E1,1.717E1,-7.4921665E0,7.017207E-1,-3.4022903E1,1.7786562E1,1.6307528E-1,9.090909E1,1.187E1,1.4304699E-1,3.7154152E1,1.8573663E-1,4.6309555E-1,3.815778E-1,3.7E0,-2.0277398E-2,8.243521E-2,-6.282366E-2,-3.7241284E-2,1.6765192E-2,-1.7562177E-2,-1.1486777E-2,3.9483566E-2,8.72552E-2,2.57277E-1],"split_indices":[0,0,2,14,42,43,21,20,0,0,43,0,0,23,9,0,0,0,0,0,0,0,0,0,0],"split_type":[0,0,0,0,0,0,0,0,0,0,0,0,0,0,0,0,0,0,0,0,0,0,0,0,0],"sum_hessian":[2.842E3,2.267E3,5.75E2,1.499E3,7.68E2,1.9E1,5.56E2,5.46E2,9.53E2,1.2E1,7.56E2,7E0,1.2E1,2.03E2,3.53E2,5.37E2,9E0,1.53E2,8E2,4.37E2,3.19E2,6.8E1,1.35E2,3.42E2,1.1E1],"tree_param":{"num_deleted":"0","num_feature":"51","num_nodes":"25","size_leaf_vector":"1"}},{"base_weights":[1.3543703E-1,3.81696E1,-3.1005242E-1,6.5845835E-1,2.3588524E1,-1.8911452E0,4.378351E0,1.7918234E-1,3.795303E-1,-2.9255848E0,8.687811E-1,8.228936E0,2.8900034E0,-3.343306E-2,7.8684576E-2,3.4698984E-3,7.170975E-2,3.1439492E-1,8.055423E-2,9.772978E-2,2.386589E-2],"categories":[],"categories_nodes":[],"categories_segments":[],"categories_sizes":[],"default_left":[0,0,0,0,0,0,0,0,0,0,0,0,0,0,0,0,0,0,0,0,0],"id":41,"left_children":[1,3,5,-1,7,9,11,-1,-1,13,15,17,19,-1,-1,-1,-1,-1,-1,-1,-1],"loss_changes":[4.8095168E4,8.898875E3,2.080639E4,0E0,1.1694443E3,5.9944346E3,4.036043E3,0E0,0E0,1.2912715E3,1.7785876E3,3.6906553E3,2.2267856E3,0E0,0E0,0E0,0E0,0E0,0E0,0E0,0E0],"parents":[2147483647,0,0,1,1,2,2,4,4,5,5,6,6,9,9,10,10,11,11,12,12],"right_children":[2,4,6,-1,8,10,12,-1,-1,14,16,18,20,-1,-1,-1,-1,-1,-1,-1,-1],"split_conditions":[-6.365692E0,1.028E0,1.723295E1,6.5845835E-1,3.4873555E0,1.2999992E0,-3.5035272E0,1.7918234E-1,3.795303E-1,8.972332E1,6.83E0,-1.1E-1,-9.043207E-1,-3.343306E-2,7.8684576E-2,3.4698984E-3,7.170975E-2,3.1439492E-1,8.055423E-2,9.772978E-2,2.386589E-2],"split_indices":[2,31,15,0,39,7,27,0,0,20,44,50,47,0,0,0,0,0,0,0,0],"split_type":[0,0,0,0,0,0,0,0,0,0,0,0,0,0,0,0,0,0,0,0,0],"sum_hessian":[2.837E3,3.2E1,2.805E3,1.2E1,2E1,2.098E3,7.07E2,1.3E1,7E0,1.526E3,5.72E2,1.96E2,5.11E2,1.514E3,1.2E1,5.21E2,5.1E1,8E0,1.88E2,5.6E1,4.55E2],"tree_param":{"num_deleted":"0","num_feature":"51","num_nodes":"21","size_leaf_vector":"1"}},{"base_weights":[1.1672E-1,4.278043E1,-2.0325927E-1,7.44295E-1,2.932333E-1,-1.9285258E0,4.931535E0,-3.553037E0,-5.948505E-1,1.1687326E1,3.599726E0,-4.4430442E-2,-1.7929234E-2,9.926285E-3,-2.1647813E-2,2.6419535E-1,1.1197455E-1,3.23032E-2,1.0972875E-1],"categories":[],"categories_nodes":[],"categories_segments":[],"categories_sizes":[],"default_left":[0,0,0,0,0,0,0,0,0,0,0,0,0,0,0,0,0,0,0],"id":42,"left_children":[1,3,5,-1,-1,7,9,11,13,15,17,-1,-1,-1,-1,-1,-1,-1,-1],"loss_changes":[3.825796E4,6.7503594E3,2.4652346E4,0E0,0E0,4.5107637E3,6.260381E3,8.0570996E2,2.307417E3,2.028291E3,2.5211172E3,0E0,0E0,0E0,0E0,0E0,0E0,0E0,0E0],"parents":[2147483647,0,0,1,1,2,2,5,5,6,6,7,7,8,8,9,9,10,10],"right_children":[2,4,6,-1,-1,8,10,12,14,16,18,-1,-1,-1,-1,-1,-1,-1,-1],"split_conditions":[-1.05197504E-1,6.25E0,2.148E1,7.44295E-1,2.932333E-1,1.48E1,-3.8623877E0,8.901427E0,6.2988234E-1,-6.8171024E-1,3.1839718E1,-4.4430442E-2,-1.7929234E-2,9.926285E-3,-2.1647813E-2,2.6419535E-1,1.1197455E-1,3.23032E-2,1.0972875E-1],"split_indices":[1,32,0,0,0,0,2,28,2,22,37,0,0,0,0,0,0,0,0],"split_type":[0,0,0,0,0,0,0,0,0,0,0,0,0,0,0,0,0,0,0],"sum_hessian":[2.801E3,2E1,2.781E3,7E0,1.3E1,2.082E3,6.99E2,9.38E2,1.144E3,1.14E2,5.85E2,7.62E2,1.76E2,5.45E2,5.99E2,1.2E1,1.02E2,5.28E2,5.7E1],"tree_param":{"num_deleted":"0","num_feature":"51","num_nodes":"19","size_leaf_vector":"1"}},{"base_weights":[-1.8097887E-2,-5.671391E-1,2.6160063E1,-2.0221808E0,4.3235664E0,4.1613636E1,1.2423071E1,-3.6507087E0,-6.84729E-1,7.311E0,1.6797459E0,1.9204223E-1,4.9437115E1,2.377675E-1,6.0705824E0,-5.95505E-2,-3.5365224E-2,6.191902E-3,-2.7087832E-2,5.431556E-2,1.1236254E-1,-7.645057E-3,3.127954E-2,3.592433E-1,6.286612E-1,1.49445515E-2,1.1936597E-1],"categories":[],"categories_nodes":[],"categories_segments":[],"categories_sizes":[],"default_left":[0,0,0,0,0,0,0,0,0,0,0,0,0,0,0,0,0,0,0,0,0,0,0,0,0,0,0],"id":43,"left_children":[1,3,5,7,9,11,13,15,17,19,21,-1,23,-1,25,-1,-1,-1,-1,-1,-1,-1,-1,-1,-1,-1,-1],"loss_changes":[4.0484363E4,1.9640057E4,1.1836531E4,4.6302295E3,4.9877314E3,4.375172E3,1.7041333E3,7.5176953E2,2.5462217E3,1.971875E3,9.072786E2,0E0,8.473867E2,0E0,4.258305E2,0E0,0E0,0E0,0E0,0E0,0E0,0E0,0E0,0E0,0E0,0E0,0E0],"parents":[2147483647,0,0,1,1,2,2,3,3,4,4,5,5,6,6,7,7,8,8,9,9,10,10,12,12,14,14],"right_children":[2,4,6,8,10,12,14,16,18,20,22,-1,24,-1,26,-1,-1,-1,-1,-1,-1,-1,-1,-1,-1,-1,-1],"split_conditions":[6.463854E1,2.148E1,-7.469473E0,1.476E1,-1.2679105E0,3.1620553E0,1.448E0,1.187E1,7.28399E-1,-1.079656E0,3.4430322E-1,1.9204223E-1,6.5693444E-1,2.377675E-1,5.3E-1,-5.95505E-2,-3.5365224E-2,6.191902E-3,-2.7087832E-2,5.431556E-2,1.1236254E-1,-7.645057E-3,3.127954E-2,3.592433E-1,6.286612E-1,1.49445515E-2,1.1936597E-1],"split_indices":[6,0,3,0,8,16,31,0,14,10,23,0,5,0,34,0,0,0,0,0,0,0,0,0,0,0,0],"split_type":[0,0,0,0,0,0,0,0,0,0,0,0,0,0,0,0,0,0,0,0,0,0,0,0,0,0,0],"sum_hessian":[2.815E3,2.758E3,5.7E1,2.126E3,6.32E2,2.6E1,3.1E1,9.58E2,1.168E3,2.96E2,3.36E2,7E0,1.9E1,1.2E1,1.9E1,2.04E2,7.54E2,6.84E2,4.84E2,1.6E2,1.36E2,1.09E2,2.27E2,7E0,1.2E1,1E1,9E0],"tree_param":{"num_deleted":"0","num_feature":"51","num_nodes":"27","size_leaf_vector":"1"}},{"base_weights":[-1.91321E-1,-5.952754E-1,3.3971947E1,5.743968E0,-1.6851549E0,1.3198023E-1,4.3187172E1,5.0635557E0,1.6509672E1,-2.332641E0,2.1654844E0,6.3198733E-1,3.6131123E-1,2.1502344E-1,5.1095575E-2,3.0822846E-1,1.15871586E-1,-4.7419937E-3,-3.2434765E-2,1.5667338E-2,1.0000744E-1],"categories":[],"categories_nodes":[],"categories_segments":[],"categories_sizes":[],"default_left":[0,0,0,0,0,0,0,0,0,0,0,0,0,0,0,0,0,0,0,0,0],"id":44,"left_children":[1,3,5,7,9,-1,11,13,15,17,19,-1,-1,-1,-1,-1,-1,-1,-1,-1,-1],"loss_changes":[3.880781E4,1.9207457E4,6.2474375E3,2.9151396E3,5.9179663E3,0E0,1.7432656E3,2.4802021E3,1.379544E3,2.2686113E3,1.7540713E3,0E0,0E0,0E0,0E0,0E0,0E0,0E0,0E0,0E0,0E0],"parents":[2147483647,0,0,1,1,2,2,3,3,4,4,6,6,7,7,8,8,9,9,10,10],"right_children":[2,4,6,8,10,-1,12,14,16,18,20,-1,-1,-1,-1,-1,-1,-1,-1,-1,-1],"split_conditions":[1.6707777E1,-6.5692466E-1,2.4835771E2,1.266098E2,1.1720425E1,1.3198023E-1,4.6875E0,8.75081E1,2.2376665E1,3.7221277E0,6.3E-1,6.3198733E-1,3.6131123E-1,2.1502344E-1,5.1095575E-2,3.0822846E-1,1.15871586E-1,-4.7419937E-3,-3.2434765E-2,1.5667338E-2,1.0000744E-1],"split_indices":[4,8,26,36,6,0,32,36,37,8,34,0,0,0,0,0,0,0,0,0,0],"split_type":[0,0,0,0,0,0,0,0,0,0,0,0,0,0,0,0,0,0,0,0,0],"sum_hessian":[2.81E3,2.778E3,3.2E1,4.07E2,2.371E3,1E1,2.2E1,3.84E2,2.3E1,2.03E3,3.41E2,8E0,1.4E1,1.1E1,3.73E2,7E0,1.6E1,4.78E2,1.552E3,3.08E2,3.3E1],"tree_param":{"num_deleted":"0","num_feature":"51","num_nodes":"21","size_leaf_vector":"1"}},{"base_weights":[-4.1468248E-2,4.189643E1,-3.8099435E-1,6.7987025E-1,2.5329268E-1,4.564307E0,-1.9544531E0,2.5217712E0,9.243804E0,-2.8098814E0,6.4764076E-1,2.1414848E-2,1.1104349E-1,2.1711133E-1,8.73816E-2,-5.539319E-2,-2.7268454E-2,-1.2303487E-2,2.394639E-2],"categories":[],"categories_nodes":[],"categories_segments":[],"categories_sizes":[],"default_left":[0,0,0,0,0,0,0,0,0,0,0,0,0,0,0,0,0,0,0],"id":45,"left_children":[1,3,5,-1,-1,7,9,11,13,15,17,-1,-1,-1,-1,-1,-1,-1,-1],"loss_changes":[4.053521E4,7.2195586E3,2.1980756E4,0E0,0E0,6.4969365E3,4.7714175E3,2.096901E3,2.805377E3,1.2376025E3,1.406482E3,0E0,0E0,0E0,0E0,0E0,0E0,0E0,0E0],"parents":[2147483647,0,0,1,1,2,2,5,5,6,6,7,7,8,8,9,9,10,10],"right_children":[2,4,6,-1,-1,8,10,12,14,16,18,-1,-1,-1,-1,-1,-1,-1,-1],"split_conditions":[-1.05197504E-1,6.25E0,9.145609E-1,6.7987025E-1,2.5329268E-1,1.1726612E0,-6.717585E-1,1.8628966E2,1.2814743E2,8.771484E0,2.382855E2,2.1414848E-2,1.1104349E-1,2.1711133E-1,8.73816E-2,-5.539319E-2,-2.7268454E-2,-1.2303487E-2,2.394639E-2],"split_indices":[1,32,8,0,0,12,11,25,41,37,26,0,0,0,0,0,0,0,0],"split_type":[0,0,0,0,0,0,0,0,0,0,0,0,0,0,0,0,0,0,0],"sum_hessian":[2.845E3,2.2E1,2.823E3,1E1,1.2E1,6.81E2,2.142E3,4.75E2,2.06E2,1.612E3,5.3E2,4.41E2,3.4E1,2.3E1,1.83E2,2.25E2,1.387E3,2.45E2,2.85E2],"tree_param":{"num_deleted":"0","num_feature":"51","num_nodes":"19","size_leaf_vector":"1"}},{"base_weights":[-7.5086253E-3,3.1142904E1,-4.4770595E-1,1.438055E1,4.7396378E1,-2.0816703E0,4.227267E0,8.434009E-2,2.5372005E-1,3.888361E-1,6.5983343E-1,-3.3857791E0,-6.8546E-1,8.3483315E-1,6.4444146E0,-5.7339363E-2,-3.2752283E-2,8.067033E-3,-2.16986E-2,8.525274E-2,3.067669E-3,6.413027E-2,1.6004638E-1],"categories":[],"categories_nodes":[],"categories_segments":[],"categories_sizes":[],"default_left":[0,0,0,0,0,0,0,0,0,0,0,0,0,0,0,0,0,0,0,0,0,0,0],"id":46,"left_children":[1,3,5,7,9,11,13,-1,-1,-1,-1,15,17,19,21,-1,-1,-1,-1,-1,-1,-1,-1],"loss_changes":[3.922679E4,1.0271457E4,2.1555373E4,1.0474922E3,1.1592969E3,3.8049814E3,5.492418E3,0E0,0E0,0E0,0E0,8.2715234E2,1.8095293E3,1.1054575E3,2.2942695E3,0E0,0E0,0E0,0E0,0E0,0E0,0E0,0E0],"parents":[2147483647,0,0,1,1,2,2,3,3,4,4,5,5,6,6,11,11,12,12,13,13,14,14],"right_children":[2,4,6,8,10,12,14,-1,-1,-1,-1,16,18,20,22,-1,-1,-1,-1,-1,-1,-1,-1],"split_conditions":[-6.365692E0,2.56917E1,2.098E1,-2.5979808E-1,3.5694522E-1,1.543E1,1.6204341E-1,8.434009E-2,2.5372005E-1,3.888361E-1,6.5983343E-1,1.198E1,6.225992E-1,-6.752934E-1,1.266098E2,-5.7339363E-2,-3.2752283E-2,8.067033E-3,-2.16986E-2,8.525274E-2,3.067669E-3,6.413027E-2,1.6004638E-1],"split_indices":[2,43,0,47,10,0,21,0,0,0,0,0,14,22,36,0,0,0,0,0,0,0,0],"split_type":[0,0,0,0,0,0,0,0,0,0,0,0,0,0,0,0,0,0,0,0,0,0,0],"sum_hessian":[2.859E3,3.9E1,2.82E3,2E1,1.9E1,2.09E3,7.3E2,1.2E1,8E0,1.1E1,8E0,1.08E3,1.01E3,2.89E2,4.41E2,2.12E2,8.68E2,4.78E2,5.32E2,2.1E1,2.68E2,4.08E2,3.3E1],"tree_param":{"num_deleted":"0","num_feature":"51","num_nodes":"23","size_leaf_vector":"1"}},{"base_weights":[-2.6261646E-1,-1.651616E0,7.502311E0,-2.5356703E0,8.2627374E-1,3.6792732E1,6.0137463E0,-3.369654E0,-8.355462E-1,2.562093E0,-5.304086E-1,5.154226E-1,2.143012E-1,2.9345006E-1,5.3496423E0,-5.8816016E-2,-3.401495E-2,-1.3653423E-2,7.619537E-2,2.2466036E-2,1.2751202E-1,-8.556321E-3,1.00376286E-1,9.3292475E-2,2.2895366E-2],"categories":[],"categories_nodes":[],"categories_segments":[],"categories_sizes":[],"default_left":[0,0,0,0,0,0,0,0,0,0,0,0,0,0,0,0,0,0,0,0,0,0,0,0,0],"id":47,"left_children":[1,3,5,7,9,11,13,15,17,19,21,-1,-1,-1,23,-1,-1,-1,-1,-1,-1,-1,-1,-1,-1],"loss_changes":[3.0909486E4,5.3268594E3,1.8768686E4,2.538128E3,1.5080585E3,2.7313027E3,5.496924E3,6.988428E2,1.7945736E3,1.3321349E3,8.306151E2,0E0,0E0,0E0,4.021624E3,0E0,0E0,0E0,0E0,0E0,0E0,0E0,0E0,0E0,0E0],"parents":[2147483647,0,0,1,1,2,2,3,3,4,4,5,5,6,6,7,7,8,8,9,9,10,10,14,14],"right_children":[2,4,6,8,10,12,14,16,18,20,22,-1,-1,-1,24,-1,-1,-1,-1,-1,-1,-1,-1,-1,-1],"split_conditions":[1.9902306E1,1.5135985E1,-1.05197504E-1,3.1130342E0,1.13925785E-2,-7.469473E0,8.70753E1,8.771484E0,2.4989564E0,2.0632114E2,6.6546865E0,5.154226E-1,2.143012E-1,2.9345006E-1,-1.5702803E0,-5.8816016E-2,-3.401495E-2,-1.3653423E-2,7.619537E-2,2.2466036E-2,1.2751202E-1,-8.556321E-3,1.00376286E-1,9.3292475E-2,2.2895366E-2],"split_indices":[11,15,1,46,8,3,36,37,45,25,27,0,0,0,8,0,0,0,0,0,0,0,0,0,0],"split_type":[0,0,0,0,0,0,0,0,0,0,0,0,0,0,0,0,0,0,0,0,0,0,0,0,0],"sum_hessian":[2.864E3,2.43E3,4.34E2,1.791E3,6.39E2,2E1,4.14E2,1.201E3,5.9E2,2.8E2,3.59E2,1.2E1,8E0,1.2E1,4.02E2,1.64E2,1.037E3,5.62E2,2.8E1,2.65E2,1.5E1,3.51E2,8E0,2.08E2,1.94E2],"tree_param":{"num_deleted":"0","num_feature":"51","num_nodes":"25","size_leaf_vector":"1"}},{"base_weights":[2.9166903E-2,-1.6333427E0,6.8089952E0,-2.741446E0,4.9151415E-1,3.7402214E1,5.519242E0,-2.9599292E0,1.6472483E0,2.2088342E0,-1.0664916E0,1.58411E-1,5.2046067E-1,1.8233644E1,4.9055324E0,-5.6000523E-2,-2.9224938E-2,1.6875222E-1,-2.4926467E-3,1.541562E-1,2.0668458E-2,9.090608E-3,-2.9859614E-2,2.633079E-1,1.3803653E-1,2.9878449E-2,8.301416E-2],"categories":[],"categories_nodes":[],"categories_segments":[],"categories_sizes":[],"default_left":[0,0,0,0,0,0,0,0,0,0,0,0,0,0,0,0,0,0,0,0,0,0,0,0,0,0,0],"id":48,"left_children":[1,3,5,7,9,11,13,15,17,19,21,-1,-1,23,25,-1,-1,-1,-1,-1,-1,-1,-1,-1,-1,-1,-1],"loss_changes":[3.2560316E4,5.4634624E3,2.2267176E4,1.4663516E3,2.1314578E3,4.417283E3,4.1895703E3,9.849092E2,1.8496552E3,1.5185677E3,1.2783384E3,0E0,0E0,5.347627E2,2.9558135E3,0E0,0E0,0E0,0E0,0E0,0E0,0E0,0E0,0E0,0E0,0E0,0E0],"parents":[2147483647,0,0,1,1,2,2,3,3,4,4,5,5,6,6,7,7,8,8,9,9,10,10,13,13,14,14],"right_children":[2,4,6,8,10,12,14,16,18,20,22,-1,-1,24,26,-1,-1,-1,-1,-1,-1,-1,-1,-1,-1,-1,-1],"split_conditions":[2.299E1,1.722E1,-9.632807E0,1.5635572E1,4.1581967E-1,3.1225296E1,8.6772E1,1.187E1,-8.0281836E-1,-3.6503246E1,1.2252964E1,1.58411E-1,5.2046067E-1,1.71875E1,7.9797107E-1,-5.6000523E-2,-2.9224938E-2,1.6875222E-1,-2.4926467E-3,1.541562E-1,2.0668458E-2,9.090608E-3,-2.9859614E-2,2.633079E-1,1.3803653E-1,2.9878449E-2,8.301416E-2],"split_indices":[0,0,3,6,2,43,24,0,47,42,43,0,0,32,12,0,0,0,0,0,0,0,0,0,0,0,0],"split_type":[0,0,0,0,0,0,0,0,0,0,0,0,0,0,0,0,0,0,0,0,0,0,0,0,0,0,0],"sum_hessian":[2.887E3,2.319E3,5.68E2,1.524E3,7.95E2,2.2E1,5.46E2,1.452E3,7.2E1,3.78E2,4.17E2,7E0,1.5E1,2.4E1,5.22E2,1.97E2,1.255E3,8E0,6.4E1,1E1,3.68E2,1.93E2,2.24E2,1.1E1,1.3E1,2.81E2,2.41E2],"tree_param":{"num_deleted":"0","num_feature":"51","num_nodes":"27","size_leaf_vector":"1"}},{"base_weights":[-2.5569262E-2,-6.69514E-1,2.0582691E1,3.7349799E0,-1.9427708E0,5.2420662E1,1.39359E1,5.8257565E0,1.660321E0,-2.520269E0,1.3530687E0,3.602493E-1,7.4078315E-1,9.092755E0,2.764132E1,3.280828E-2,9.4918795E-2,7.7393143E-3,6.178054E-2,-3.5309702E-2,-1.4797293E-2,9.966198E-2,5.52586E-3,3.0741718E-1,6.603781E-2,3.6047575E-1,2.1184891E-1],"categories":[],"categories_nodes":[],"categories_segments":[],"categories_sizes":[],"default_left":[0,0,0,0,0,0,0,0,0,0,0,0,0,0,0,0,0,0,0,0,0,0,0,0,0,0,0],"id":49,"left_children":[1,3,5,7,9,11,13,15,17,19,21,-1,-1,23,25,-1,-1,-1,-1,-1,-1,-1,-1,-1,-1,-1,-1],"loss_changes":[3.8481074E4,1.5775291E4,1.7962281E4,2.7279727E3,4.15579E3,2.3694375E3,4.6853574E3,2.427835E3,1.1912598E3,1.4473945E3,2.1198276E3,0E0,0E0,3.1254624E3,2.4222168E2,0E0,0E0,0E0,0E0,0E0,0E0,0E0,0E0,0E0,0E0,0E0,0E0],"parents":[2147483647,0,0,1,1,2,2,3,3,4,4,5,5,6,6,7,7,8,8,9,9,10,10,13,13,14,14],"right_children":[2,4,6,8,10,12,14,16,18,20,22,-1,-1,24,26,-1,-1,-1,-1,-1,-1,-1,-1,-1,-1,-1,-1],"split_conditions":[1.0852699E1,1.0139153E0,-7.3236984E-1,-1.5702803E0,1.0394905E1,2.6880603E2,1.1338407E0,-1.5443968E0,1.5713358E2,2.6366055E2,-5.9008217E-1,3.602493E-1,7.4078315E-1,-9.632807E0,-1.8E-1,3.280828E-2,9.4918795E-2,7.7393143E-3,6.178054E-2,-3.5309702E-2,-1.4797293E-2,9.966198E-2,5.52586E-3,3.0741718E-1,6.603781E-2,3.6047575E-1,2.1184891E-1],"split_indices":[4,8,22,8,6,26,5,10,25,26,22,0,0,3,19,0,0,0,0,0,0,0,0,0,0,0,0],"split_type":[0,0,0,0,0,0,0,0,0,0,0,0,0,0,0,0,0,0,0,0,0,0,0,0,0,0,0],"sum_hessian":[2.898E3,2.811E3,8.7E1,6.3E2,2.181E3,1.4E1,7.3E1,3.13E2,3.17E2,1.856E3,3.25E2,7E0,7E0,5.5E1,1.8E1,1.53E2,1.6E2,2.55E2,6.2E1,1.194E3,6.62E2,3.2E1,2.93E2,7E0,4.8E1,1E1,8E0],"tree_param":{"num_deleted":"0","num_feature":"51","num_nodes":"27","size_leaf_vector":"1"}},{"base_weights":[-2.4402175E-2,-1.6747644E0,6.5463896E0,-3.3929427E0,-4.3040434E-1,5.224613E0,3.4174484E1,-3.829787E0,-1.4025693E0,8.679049E-1,-1.8915187E0,3.1217018E-1,4.838664E0,6.540108E-1,2.2322132E1,-4.488533E-2,-6.836524E-3,-2.0165876E-2,8.274654E-2,1.3684316E-1,6.8667685E-3,-2.9961733E-2,1.5309353E-3,1.5555773E-2,7.622869E-2,3.3926034E-1,1.1205653E-1],"categories":[],"categories_nodes":[],"categories_segments":[],"categories_sizes":[],"default_left":[0,0,0,0,0,0,0,0,0,0,0,0,0,0,0,0,0,0,0,0,0,0,0,0,0,0,0],"id":50,"left_children":[1,3,5,7,9,11,13,15,17,19,21,-1,23,-1,25,-1,-1,-1,-1,-1,-1,-1,-1,-1,-1,-1,-1],"loss_changes":[3.0783662E4,4.849567E3,2.065561E4,8.237627E2,2.4994941E3,4.69146E3,6.43226E3,5.243574E2,6.4228015E2,1.9896997E3,1.01292944E3,0E0,3.7238926E3,0E0,1.6288965E3,0E0,0E0,0E0,0E0,0E0,0E0,0E0,0E0,0E0,0E0,0E0,0E0],"parents":[2147483647,0,0,1,1,2,2,3,3,4,4,5,5,6,6,7,7,8,8,9,9,10,10,12,12,14,14],"right_children":[2,4,6,8,10,12,14,16,18,20,22,-1,24,-1,26,-1,-1,-1,-1,-1,-1,-1,-1,-1,-1,-1,-1],"split_conditions":[2.273E1,1.48E1,4.299E1,8.901427E0,6.706809E-1,8.68067E1,-2.7419078E0,9.6837944E1,6.4E-1,-3.4022903E1,1.6467447E1,3.1217018E-1,1.6307528E-1,6.540108E-1,1.875E1,-4.488533E-2,-6.836524E-3,-2.0165876E-2,8.274654E-2,1.3684316E-1,6.8667685E-3,-2.9961733E-2,1.5309353E-3,1.5555773E-2,7.622869E-2,3.3926034E-1,1.1205653E-1],"split_indices":[0,0,0,28,14,36,18,16,34,42,15,0,21,0,32,0,0,0,0,0,0,0,0,0,0,0,0],"split_type":[0,0,0,0,0,0,0,0,0,0,0,0,0,0,0,0,0,0,0,0,0,0,0,0,0,0,0],"sum_hessian":[2.837E3,2.268E3,5.69E2,9.52E2,1.316E3,5.44E2,2.5E1,7.8E2,1.72E2,6.97E2,6.19E2,8E0,5.36E2,7E0,1.8E1,7.32E2,4.8E1,1.65E2,7E0,1.4E1,6.83E2,4.43E2,1.76E2,1.99E2,3.37E2,1E1,8E0],"tree_param":{"num_deleted":"0","num_feature":"51","num_nodes":"27","size_leaf_vector":"1"}},{"base_weights":[-3.561512E-2,7.0624204E0,-1.3672605E0,5.8582816E0,3.4691177E1,-2.370634E0,1.2504086E0,5.4153953E0,2.9743534E-1,2.3948607E-1,4.9772853E-1,-1.2135284E0,-3.1323893E0,5.979385E-1,7.4743075E0,3.173788E-2,8.645971E-2,3.914047E-3,-2.175254E-2,-1.748042E-2,-4.374532E-2,1.4113076E-2,-2.9511506E-2,5.855466E-2,2.2935069E-1],"categories":[],"categories_nodes":[],"categories_segments":[],"categories_sizes":[],"default_left":[0,0,0,0,0,0,0,0,0,0,0,0,0,0,0,0,0,0,0,0,0,0,0,0,0],"id":51,"left_children":[1,3,5,7,9,11,13,15,-1,-1,-1,17,19,21,23,-1,-1,-1,-1,-1,-1,-1,-1,-1,-1],"loss_changes":[2.7276121E4,1.4989998E4,6.3846113E3,3.9293633E3,1.670002E3,1.5451895E3,2.7324805E3,2.583087E3,0E0,0E0,0E0,8.149253E2,1.3229033E3,1.3390171E3,1.7593958E3,0E0,0E0,0E0,0E0,0E0,0E0,0E0,0E0,0E0,0E0],"parents":[2147483647,0,0,1,1,2,2,3,3,4,4,5,5,6,6,7,7,11,11,12,12,13,13,14,14],"right_children":[2,4,6,8,10,12,14,16,-1,-1,-1,18,20,22,24,-1,-1,-1,-1,-1,-1,-1,-1,-1,-1],"split_conditions":[-7.9953694E-1,2.1243174E1,1.5581918E0,1.422766E2,9.802371E1,-2.5E-1,6.4458733E0,-1.4798976E0,2.9743534E-1,2.3948607E-1,4.9772853E-1,5.2265496E0,-5.7525843E-1,8.2783294E-1,1.178523E0,3.173788E-2,8.645971E-2,3.914047E-3,-2.175254E-2,-1.748042E-2,-4.374532E-2,1.4113076E-2,-2.9511506E-2,5.855466E-2,2.2935069E-1],"split_indices":[8,4,11,40,43,19,4,10,0,0,0,8,35,14,5,0,0,0,0,0,0,0,0,0,0],"split_type":[0,0,0,0,0,0,0,0,0,0,0,0,0,0,0,0,0,0,0,0,0,0,0,0,0],"sum_hessian":[2.884E3,4.55E2,2.429E3,4.37E2,1.8E1,1.756E3,6.73E2,4.29E2,8E0,9E0,9E0,6.98E2,1.058E3,6.1E2,6.3E1,2.07E2,2.22E2,2.25E2,4.73E2,3.61E2,6.97E2,5.06E2,1.04E2,5.5E1,8E0],"tree_param":{"num_deleted":"0","num_feature":"51","num_nodes":"25","size_leaf_vector":"1"}},{"base_weights":[1.4035751E-1,3.6992535E1,-2.4994066E-1,6.764401E-1,2.7382547E1,-1.9055455E0,4.5551615E0,1.2632544E-1,3.7590042E-1,-3.2647865E0,-7.6943815E-1,2.5567713E0,8.942687E0,-4.1373543E-2,-1.4413431E-2,4.9807327E-3,-2.074155E-2,8.923642E-2,2.1446189E-2,2.2985949E-1,8.847146E-2],"categories":[],"categories_nodes":[],"categories_segments":[],"categories_sizes":[],"default_left":[0,0,0,0,0,0,0,0,0,0,0,0,0,0,0,0,0,0,0,0,0],"id":52,"left_children":[1,3,5,-1,7,9,11,-1,-1,13,15,17,19,-1,-1,-1,-1,-1,-1,-1,-1],"loss_changes":[4.0984836E4,5.4155938E3,2.2440424E4,0E0,2.0280137E3,3.2373643E3,6.3181084E3,0E0,0E0,8.5761035E2,1.529084E3,1.6943789E3,2.4581504E3,0E0,0E0,0E0,0E0,0E0,0E0,0E0,0E0],"parents":[2147483647,0,0,1,1,2,2,4,4,5,5,6,6,9,9,10,10,11,11,12,12],"right_children":[2,4,6,-1,8,10,12,-1,-1,14,16,18,20,-1,-1,-1,-1,-1,-1,-1,-1],"split_conditions":[-9.632807E0,-2.995586E0,2.129E1,6.764401E-1,1.541502E1,1.476E1,1.1097391E0,1.2632544E-1,3.7590042E-1,9.679301E0,3.1620554E1,-9.043207E-1,2.9626207E1,-4.1373543E-2,-1.4413431E-2,4.9807327E-3,-2.074155E-2,8.923642E-2,2.1446189E-2,2.2985949E-1,8.847146E-2],"split_indices":[3,13,0,0,43,0,12,0,0,8,43,47,11,0,0,0,0,0,0,0,0],"split_type":[0,0,0,0,0,0,0,0,0,0,0,0,0,0,0,0,0,0,0,0,0],"sum_hessian":[2.848E3,2.9E1,2.819E3,7E0,2.2E1,2.097E3,7.22E2,7E0,1.5E1,9.54E2,1.143E3,4.97E2,2.25E2,7.73E2,1.81E2,5.42E2,6.01E2,5E1,4.47E2,1.6E1,2.09E2],"tree_param":{"num_deleted":"0","num_feature":"51","num_nodes":"21","size_leaf_vector":"1"}},{"base_weights":[-4.735042E-2,3.8562515E1,-3.2781798E-1,2.7866575E-1,6.4561886E-1,-1.6286426E0,5.1555834E0,-2.9729552E0,-1.4042377E-1,1.3021721E0,7.2472014E0,-3.6085434E-2,2.2706913E-3,1.5684146E-2,-1.5728926E-2,9.138192E-3,1.4023006E-1,7.3437415E-2,2.2892044E-1],"categories":[],"categories_nodes":[],"categories_segments":[],"categories_sizes":[],"default_left":[0,0,0,0,0,0,0,0,0,0,0,0,0,0,0,0,0,0,0],"id":53,"left_children":[1,3,5,-1,-1,7,9,11,13,15,17,-1,-1,-1,-1,-1,-1,-1,-1],"loss_changes":[3.1325586E4,4.238885E3,2.0492E4,0E0,0E0,4.644768E3,4.4315703E3,1.0651475E3,2.184257E3,1.0488842E3,2.922746E3,0E0,0E0,0E0,0E0,0E0,0E0,0E0,0E0],"parents":[2147483647,0,0,1,1,2,2,5,5,6,6,7,7,8,8,9,9,10,10],"right_children":[2,4,6,-1,-1,8,10,12,14,16,18,-1,-1,-1,-1,-1,-1,-1,-1],"split_conditions":[-1.0350095E1,-3.4371442E-3,2.273E1,2.7866575E-1,6.4561886E-1,1.595E1,1.6307528E-1,1.46E0,5.8576393E-1,2.5440271E1,9.920949E1,-3.6085434E-2,2.2706913E-3,1.5684146E-2,-1.5728926E-2,9.138192E-3,1.4023006E-1,7.3437415E-2,2.2892044E-1],"split_indices":[27,47,0,0,0,0,21,48,14,42,20,0,0,0,0,0,0,0,0],"split_type":[0,0,0,0,0,0,0,0,0,0,0,0,0,0,0,0,0,0,0],"sum_hessian":[2.891E3,2E1,2.871E3,1.3E1,7E0,2.321E3,5.5E2,1.219E3,1.102E3,1.94E2,3.56E2,1.122E3,9.7E1,4.97E2,6.05E2,1.87E2,7E0,3.41E2,1.5E1],"tree_param":{"num_deleted":"0","num_feature":"51","num_nodes":"19","size_leaf_vector":"1"}},{"base_weights":[-5.288042E-2,4.100047E1,-3.997797E-1,2.0553909E-1,4.9394943E1,-1.7126067E0,5.247353E0,6.452027E-1,3.677653E-1,-2.7861106E0,8.463676E-2,2.3115954E0,8.539484E0,-1.7636226E-2,-3.793556E-2,1.576729E-2,-1.52230915E-2,1.6557756E-1,2.1617E-2,2.7153528E-1,8.885399E-2],"categories":[],"categories_nodes":[],"categories_segments":[],"categories_sizes":[],"default_left":[0,0,0,0,0,0,0,0,0,0,0,0,0,0,0,0,0,0,0,0,0],"id":54,"left_children":[1,3,5,-1,7,9,11,-1,-1,13,15,17,19,-1,-1,-1,-1,-1,-1,-1,-1],"loss_changes":[4.0556574E4,3.7183672E3,2.0942967E4,0E0,7.2425E2,4.4220557E3,5.132827E3,0E0,0E0,1.0755469E3,1.6668739E3,1.2784962E3,1.9958008E3,0E0,0E0,0E0,0E0,0E0,0E0,0E0,0E0],"parents":[2147483647,0,0,1,1,2,2,4,4,5,5,6,6,9,9,10,10,11,11,12,12],"right_children":[2,4,6,-1,8,10,12,-1,-1,14,16,18,20,-1,-1,-1,-1,-1,-1,-1,-1],"split_conditions":[-9.632807E0,1.55E0,2.299E1,2.0553909E-1,9.375E0,1.687E1,-1.5E-1,6.452027E-1,3.677653E-1,6.933883E-1,2.2924902E1,8.786567E1,8.68067E1,-1.7636226E-2,-3.793556E-2,1.576729E-2,-1.52230915E-2,1.6557756E-1,2.1617E-2,2.7153528E-1,8.885399E-2],"split_indices":[3,9,0,0,32,0,9,0,0,14,43,24,36,0,0,0,0,0,0,0,0],"split_type":[0,0,0,0,0,0,0,0,0,0,0,0,0,0,0,0,0,0,0,0,0],"sum_hessian":[2.846E3,2.3E1,2.823E3,7E0,1.6E1,2.291E3,5.32E2,9E0,7E0,1.434E3,8.57E2,2.82E2,2.5E2,4.94E2,9.4E2,4.47E2,4.1E2,7E0,2.75E2,7E0,2.43E2],"tree_param":{"num_deleted":"0","num_feature":"51","num_nodes":"21","size_leaf_vector":"1"}},{"base_weights":[1.3570331E-1,-4.3241486E-1,2.0934412E1,4.557729E0,-1.5804906E0,1.1344287E1,3.7706173E1,1.3408504E0,6.7486696E0,-2.3542857E0,1.1420193E0,6.3116865E0,2.498935E-1,6.409193E-1,2.6596573E1,4.5767237E-2,-4.5695403E-3,2.6010442E-1,6.988312E-2,-3.3253714E-2,-4.5383596E-3,7.077761E-2,4.970134E-3,1.4958826E-1,-4.094042E-3,3.8362697E-1,2.0016807E-1],"categories":[],"categories_nodes":[],"categories_segments":[],"categories_sizes":[],"default_left":[0,0,0,0,0,0,0,0,0,0,0,0,0,0,0,0,0,0,0,0,0,0,0,0,0,0,0],"id":55,"left_children":[1,3,5,7,9,11,13,15,17,19,21,23,-1,-1,25,-1,-1,-1,-1,-1,-1,-1,-1,-1,-1,-1,-1],"loss_changes":[3.326897E4,1.5708724E4,1.1671324E4,3.6066865E3,4.6978066E3,2.6177847E3,4.6368047E3,1.01816943E3,2.205539E3,2.155457E3,1.7910437E3,1.6698685E3,0E0,0E0,7.462217E2,0E0,0E0,0E0,0E0,0E0,0E0,0E0,0E0,0E0,0E0,0E0,0E0],"parents":[2147483647,0,0,1,1,2,2,3,3,4,4,5,5,6,6,7,7,8,8,9,9,10,10,11,11,14,14],"right_children":[2,4,6,8,10,12,14,16,18,20,22,24,-1,-1,26,-1,-1,-1,-1,-1,-1,-1,-1,-1,-1,-1,-1],"split_conditions":[1.2602221E1,-1.3720608E0,-1.0443985E-2,2.148E1,1.4400005E0,1.1474259E0,-2.6690018E0,2.2786526E-1,8.68067E1,1.782E1,-5.706191E-1,4.7035572E1,2.498935E-1,6.409193E-1,1.04716225E2,4.5767237E-2,-4.5695403E-3,2.6010442E-1,6.988312E-2,-3.3253714E-2,-4.5383596E-3,7.077761E-2,4.970134E-3,1.4958826E-1,-4.094042E-3,3.8362697E-1,2.0016807E-1],"split_indices":[4,28,47,0,44,5,13,21,36,0,22,16,0,0,46,0,0,0,0,0,0,0,0,0,0,0,0],"split_type":[0,0,0,0,0,0,0,0,0,0,0,0,0,0,0,0,0,0,0,0,0,0,0,0,0,0,0],"sum_hessian":[2.814E3,2.74E3,7.4E1,5.12E2,2.228E3,4.8E1,2.6E1,2.08E2,3.04E2,1.735E3,4.93E2,3.4E1,1.4E1,8E0,1.8E1,8E1,1.28E2,7E0,2.97E2,1.306E3,4.29E2,5.7E1,4.36E2,1.6E1,1.8E1,8E0,1E1],"tree_param":{"num_deleted":"0","num_feature":"51","num_nodes":"27","size_leaf_vector":"1"}},{"base_weights":[-1.2886994E-1,-1.0255187E0,1.1673787E1,-2.4145396E0,1.3937162E0,3.4173706E1,8.453873E0,-2.6624737E0,3.2471828E0,2.7073238E0,-3.3139288E-1,1.9191189E-1,5.1679456E-1,2.178999E-1,7.683817E0,-1.4898814E-2,-3.6518864E-2,1.2280098E-2,1.3316733E-1,1.3063817E-1,2.6453163E-2,-8.372192E-3,6.767538E-2,9.85963E-2,2.6696837E-2],"categories":[],"categories_nodes":[],"categories_segments":[],"categories_sizes":[],"default_left":[0,0,0,0,0,0,0,0,0,0,0,0,0,0,0,0,0,0,0,0,0,0,0,0,0],"id":56,"left_children":[1,3,5,7,9,11,13,15,17,19,21,-1,-1,-1,23,-1,-1,-1,-1,-1,-1,-1,-1,-1,-1],"loss_changes":[3.0106246E4,8.887271E3,1.4302104E4,2.3655225E3,2.1873098E3,4.490287E3,1.3890127E3,1.324041E3,1.3145718E3,1.594887E3,1.1365258E3,0E0,0E0,0E0,1.0297246E3,0E0,0E0,0E0,0E0,0E0,0E0,0E0,0E0,0E0,0E0],"parents":[2147483647,0,0,1,1,2,2,3,3,4,4,5,5,6,6,7,7,8,8,9,9,10,10,14,14],"right_children":[2,4,6,8,10,12,14,16,18,20,22,-1,-1,-1,24,-1,-1,-1,-1,-1,-1,-1,-1,-1,-1],"split_conditions":[2.965E1,1.803E1,-1.05197504E-1,3.6099997E0,6.225992E-1,4.0864487E0,8.72178E1,6.7454886E-1,7.807601E0,-6.496011E0,6.411946E0,1.9191189E-1,5.1679456E-1,2.178999E-1,-5.1682055E-1,-1.4898814E-2,-3.6518864E-2,1.2280098E-2,1.3316733E-1,1.3063817E-1,2.6453163E-2,-8.372192E-3,6.767538E-2,9.85963E-2,2.6696837E-2],"split_indices":[0,0,1,44,14,12,36,14,8,3,27,0,0,0,8,0,0,0,0,0,0,0,0,0,0],"split_type":[0,0,0,0,0,0,0,0,0,0,0,0,0,0,0,0,0,0,0,0,0,0,0,0,0],"sum_hessian":[2.843E3,2.643E3,2E2,1.679E3,9.64E2,2.4E1,1.76E2,1.609E3,7E1,5.47E2,4.17E2,1.1E1,1.3E1,1E1,1.66E2,5.17E2,1.092E3,5.7E1,1.3E1,1.8E1,5.29E2,3.92E2,2.5E1,1.35E2,3.1E1],"tree_param":{"num_deleted":"0","num_feature":"51","num_nodes":"25","size_leaf_vector":"1"}},{"base_weights":[7.897614E-3,-8.9349324E-1,1.2416144E1,-2.6606438E0,1.3516369E0,3.7614735E1,9.1482935E0,-4.1903467E0,-2.2343075E0,-2.881552E-1,2.8423998E0,6.3833225E-1,2.4939228E1,8.199106E0,1.8698298E1,2.6283382E-2,-4.872229E-2,-1.7477358E-2,-3.3837687E-2,-9.8772915E-3,3.212369E-2,2.8654395E-2,2.537736E-1,3.3263057E-1,1.911731E-1,1.1062998E-1,5.1625825E-2,8.012235E-2,3.1259486E-1],"categories":[],"categories_nodes":[],"categories_segments":[],"categories_sizes":[],"default_left":[0,0,0,0,0,0,0,0,0,0,0,0,0,0,0,0,0,0,0,0,0,0,0,0,0,0,0,0,0],"id":57,"left_children":[1,3,5,7,9,11,13,15,17,19,21,-1,23,25,27,-1,-1,-1,-1,-1,-1,-1,-1,-1,-1,-1,-1,-1,-1],"loss_changes":[3.1851035E4,1.0536246E4,1.5583682E4,9.60834E2,2.8605327E3,4.259342E3,1.4251787E3,4.2076514E2,6.2006006E2,1.0676946E3,3.1788198E3,0E0,1.2936719E2,9.454658E2,1.4351489E3,0E0,0E0,0E0,0E0,0E0,0E0,0E0,0E0,0E0,0E0,0E0,0E0,0E0,0E0],"parents":[2147483647,0,0,1,1,2,2,3,3,4,4,5,5,6,6,7,7,8,8,9,9,10,10,12,12,13,13,14,14],"right_children":[2,4,6,8,10,12,14,16,18,20,22,-1,24,26,28,-1,-1,-1,-1,-1,-1,-1,-1,-1,-1,-1,-1,-1,-1],"split_conditions":[2.965E1,1.712E1,-1.05197504E-1,1.244E1,1.6500245E-1,6.25E0,9.920949E1,-4.9E-1,1.3979783E0,6.0079052E1,9.881423E1,6.3833225E-1,-1.4E-1,1.2669755E2,-1.2284134E1,2.6283382E-2,-4.872229E-2,-1.7477358E-2,-3.3837687E-2,-9.8772915E-3,3.212369E-2,2.8654395E-2,2.537736E-1,3.3263057E-1,1.911731E-1,1.1062998E-1,5.1625825E-2,8.012235E-2,3.1259486E-1],"split_indices":[0,0,1,0,21,32,20,19,35,20,20,0,19,40,33,0,0,0,0,0,0,0,0,0,0,0,0,0,0],"split_type":[0,0,0,0,0,0,0,0,0,0,0,0,0,0,0,0,0,0,0,0,0,0,0,0,0,0,0,0,0],"sum_hessian":[2.846E3,2.654E3,1.92E2,1.485E3,1.169E3,2.1E1,1.71E2,3.22E2,1.163E3,5.57E2,6.12E2,7E0,1.4E1,1.57E2,1.4E1,9E0,3.13E2,6.42E2,5.21E2,4.69E2,8.8E1,6.05E2,7E0,7E0,7E0,1.04E2,5.3E1,7E0,7E0],"tree_param":{"num_deleted":"0","num_feature":"51","num_nodes":"29","size_leaf_vector":"1"}},{"base_weights":[4.880615E-3,-4.3273866E-1,2.6741655E1,-1.8601451E0,3.6612506E0,6.765546E-1,1.9041561E1,-2.7730992E0,-1.2539956E-1,6.400675E-1,5.552242E0,2.7026165E1,1.1417287E1,-5.4420773E-2,-2.6599858E-2,1.37290135E-2,-1.3737824E-2,-1.8445367E-2,2.7447801E-2,2.9286498E-1,5.733063E-2,1.8811318E-1,3.576437E-1,1.7986195E-1,8.1823796E-2],"categories":[],"categories_nodes":[],"categories_segments":[],"categories_sizes":[],"default_left":[0,0,0,0,0,0,0,0,0,0,0,0,0,0,0,0,0,0,0,0,0,0,0,0,0],"id":58,"left_children":[1,3,5,7,9,-1,11,13,15,17,19,21,23,-1,-1,-1,-1,-1,-1,-1,-1,-1,-1,-1,-1],"loss_changes":[3.2594852E4,1.602285E4,1.0794566E4,3.2191748E3,4.0465654E3,0E0,2.0381396E3,1.062707E3,1.0625405E3,1.1563995E3,3.442412E3,4.5996875E2,3.0011304E2,0E0,0E0,0E0,0E0,0E0,0E0,0E0,0E0,0E0,0E0,0E0,0E0],"parents":[2147483647,0,0,1,1,2,2,3,3,4,4,6,6,7,7,8,8,9,9,10,10,11,11,12,12],"right_children":[2,4,6,8,10,-1,12,14,16,18,20,22,24,-1,-1,-1,-1,-1,-1,-1,-1,-1,-1,-1,-1],"split_conditions":[1.5349999E1,2.098E1,-9.2507327E-1,1.657E1,1.6204341E-1,6.765546E-1,-9.632807E0,1.187E1,2.2529644E1,4.5577517E-1,8.68067E1,1E0,9.525692E1,-5.4420773E-2,-2.6599858E-2,1.37290135E-2,-1.3737824E-2,-1.8445367E-2,2.7447801E-2,2.9286498E-1,5.733063E-2,1.8811318E-1,3.576437E-1,1.7986195E-1,8.1823796E-2],"split_indices":[44,0,22,0,21,0,3,0,43,23,36,29,20,0,0,0,0,0,0,0,0,0,0,0,0],"split_type":[0,0,0,0,0,0,0,0,0,0,0,0,0,0,0,0,0,0,0,0,0,0,0,0,0],"sum_hessian":[2.784E3,2.74E3,4.4E1,2.032E3,7.08E2,7E0,3.7E1,1.331E3,7.01E2,2.73E2,4.35E2,1.7E1,2E1,2E2,1.131E3,3.15E2,3.86E2,1.21E2,1.52E2,7E0,4.28E2,7E0,1E1,8E0,1.2E1],"tree_param":{"num_deleted":"0","num_feature":"51","num_nodes":"25","size_leaf_vector":"1"}},{"base_weights":[5.2021433E-2,3.4047394E1,-2.4846382E-1,6.315765E-1,1.8024189E1,-1.5192279E0,4.9020634E0,1.2617458E-1,2.4650344E-1,-3.0915105E0,-3.2770413E-1,2.7872527E-1,4.568451E0,-3.883329E-2,-1.5565748E-2,1.3628278E-2,-1.4949419E-2,8.7890565E-2,2.8232377E-2],"categories":[],"categories_nodes":[],"categories_segments":[],"categories_sizes":[],"default_left":[0,0,0,0,0,0,0,0,0,0,0,0,0,0,0,0,0,0,0],"id":59,"left_children":[1,3,5,-1,7,9,11,-1,-1,13,15,-1,17,-1,-1,-1,-1,-1,-1],"loss_changes":[2.8986812E4,8.195336E3,1.841683E4,0E0,2.2225537E2,4.227092E3,3.6500547E3,0E0,0E0,6.5916797E2,2.0337452E3,0E0,3.7011338E3,0E0,0E0,0E0,0E0,0E0,0E0],"parents":[2147483647,0,0,1,1,2,2,4,4,5,5,6,6,9,9,10,10,12,12],"right_children":[2,4,6,-1,8,10,12,-1,-1,14,16,-1,18,-1,-1,-1,-1,-1,-1],