{"learner":{"attributes":{"scikit_learn":"{\"_estimator_type\": \"classifier\"}"},"feature_names":["vix","VX2-VX1_RATIO","spx_vs_ma20","spx_ret_10d","vix_stretch_ma63","VXTH_zscore_63d","vix_vs_ma63","vix_velocity_10d","spx_vs_ma200","VX1-VX2","yield_curve_curvature_zscore","vix_vs_ma252","vix_zscore_252d","yield_curve_level_zscore","bb_position_20d","spx_realized_vol_21d","yield_2y3m_percentile_252d","vix_momentum_z_21d","spx_momentum_z_21d","yield_curve_curvature","vix_percentile_252d","dgs6mo_vol_63d","vx_dollar_corr_21d","vix_bb_position_20d","skew_vs_vix","vix_vol_10d","VXTH","spx_vs_ma50","spx_ret_63d","days_in_regime","spx_realized_vol_10d","yield_curve_level","SKEW_percentile_63d","crude_oil_ret_21d","yield_2y3m","macd_histogram","Dollar_Index_lag1","spx_realized_vol_63d","vx_term_structure_divergence","VX1-VX2_zscore_63d","SKEW","vix_vol_63d","VXTH_change_21d","yield_10y2y_percentile_252d","vix_velocity_21d","vix_rv_ratio_21d","vix_ret_21d","spx_dollar_corr_21d","vix_velocity_5d","yield_10y3m_percentile_252d","yield_10y3m"],"feature_types":["float","float","float","float","float","float","float","float","float","float","float","float","float","float","float","float","float","float","float","float","float","float","float","float","float","float","float","float","float","float","float","float","float","float","float","float","float","float","float","float","float","float","float","float","float","float","float","float","float","float","float"],"gradient_booster":{"model":{"cats":{"enc":[],"feature_segments":[],"sorted_idx":[]},"gbtree_model_param":{"num_parallel_tree":"1","num_trees":"500"},"iteration_indptr":[0,1,2,3,4,5,6,7,8,9,10,11,12,13,14,15,16,17,18,19,20,21,22,23,24,25,26,27,28,29,30,31,32,33,34,35,36,37,38,39,40,41,42,43,44,45,46,47,48,49,50,51,52,53,54,55,56,57,58,59,60,61,62,63,64,65,66,67,68,69,70,71,72,73,74,75,76,77,78,79,80,81,82,83,84,85,86,87,88,89,90,91,92,93,94,95,96,97,98,99,100,101,102,103,104,105,106,107,108,109,110,111,112,113,114,115,116,117,118,119,120,121,122,123,124,125,126,127,128,129,130,131,132,133,134,135,136,137,138,139,140,141,142,143,144,145,146,147,148,149,150,151,152,153,154,155,156,157,158,159,160,161,162,163,164,165,166,167,168,169,170,171,172,173,174,175,176,177,178,179,180,181,182,183,184,185,186,187,188,189,190,191,192,193,194,195,196,197,198,199,200,201,202,203,204,205,206,207,208,209,210,211,212,213,214,215,216,217,218,219,220,221,222,223,224,225,226,227,228,229,230,231,232,233,234,235,236,237,238,239,240,241,242,243,244,245,246,247,248,249,250,251,252,253,254,255,256,257,258,259,260,261,262,263,264,265,266,267,268,269,270,271,272,273,274,275,276,277,278,279,280,281,282,283,284,285,286,287,288,289,290,291,292,293,294,295,296,297,298,299,300,301,302,303,304,305,306,307,308,309,310,311,312,313,314,315,316,317,318,319,320,321,322,323,324,325,326,327,328,329,330,331,332,333,334,335,336,337,338,339,340,341,342,343,344,345,346,347,348,349,350,351,352,353,354,355,356,357,358,359,360,361,362,363,364,365,366,367,368,369,370,371,372,373,374,375,376,377,378,379,380,381,382,383,384,385,386,387,388,389,390,391,392,393,394,395,396,397,398,399,400,401,402,403,404,405,406,407,408,409,410,411,412,413,414,415,416,417,418,419,420,421,422,423,424,425,426,427,428,429,430,431,432,433,434,435,436,437,438,439,440,441,442,443,444,445,446,447,448,449,450,451,452,453,454,455,456,457,458,459,460,461,462,463,464,465,466,467,468,469,470,471,472,473,474,475,476,477,478,479,480,481,482,483,484,485,486,487,488,489,490,491,492,493,494,495,496,497,498,499,500],"tree_info":[0,0,0,0,0,0,0,0,0,0,0,0,0,0,0,0,0,0,0,0,0,0,0,0,0,0,0,0,0,0,0,0,0,0,0,0,0,0,0,0,0,0,0,0,0,0,0,0,0,0,0,0,0,0,0,0,0,0,0,0,0,0,0,0,0,0,0,0,0,0,0,0,0,0,0,0,0,0,0,0,0,0,0,0,0,0,0,0,0,0,0,0,0,0,0,0,0,0,0,0,0,0,0,0,0,0,0,0,0,0,0,0,0,0,0,0,0,0,0,0,0,0,0,0,0,0,0,0,0,0,0,0,0,0,0,0,0,0,0,0,0,0,0,0,0,0,0,0,0,0,0,0,0,0,0,0,0,0,0,0,0,0,0,0,0,0,0,0,0,0,0,0,0,0,0,0,0,0,0,0,0,0,0,0,0,0,0,0,0,0,0,0,0,0,0,0,0,0,0,0,0,0,0,0,0,0,0,0,0,0,0,0,0,0,0,0,0,0,0,0,0,0,0,0,0,0,0,0,0,0,0,0,0,0,0,0,0,0,0,0,0,0,0,0,0,0,0,0,0,0,0,0,0,0,0,0,0,0,0,0,0,0,0,0,0,0,0,0,0,0,0,0,0,0,0,0,0,0,0,0,0,0,0,0,0,0,0,0,0,0,0,0,0,0,0,0,0,0,0,0,0,0,0,0,0,0,0,0,0,0,0,0,0,0,0,0,0,0,0,0,0,0,0,0,0,0,0,0,0,0,0,0,0,0,0,0,0,0,0,0,0,0,0,0,0,0,0,0,0,0,0,0,0,0,0,0,0,0,0,0,0,0,0,0,0,0,0,0,0,0,0,0,0,0,0,0,0,0,0,0,0,0,0,0,0,0,0,0,0,0,0,0,0,0,0,0,0,0,0,0,0,0,0,0,0,0,0,0,0,0,0,0,0,0,0,0,0,0,0,0,0,0,0,0,0,0,0,0,0,0,0,0,0,0,0,0,0,0,0,0,0,0,0,0,0,0,0,0,0,0,0,0,0,0,0,0,0,0,0,0,0,0,0,0,0,0,0,0,0,0,0,0,0,0,0,0,0,0,0,0,0,0,0,0,0,0,0,0,0,0,0,0,0,0,0,0,0,0,0,0],"trees":[{"base_weights":[-2.9299134E-2,-6.2220377E-1,9.5812656E-2,-1.0024521E0,2.4929129E-1,-3.6373442E-1,2.6728478E-1,-1.7895098E0,-5.205705E-1,-5.7573557E-1,8.0267394E-1,-7.587267E-1,4.6503058E-1,-3.0534193E-1,3.8230202E-1,-2.749128E-2,-5.806087E-3,6.794244E-1,-8.871158E-1,2.5804217E-3,-1.39835235E-2,1.3613773E-2,3.3570055E-3,-2.0616012E0,-4.309734E-1,-1.6696962E-2,7.2138226E-1,2.4381588E-1,-1.1059905E0,6.2501526E-1,1.501498E-1,1.46956965E-2,9.177065E-5,-1.587484E-2,6.028663E-3,-1.6144656E-2,-3.063658E-2,-9.658086E-3,4.915325E-3,-1.0283662E-2,1.2188602E-2,8.007487E-3,-9.429856E-3,-2.5373075E-2,-3.4110423E-3,1.1464032E-2,3.997078E-3,-5.4583107E-3,4.8697656E-3],"categories":[],"categories_nodes":[],"categories_segments":[],"categories_sizes":[],"default_left":[0,0,0,0,0,0,0,0,0,0,0,0,0,0,0,0,0,0,0,0,0,0,0,0,0,0,0,0,0,0,0,0,0,0,0,0,0,0,0,0,0,0,0,0,0,0,0,0,0],"id":0,"left_children":[1,3,5,7,9,11,13,15,17,19,21,23,25,27,29,-1,-1,31,33,-1,-1,-1,-1,35,37,-1,39,41,43,45,47,-1,-1,-1,-1,-1,-1,-1,-1,-1,-1,-1,-1,-1,-1,-1,-1,-1,-1],"loss_changes":[9.93849E1,7.802666E1,8.740756E1,5.940619E1,3.4390945E1,9.9597534E1,5.3455227E1,2.6371048E1,4.7520565E1,1.2859388E1,5.493555E0,8.52754E1,4.7027725E1,6.0637054E1,3.765738E1,0E0,0E0,8.0100355E0,4.0275364E1,0E0,0E0,0E0,0E0,3.0728912E0,4.464901E1,0E0,3.264141E1,3.2015045E1,3.960264E1,2.693715E1,4.641073E1,0E0,0E0,0E0,0E0,0E0,0E0,0E0,0E0,0E0,0E0,0E0,0E0,0E0,0E0,0E0,0E0,0E0,0E0],"parents":[2147483647,0,0,1,1,2,2,3,3,4,4,5,5,6,6,7,7,8,8,9,9,10,10,11,11,12,12,13,13,14,14,17,17,18,18,23,23,24,24,26,26,27,27,28,28,29,29,30,30],"right_children":[2,4,6,8,10,12,14,16,18,20,22,24,26,28,30,-1,-1,32,34,-1,-1,-1,-1,36,38,-1,40,42,44,46,48,-1,-1,-1,-1,-1,-1,-1,-1,-1,-1,-1,-1,-1,-1,-1,-1,-1,-1],"split_conditions":[-7.634595E-1,1.523574E2,-5.4012847E-1,1.868E0,3.1508842E0,5.5E-1,2.3809524E-1,1.471453E0,1.284E1,-3.380001E0,3.3378825E-1,3.3687136E-1,1.9727172E-1,2.232314E-1,1.0701334E1,-2.749128E-2,-5.806087E-3,1.2937444E2,1.3090829E1,2.5804217E-3,-1.39835235E-2,1.3613773E-2,3.3570055E-3,-1.0603098E0,8.339921E1,-1.6696962E-2,-5.4889297E0,1.703E1,1.2118721E1,1.74E0,5.3359684E1,1.46956965E-2,9.177065E-5,-1.587484E-2,6.028663E-3,-1.6144656E-2,-3.063658E-2,-9.658086E-3,4.915325E-3,-1.0283662E-2,1.2188602E-2,8.007487E-3,-9.429856E-3,-2.5373075E-2,-3.4110423E-3,1.1464032E-2,3.997078E-3,-5.4583107E-3,4.8697656E-3],"split_indices":[17,41,47,31,33,34,38,45,0,48,47,14,21,21,30,0,0,40,33,0,0,0,0,10,49,0,27,0,37,31,20,0,0,0,0,0,0,0,0,0,0,0,0,0,0,0,0,0,0],"split_type":[0,0,0,0,0,0,0,0,0,0,0,0,0,0,0,0,0,0,0,0,0,0,0,0,0,0,0,0,0,0,0,0,0,0,0,0,0,0,0,0,0,0,0,0,0,0,0,0,0],"sum_hessian":[1.334871E3,2.3100418E2,1.1038667E3,1.6063266E2,7.037153E1,2.9910385E2,8.047629E2,5.8424282E1,1.02208374E2,2.8159767E1,4.221176E1,2.0276086E2,9.6342995E1,1.3382541E2,6.709375E2,4.493248E1,1.3491802E1,2.3380821E1,7.882755E1,1.1767794E1,1.6391973E1,2.6835012E1,1.5376748E1,3.811074E1,1.6465012E2,1.0901159E1,8.544183E1,8.033484E1,5.3490574E1,3.2583347E2,3.45104E2,1.2711809E1,1.0669013E1,6.2822487E1,1.6005062E1,1.4587497E1,2.3523243E1,1.1812679E2,4.6523327E1,1.03533125E1,7.508852E1,5.8529438E1,2.1805405E1,2.4544641E1,2.8945932E1,1.7253647E2,1.5329701E2,9.773895E1,2.4736507E2],"tree_param":{"num_deleted":"0","num_feature":"51","num_nodes":"49","size_leaf_vector":"1"}},{"base_weights":[-1.1795521E-2,4.2989883E-1,-2.1202144E-1,-4.1964766E-1,6.2533975E-1,-3.6696002E-1,4.0601683E-1,3.5556108E-1,-1.3587728E0,7.193909E-1,-2.7843317E-1,-7.8556037E-1,-1.3705108E-1,5.6085575E-1,-1.576005E-2,7.308848E-1,-9.81692E-3,-2.7144026E-2,1.5089341E-3,-5.222485E-2,7.918067E-1,8.465978E-3,-1.6397031E-2,-9.154163E-1,9.108939E-3,7.5513136E-1,-2.67796E-1,-1.423335E-2,7.145487E-1,1.3385232E-2,1.3902346E-3,1.3249457E-2,-1.1970397E-2,1.32698E-2,7.1702553E-3,-1.4128257E-2,5.0255945E-3,1.4397534E-2,-2.7212182E-3,-6.879465E-3,3.6047904E-3,-1.3179149E-3,1.2514142E-2],"categories":[],"categories_nodes":[],"categories_segments":[],"categories_sizes":[],"default_left":[0,0,0,0,0,0,0,0,0,0,0,0,0,0,0,0,0,0,0,0,0,0,0,0,0,0,0,0,0,0,0,0,0,0,0,0,0,0,0,0,0,0,0],"id":1,"left_children":[1,3,5,7,9,11,13,15,17,19,21,23,25,27,-1,29,-1,-1,-1,31,33,-1,-1,35,-1,37,39,-1,41,-1,-1,-1,-1,-1,-1,-1,-1,-1,-1,-1,-1,-1,-1],"loss_changes":[1.1872036E2,7.017298E1,8.8824844E1,5.927594E1,2.9543259E1,7.089035E1,4.881064E1,2.0543444E1,4.177526E1,1.7476395E1,3.395248E1,5.2461304E1,5.65374E1,4.606171E1,0E0,6.5556126E0,0E0,0E0,0E0,2.9943254E1,1.4523239E1,0E0,0E0,6.0277847E1,0E0,2.2748425E1,6.260141E1,0E0,3.433435E1,0E0,0E0,0E0,0E0,0E0,0E0,0E0,0E0,0E0,0E0,0E0,0E0,0E0,0E0],"parents":[2147483647,0,0,1,1,2,2,3,3,4,4,5,5,6,6,7,7,8,8,9,9,10,10,11,11,12,12,13,13,15,15,19,19,20,20,23,23,25,25,26,26,28,28],"right_children":[2,4,6,8,10,12,14,16,18,20,22,24,26,28,-1,30,-1,-1,-1,32,34,-1,-1,36,-1,38,40,-1,42,-1,-1,-1,-1,-1,-1,-1,-1,-1,-1,-1,-1,-1,-1],"split_conditions":[9.507281E0,2.936508E-1,6.6E-1,2.107437E-1,1.3394167E2,-1.2599983E0,1.6475291E0,6.164303E-1,3.8735176E1,-7.3629516E-1,-1.2758794E1,6.411946E0,-6.8171024E-1,9.613665E1,-1.576005E-2,4.515557E-1,-9.81692E-3,-2.7144026E-2,1.5089341E-3,4.8775325E0,1.732E0,8.465978E-3,-1.6397031E-2,2.71E0,9.108939E-3,1.40879E0,1.17116104E2,-1.423335E-2,-8.252717E-1,1.3385232E-2,1.3902346E-3,1.3249457E-2,-1.1970397E-2,1.32698E-2,7.1702553E-3,-1.4128257E-2,5.0255945E-3,1.4397534E-2,-2.7212182E-3,-6.879465E-3,3.6047904E-3,-1.3179149E-3,1.2514142E-2],"split_indices":[15,38,34,21,41,44,45,18,20,17,6,27,22,24,0,17,0,0,0,42,31,0,0,50,0,45,24,0,17,0,0,0,0,0,0,0,0,0,0,0,0,0,0],"split_type":[0,0,0,0,0,0,0,0,0,0,0,0,0,0,0,0,0,0,0,0,0,0,0,0,0,0,0,0,0,0,0,0,0,0,0,0,0,0,0,0,0,0,0],"sum_hessian":[1.3376162E3,4.162384E2,9.213778E2,7.725435E1,3.3898407E2,7.375805E2,1.8379732E2,4.3110744E1,3.4143604E1,3.0755667E2,3.1427395E1,2.592805E2,4.7830002E2,1.6941208E2,1.4385242E1,3.2987804E1,1.0122942E1,2.1878592E1,1.2265012E1,2.6360723E1,2.8119595E2,1.6607813E1,1.4819581E1,2.3949405E2,1.978643E1,5.95709E1,4.187291E2,1.2944172E1,1.564679E2,2.0756306E1,1.2231496E1,1.15868635E1,1.477386E1,1.3296489E2,1.4823106E2,2.0990726E2,2.9586802E1,4.29133E1,1.6657602E1,2.8116135E2,1.3756775E2,3.8267925E1,1.18199974E2],"tree_param":{"num_deleted":"0","num_feature":"51","num_nodes":"43","size_leaf_vector":"1"}},{"base_weights":[1.6790723E-2,-5.79752E-1,1.4465001E-1,-9.500344E-1,2.77763E-1,2.2415772E-1,-5.5533737E-1,-1.2010354E0,6.364014E-1,-3.953326E-1,1.0413245E0,7.019301E-2,4.7094655E-1,-8.961632E-1,1.2444246E-2,-1.8915365E0,-6.147078E-1,2.0679398E-3,1.3526346E-2,1.8028453E-1,-2.157761E-2,1.54793E-2,6.5157185E-3,-7.803673E-1,1.5280639E-1,5.396486E-1,-1.117433E-2,-1.3646324E0,2.5423884E-1,-1.2448254E-2,-2.836805E-2,2.583601E-3,-1.7827127E-2,9.934786E-3,-1.0069673E-2,-2.9397253E-2,5.67365E-4,7.858456E-3,2.575074E-4,-4.2305584E-3,7.931717E-3,7.2200235E-4,-2.0831179E-2,1.191242E-2,-1.0286621E-2],"categories":[],"categories_nodes":[],"categories_segments":[],"categories_sizes":[],"default_left":[0,0,0,0,0,0,0,0,0,0,0,0,0,0,0,0,0,0,0,0,0,0,0,0,0,0,0,0,0,0,0,0,0,0,0,0,0,0,0,0,0,0,0,0,0],"id":2,"left_children":[1,3,5,7,9,11,13,15,17,19,21,23,25,27,-1,29,31,-1,-1,33,-1,-1,-1,35,37,39,-1,41,43,-1,-1,-1,-1,-1,-1,-1,-1,-1,-1,-1,-1,-1,-1,-1,-1],"loss_changes":[1.037332E2,7.6909805E1,6.2621723E1,6.890834E1,3.9200024E1,3.8170654E1,6.1878445E1,5.614984E1,4.382001E0,3.1383694E1,1.5254631E0,4.406699E1,3.678955E1,5.2238632E1,0E0,1.4038879E1,5.3195854E1,0E0,0E0,1.9090897E1,0E0,0E0,0E0,6.972228E1,3.4784832E1,2.5984535E1,0E0,2.5574684E1,2.2937365E1,0E0,0E0,0E0,0E0,0E0,0E0,0E0,0E0,0E0,0E0,0E0,0E0,0E0,0E0,0E0,0E0],"parents":[2147483647,0,0,1,1,2,2,3,3,4,4,5,5,6,6,7,7,8,8,9,9,10,10,11,11,12,12,13,13,15,15,16,16,19,19,23,23,24,24,25,25,27,27,28,28],"right_children":[2,4,6,8,10,12,14,16,18,20,22,24,26,28,-1,30,32,-1,-1,34,-1,-1,-1,36,38,40,-1,42,44,-1,-1,-1,-1,-1,-1,-1,-1,-1,-1,-1,-1,-1,-1,-1,-1],"split_conditions":[-7.634595E-1,1.5332823E2,2.1799215E1,8.8E-1,6.731816E0,7.2332016E1,6.411946E0,1.998302E2,3.7E-1,2.4855638E-1,2.7632353E0,1.2427856E-1,3.4403088E1,3.5235302E1,1.2444246E-2,1.9710568E-1,1.6789833E0,2.0679398E-3,1.3526346E-2,-1.2E-1,-2.157761E-2,1.54793E-2,6.5157185E-3,5.9699306E0,1.151453E0,1.1904762E-1,-1.117433E-2,-5.9760386E-1,2.7819698E1,-1.2448254E-2,-2.836805E-2,2.583601E-3,-1.7827127E-2,9.934786E-3,-1.0069673E-2,-2.9397253E-2,5.67365E-4,7.858456E-3,2.575074E-4,-4.2305584E-3,7.931717E-3,7.2200235E-4,-2.0831179E-2,1.191242E-2,-1.0286621E-2],"split_indices":[17,41,37,34,33,16,27,26,19,22,2,21,6,30,0,23,2,0,0,19,0,0,0,28,45,38,0,17,37,0,0,0,0,0,0,0,0,0,0,0,0,0,0,0,0],"split_type":[0,0,0,0,0,0,0,0,0,0,0,0,0,0,0,0,0,0,0,0,0,0,0,0,0,0,0,0,0,0,0,0,0,0,0,0,0,0,0,0,0,0,0,0,0],"sum_hessian":[1.3552936E3,2.3758905E2,1.1177046E3,1.6581078E2,7.177828E1,1.00528467E3,1.12419876E2,1.437124E2,2.2098375E1,3.8725574E1,3.3052708E1,6.211799E2,3.8410477E2,9.276342E1,1.9656458E1,6.3437954E1,8.0274445E1,1.2025507E1,1.0072867E1,2.8181774E1,1.0543801E1,2.2719727E1,1.033298E1,5.3087433E1,5.6809247E2,3.668528E2,1.7251942E1,6.564049E1,2.712293E1,1.9050945E1,4.438701E1,3.9967888E1,4.0306557E1,1.7785738E1,1.0396036E1,1.721749E1,3.5869946E1,1.250114E2,4.4308105E2,2.992261E1,3.369302E2,1.0435699E1,5.520479E1,1.6770449E1,1.0352483E1],"tree_param":{"num_deleted":"0","num_feature":"51","num_nodes":"45","size_leaf_vector":"1"}},{"base_weights":[1.2285971E-2,-3.7678516E-1,1.6549729E-1,-8.830696E-1,-6.480649E-2,-1.0089215E0,2.4733046E-1,-1.1142888E0,8.359E-3,-1.447283E0,1.6363634E-1,-1.551197E0,1.6274503E-1,5.1011586E-1,7.792716E-2,-1.3684398E0,1.0517124E-2,-6.9209053E-3,-2.861005E-2,2.7765906E-1,-2.1194644E-2,-1.3536534E-3,-2.038376E0,-3.7169068E-3,7.515017E-3,5.8398485E-1,-1.7706022E-2,3.3278573E-1,-1.4689198E-1,-1.106079E-2,-2.6709508E-2,-6.270819E-3,6.8106344E-3,-2.9345086E-2,-1.495699E-2,-5.0162757E-3,8.717897E-3,-1.1367599E-2,6.1820047E-3,-1.6469365E-2,1.0654507E-3],"categories":[],"categories_nodes":[],"categories_segments":[],"categories_sizes":[],"default_left":[0,0,0,0,0,0,0,0,0,0,0,0,0,0,0,0,0,0,0,0,0,0,0,0,0,0,0,0,0,0,0,0,0,0,0,0,0,0,0,0,0],"id":3,"left_children":[1,3,5,7,9,11,13,15,-1,17,19,21,23,25,27,29,-1,-1,-1,31,-1,-1,33,-1,-1,35,-1,37,39,-1,-1,-1,-1,-1,-1,-1,-1,-1,-1,-1,-1],"loss_changes":[8.212576E1,6.126742E1,9.5570724E1,5.4389954E1,7.758629E1,4.1905052E1,4.1094875E1,6.655301E1,0E0,2.1664047E1,4.478294E1,3.072123E1,4.788002E0,5.2565712E1,3.257767E1,3.7189667E1,0E0,0E0,0E0,3.972911E1,0E0,0E0,4.8635864E-1,0E0,0E0,3.3599785E1,0E0,4.9614365E1,7.952661E1,0E0,0E0,0E0,0E0,0E0,0E0,0E0,0E0,0E0,0E0,0E0,0E0],"parents":[2147483647,0,0,1,1,2,2,3,3,4,4,5,5,6,6,7,7,9,9,10,10,11,11,12,12,13,13,14,14,15,15,19,19,22,22,25,25,27,27,28,28],"right_children":[2,4,6,8,10,12,14,16,-1,18,20,22,24,26,28,30,-1,-1,-1,32,-1,-1,34,-1,-1,36,-1,38,40,-1,-1,-1,-1,-1,-1,-1,-1,-1,-1,-1,-1],"split_conditions":[-5.460876E-1,1.3438735E1,-1.3234851E0,8.90625E1,-1.0003017E0,1.6346651E1,-2.902984E0,2.1453072E2,8.359E-3,2.173913E1,4.542E0,5.7866627E-1,7.374606E0,9.3213594E-1,2.1894173E-1,3.6715636E-1,1.0517124E-2,-6.9209053E-3,-2.861005E-2,1.12E0,-2.1194644E-2,-1.3536534E-3,4.4166666E-2,-3.7169068E-3,7.515017E-3,1.168E0,-1.7706022E-2,1.1600525E0,2.6668817E-1,-1.106079E-2,-2.6709508E-2,-6.270819E-3,6.8106344E-3,-2.9345086E-2,-1.495699E-2,-5.0162757E-3,8.717897E-3,-1.1367599E-2,6.1820047E-3,-1.6469365E-2,1.0654507E-3],"split_indices":[47,49,17,32,2,30,33,25,0,43,31,3,11,21,21,22,0,0,0,31,0,0,39,0,0,31,0,45,21,0,0,0,0,0,0,0,0,0,0,0,0],"split_type":[0,0,0,0,0,0,0,0,0,0,0,0,0,0,0,0,0,0,0,0,0,0,0,0,0,0,0,0,0,0,0,0,0,0,0,0,0,0,0,0,0],"sum_hessian":[1.3729685E3,3.8676462E2,9.862039E2,1.456671E2,2.4109752E2,6.2380417E1,9.238235E2,1.2722468E2,1.8442413E1,3.2384678E1,2.0871284E2,4.214447E1,2.0235949E1,3.6001337E2,5.638101E2,1.1311979E2,1.4104889E1,1.698194E1,1.5402739E1,1.9837834E2,1.0334494E1,1.1410329E1,3.073414E1,1.0072411E1,1.0163539E1,3.4814716E2,1.1866219E1,2.6385086E2,2.9995926E2,6.9525795E1,4.3593994E1,4.8686756E1,1.4969159E2,2.0696817E1,1.0037324E1,3.0539171E1,3.1760797E2,2.7456022E1,2.3639485E2,4.8595818E1,2.5136345E2],"tree_param":{"num_deleted":"0","num_feature":"51","num_nodes":"41","size_leaf_vector":"1"}},{"base_weights":[5.231571E-3,-1.655103E-1,3.0356225E-1,-4.204622E-2,-8.598033E-1,5.460122E-1,-1.9250828E-1,3.3101302E-1,-3.1907687E-1,1.2945799E-2,-1.2089217E0,3.490501E-1,1.0602505E0,8.455284E-1,-4.0954322E-1,6.0331714E-1,-9.69804E-2,-6.936432E-1,1.3419984E-1,5.9726294E-3,-1.4312425E0,8.916105E-1,1.8537602E-1,1.1884449E0,5.852545E-4,1.1996119E-3,1.5766542E-2,2.5949225E-1,-1.3407024E0,-4.6089715E-3,9.882903E-3,8.242436E-3,-7.7407686E-3,5.4432843E-3,-1.1317556E-2,7.3538735E-3,-3.0542947E-3,-2.674349E-3,-2.092849E-2,-1.924568E-3,1.5958294E-2,9.4604376E-4,1.667122E-2,1.6389113E-2,9.691315E-3,9.019627E-3,-4.1683572E-3,-2.8549658E-2,-1.1717919E-2],"categories":[],"categories_nodes":[],"categories_segments":[],"categories_sizes":[],"default_left":[0,0,0,0,0,0,0,0,0,0,0,0,0,0,0,0,0,0,0,0,0,0,0,0,0,0,0,0,0,0,0,0,0,0,0,0,0,0,0,0,0,0,0,0,0,0,0,0,0],"id":4,"left_children":[1,3,5,7,9,11,13,15,17,-1,19,21,23,25,27,29,31,33,35,-1,37,39,41,43,-1,-1,-1,45,47,-1,-1,-1,-1,-1,-1,-1,-1,-1,-1,-1,-1,-1,-1,-1,-1,-1,-1,-1,-1],"loss_changes":[6.947989E1,7.419095E1,6.0006027E1,7.663279E1,8.83459E1,3.2851852E1,3.7927185E1,3.70088E1,7.250006E1,0E0,4.3149246E1,2.1315306E1,1.1650185E1,8.078615E0,8.686712E1,3.1998367E1,4.7813835E1,5.041828E1,3.2206337E1,0E0,2.3440216E1,2.1219868E1,2.3528374E1,6.498642E-1,0E0,0E0,0E0,2.196408E1,1.6772636E1,0E0,0E0,0E0,0E0,0E0,0E0,0E0,0E0,0E0,0E0,0E0,0E0,0E0,0E0,0E0,0E0,0E0,0E0,0E0,0E0],"parents":[2147483647,0,0,1,1,2,2,3,3,4,4,5,5,6,6,7,7,8,8,10,10,11,11,12,12,13,13,14,14,15,15,16,16,17,17,18,18,20,20,21,21,22,22,23,23,27,27,28,28],"right_children":[2,4,6,8,10,12,14,16,18,-1,20,22,24,26,28,30,32,34,36,-1,38,40,42,44,-1,-1,-1,46,48,-1,-1,-1,-1,-1,-1,-1,-1,-1,-1,-1,-1,-1,-1,-1,-1,-1,-1,-1,-1],"split_conditions":[7.2332016E1,8.52863E-1,7.3517784E1,1.0701334E1,9.03832E1,5.8943133E0,9.30426E1,4.3159384E-1,8.069666E0,1.2945799E-2,-7.5029E-1,-1.6864363E1,3.968879E-1,7.914687E-2,1E-1,9.090909E0,0E0,-6.906898E-1,-1.2011868E0,5.9726294E-3,-1.1360531E1,1.1E1,6.6E1,1.133441E2,5.852545E-4,1.1996119E-3,1.5766542E-2,1.05561485E2,4.8775325E0,-4.6089715E-3,9.882903E-3,8.242436E-3,-7.7407686E-3,5.4432843E-3,-1.1317556E-2,7.3538735E-3,-3.0542947E-3,-2.674349E-3,-2.092849E-2,-1.924568E-3,1.5958294E-2,9.4604376E-4,1.667122E-2,1.6389113E-2,9.691315E-3,9.019627E-3,-4.1683572E-3,-2.8549658E-2,-1.1717919E-2],"split_indices":[16,18,43,30,36,28,36,23,6,0,22,6,22,17,34,16,34,22,10,0,33,29,29,36,0,0,0,25,42,0,0,0,0,0,0,0,0,0,0,0,0,0,0,0,0,0,0,0,0],"split_type":[0,0,0,0,0,0,0,0,0,0,0,0,0,0,0,0,0,0,0,0,0,0,0,0,0,0,0,0,0,0,0,0,0,0,0,0,0,0,0,0,0,0,0,0,0,0,0,0,0],"sum_hessian":[1.3589696E3,8.648449E2,4.941247E2,7.3656116E2,1.2828378E2,3.3184E2,1.6228471E2,3.1356586E2,4.229953E2,1.942131E1,1.08862465E2,2.4300818E2,8.883181E1,2.6781588E1,1.3550313E2,1.911295E2,1.22436356E2,2.3098375E2,1.9201155E2,1.2404192E1,9.6458275E1,5.3696575E1,1.8931161E2,7.843182E1,1.0399983E1,1.0157777E1,1.662381E1,7.983097E1,5.5672153E1,2.7893526E1,1.6323598E2,4.945162E1,7.298473E1,3.297017E1,1.9801358E2,8.7556145E1,1.044554E2,1.4423862E1,8.203442E1,1.3913173E1,3.97834E1,1.7452939E2,1.4782224E1,6.0763096E1,1.7668726E1,4.514959E1,3.4681377E1,1.4662909E1,4.1009247E1],"tree_param":{"num_deleted":"0","num_feature":"51","num_nodes":"49","size_leaf_vector":"1"}},{"base_weights":[-6.5793307E-3,-6.6915774E-1,1.24095045E-1,-2.2464158E-1,-1.0694818E0,-1.4364452E0,1.7162019E-1,6.074885E-1,-6.872808E-1,-1.2675593E0,7.2887605E-3,-2.4005938E-2,-3.944356E-3,-4.2335358E-1,2.78118E-1,1.4098063E-2,5.8811373E-4,-2.3597172E-2,-8.958684E-2,-1.5827956E0,-1.06489465E-1,-9.601104E-1,8.8618614E-2,-9.5092946E-1,3.235426E-1,-7.168167E-3,7.647844E-3,-2.5075076E-2,-7.2323275E-3,-1.0951019E-2,8.023987E-3,1.5891921E-3,-1.7517755E-2,4.6991794E-3,-1.1522137E-2,-2.058029E-2,4.4099907E-3,-1.9120857E-3,5.6242314E-3],"categories":[],"categories_nodes":[],"categories_segments":[],"categories_sizes":[],"default_left":[0,0,0,0,0,0,0,0,0,0,0,0,0,0,0,0,0,0,0,0,0,0,0,0,0,0,0,0,0,0,0,0,0,0,0,0,0,0,0],"id":5,"left_children":[1,3,5,7,9,11,13,15,17,19,-1,-1,-1,21,23,-1,-1,-1,25,27,29,31,33,35,37,-1,-1,-1,-1,-1,-1,-1,-1,-1,-1,-1,-1,-1,-1],"loss_changes":[1.1866571E2,3.9498405E1,8.538722E1,4.343887E1,4.012436E1,1.5213501E1,7.078971E1,1.102784E1,4.912551E1,3.830916E1,0E0,0E0,0E0,4.6937057E1,5.3490654E1,0E0,0E0,0E0,1.6950453E1,2.8812134E1,1.5206571E1,3.7189384E1,2.523469E1,3.0504337E1,4.9992447E1,0E0,0E0,0E0,0E0,0E0,0E0,0E0,0E0,0E0,0E0,0E0,0E0,0E0,0E0],"parents":[2147483647,0,0,1,1,2,2,3,3,4,4,5,5,6,6,7,7,8,8,9,9,13,13,14,14,18,18,19,19,20,20,21,21,22,22,23,23,24,24],"right_children":[2,4,6,8,10,12,14,16,18,20,-1,-1,-1,22,24,-1,-1,-1,26,28,30,32,34,36,38,-1,-1,-1,-1,-1,-1,-1,-1,-1,-1,-1,-1,-1,-1],"split_conditions":[-7.8014684E-1,7.772301E-1,3.952569E-1,-2.1586828E1,6.103954E2,9.4071144E1,2.3015873E-1,1.3241592E1,4.7826088E1,2.5141289E1,7.2887605E-3,-2.4005938E-2,-3.944356E-3,7.035573E1,-5.761595E0,1.4098063E-2,5.8811373E-4,-2.3597172E-2,8.6E-1,1.9E1,-4.5336127E0,-2.5446074E1,2.440666E0,3.1153467E2,-3.5E-1,-7.168167E-3,7.647844E-3,-2.5075076E-2,-7.2323275E-3,-1.0951019E-2,8.023987E-3,1.5891921E-3,-1.7517755E-2,4.6991794E-3,-1.1522137E-2,-2.058029E-2,4.4099907E-3,-1.9120857E-3,5.6242314E-3],"split_indices":[17,18,49,46,26,20,38,15,20,15,0,0,0,16,27,0,0,0,34,29,28,11,27,25,19,0,0,0,0,0,0,0,0,0,0,0,0,0,0],"split_type":[0,0,0,0,0,0,0,0,0,0,0,0,0,0,0,0,0,0,0,0,0,0,0,0,0,0,0,0,0,0,0,0,0,0,0,0,0,0,0],"sum_hessian":[1.3653152E3,2.233427E2,1.1419725E3,1.0772389E2,1.15618805E2,3.1593618E1,1.1103789E3,3.8162098E1,6.95618E1,1.0368012E2,1.1938678E1,2.1569649E1,1.002397E1,1.6737128E2,9.4300757E2,1.9012512E1,1.9149586E1,2.1957596E1,4.76042E1,8.0794044E1,2.2886076E1,8.073185E1,8.663943E1,3.1816961E1,9.111906E2,2.859244E1,1.901176E1,5.7400158E1,2.339389E1,1.1171196E1,1.171488E1,2.2444563E1,5.828729E1,6.8862885E1,1.7776543E1,2.0777315E1,1.1039648E1,1.7842938E2,7.327612E2],"tree_param":{"num_deleted":"0","num_feature":"51","num_nodes":"39","size_leaf_vector":"1"}},{"base_weights":[-1.12893805E-2,-6.758668E-1,1.4115553E-1,-9.6215755E-1,7.318363E-2,-5.9686296E-2,4.7678736E-1,-1.1264715E0,5.887346E-3,-6.195686E-1,6.039339E-1,-6.5946215E-1,1.6282028E-1,-5.454304E-1,5.472717E-1,-1.6260811E0,-5.896445E-1,7.7304505E-3,-1.6082192E-2,8.5564137E-1,-8.983111E-4,-1.5390396E0,-3.314934E-1,-5.5656475E-1,2.7669984E-1,-1.6325826E-2,1.1586741E-3,8.444273E-1,1.8339397E-1,-6.8658255E-3,-2.4311315E-2,-2.2420894E-2,-4.051536E-3,1.4870514E-2,2.207054E-3,-3.308473E-3,-2.4880009E-2,3.4109133E-3,-9.29808E-3,6.251145E-3,-1.9119108E-2,5.292937E-3,-1.9344941E-3,8.840164E-3,1.77506E-2,-9.623199E-3,5.0274758E-3],"categories":[],"categories_nodes":[],"categories_segments":[],"categories_sizes":[],"default_left":[0,0,0,0,0,0,0,0,0,0,0,0,0,0,0,0,0,0,0,0,0,0,0,0,0,0,0,0,0,0,0,0,0,0,0,0,0,0,0,0,0,0,0,0,0,0,0],"id":6,"left_children":[1,3,5,7,9,11,13,15,-1,17,19,21,23,25,27,29,31,-1,-1,33,-1,35,37,39,41,-1,-1,43,45,-1,-1,-1,-1,-1,-1,-1,-1,-1,-1,-1,-1,-1,-1,-1,-1,-1,-1],"loss_changes":[1.3675055E2,5.4247597E1,7.409449E1,4.3933E1,2.733052E1,9.222E1,3.0368378E1,4.1564865E1,0E0,2.7003494E1,7.3250523E0,5.254969E1,4.1668495E1,1.3194679E1,4.1296646E1,2.2052856E1,2.4863764E1,0E0,0E0,5.8353806E0,0E0,2.4410599E1,3.332409E1,6.988064E1,2.5651524E1,0E0,0E0,1.5216446E1,3.5203327E1,0E0,0E0,0E0,0E0,0E0,0E0,0E0,0E0,0E0,0E0,0E0,0E0,0E0,0E0,0E0,0E0,0E0,0E0],"parents":[2147483647,0,0,1,1,2,2,3,3,4,4,5,5,6,6,7,7,9,9,10,10,11,11,12,12,13,13,14,14,15,15,16,16,19,19,21,21,22,22,23,23,24,24,27,27,28,28],"right_children":[2,4,6,8,10,12,14,16,-1,18,20,22,24,26,28,30,32,-1,-1,34,-1,36,38,40,42,-1,-1,44,46,-1,-1,-1,-1,-1,-1,-1,-1,-1,-1,-1,-1,-1,-1,-1,-1,-1,-1],"split_conditions":[-7.3629516E-1,1.523574E2,7.2332016E1,7.846266E-1,3.1508842E0,-5.4012847E-1,-4.1165495E0,1.2242651E0,5.887346E-3,1.4601591E0,1.0670009E0,4.2063493E-1,2.5396827E-1,8.063241E1,1.3038033E0,8.773855E-1,-1.5479683E0,7.7304505E-3,-1.6082192E-2,-5.4012847E-1,-8.983111E-4,8.695652E0,2.8458498E1,9.3502E1,3.8982722E-1,-1.6325826E-2,1.1586741E-3,9.5238096E-1,1.0052446E2,-6.8658255E-3,-2.4311315E-2,-2.2420894E-2,-4.051536E-3,1.4870514E-2,2.207054E-3,-3.308473E-3,-2.4880009E-2,3.4109133E-3,-9.29808E-3,6.251145E-3,-1.9119108E-2,5.292937E-3,-1.9344941E-3,8.840164E-3,1.77506E-2,-9.623199E-3,5.0274758E-3],"split_indices":[17,41,16,22,33,47,27,45,0,4,45,38,38,49,10,45,17,0,0,47,0,20,20,36,13,0,0,38,41,0,0,0,0,0,0,0,0,0,0,0,0,0,0,0,0,0,0],"split_type":[0,0,0,0,0,0,0,0,0,0,0,0,0,0,0,0,0,0,0,0,0,0,0,0,0,0,0,0,0,0,0,0,0,0,0,0,0,0,0,0,0,0,0,0,0,0,0],"sum_hessian":[1.3446761E3,2.4941957E2,1.0952565E3,1.8001685E2,6.9402725E1,6.863442E2,4.0891235E2,1.6186545E2,1.8151392E1,2.9870247E1,3.953248E1,1.8451059E2,5.018336E2,2.5248142E1,3.8366418E2,8.119994E1,8.0665504E1,1.0217024E1,1.9653223E1,2.8381811E1,1.1150667E1,4.7601265E1,1.3690933E2,6.7198616E1,4.3463498E2,1.0676062E1,1.4572081E1,2.0930858E2,1.7435562E2,1.766509E1,6.3534855E1,1.2823308E1,6.784219E1,1.8376297E1,1.0005515E1,1.2381538E1,3.5219727E1,5.4643345E1,8.226598E1,3.2265358E1,3.493326E1,3.2977014E2,1.0486484E2,1.6719507E2,4.2113514E1,3.0639174E1,1.4371645E2],"tree_param":{"num_deleted":"0","num_feature":"51","num_nodes":"47","size_leaf_vector":"1"}},{"base_weights":[5.0751157E-2,-1.2386091E-1,3.404496E-1,-9.043499E-1,2.8217537E-2,4.4641104E-1,-7.006595E-1,-1.4906424E0,9.769801E-3,-4.6864605E-1,1.9393273E-1,-7.955164E-2,5.730264E-1,-1.0577905E0,7.216182E-3,-4.9092607E-3,-1.7287952E0,-7.8993714E-1,5.9050035E-1,-6.0691977E-1,8.944394E-3,-8.146435E-1,2.6053214E-1,-4.209304E-1,1.0113695E0,7.025522E-1,4.4740323E-2,5.129499E-4,-1.4519298E0,-3.1716956E-3,-2.5178157E-2,7.1679424E-3,-2.2528706E-2,-6.885065E-4,1.6103998E-2,-1.0496072E-2,5.5807666E-3,4.2368695E-3,-2.8108243E-2,8.1307925E-3,3.1631923E-4,-1.00660855E-2,6.8704197E-3,7.289642E-3,1.584416E-2,9.982534E-3,-2.7807844E-3,-1.3410701E-2,6.8014064E-3,-2.772447E-2,-8.557107E-3],"categories":[],"categories_nodes":[],"categories_segments":[],"categories_sizes":[],"default_left":[0,0,0,0,0,0,0,0,0,0,0,0,0,0,0,0,0,0,0,0,0,0,0,0,0,0,0,0,0,0,0,0,0,0,0,0,0,0,0,0,0,0,0,0,0,0,0,0,0,0,0],"id":7,"left_children":[1,3,5,7,9,11,13,15,17,19,21,23,25,27,-1,-1,29,31,33,35,-1,37,39,41,43,45,47,-1,49,-1,-1,-1,-1,-1,-1,-1,-1,-1,-1,-1,-1,-1,-1,-1,-1,-1,-1,-1,-1,-1,-1],"loss_changes":[7.12418E1,1.04446625E2,5.9166553E1,7.703775E1,6.0956562E1,3.225921E1,2.3971283E1,2.1302414E1,2.8268919E1,3.0895718E1,3.7769253E1,3.659946E1,2.6490807E1,1.7433464E1,0E0,0E0,2.354831E1,3.5901737E1,1.5404204E1,3.780004E1,0E0,5.7033844E1,4.6010532E1,2.7069794E1,4.855652E-1,2.2385437E1,4.3388195E1,0E0,1.2637318E1,0E0,0E0,0E0,0E0,0E0,0E0,0E0,0E0,0E0,0E0,0E0,0E0,0E0,0E0,0E0,0E0,0E0,0E0,0E0,0E0,0E0,0E0],"parents":[2147483647,0,0,1,1,2,2,3,3,4,4,5,5,6,6,7,7,8,8,9,9,10,10,11,11,12,12,13,13,16,16,17,17,18,18,19,19,21,21,22,22,23,23,24,24,25,25,26,26,28,28],"right_children":[2,4,6,8,10,12,14,16,18,20,22,24,26,28,-1,-1,30,32,34,36,-1,38,40,42,44,46,48,-1,50,-1,-1,-1,-1,-1,-1,-1,-1,-1,-1,-1,-1,-1,-1,-1,-1,-1,-1,-1,-1,-1,-1],"split_conditions":[7.2332016E1,2.6190478E-1,3.084175E1,1.89E0,-6.2308407E-1,-7.634595E-1,7.6610214E-1,6.484702E0,2.881476E0,5.5E1,1.2587756E-1,8.75E1,1.3923157E2,8.339921E1,7.216182E-3,-4.9092607E-3,-2.1428668E0,2.0158102E1,2.201E1,1.482551E2,8.944394E-3,-5.6E-1,2.2530267E-1,-3.9649587E0,-6.943519E-1,6.8624586E-1,1.1E-1,5.129499E-4,6.4E-1,-3.1716956E-3,-2.5178157E-2,7.1679424E-3,-2.2528706E-2,-6.885065E-4,1.6103998E-2,-1.0496072E-2,5.5807666E-3,4.2368695E-3,-2.8108243E-2,8.1307925E-3,3.1631923E-4,-1.00660855E-2,6.8704197E-3,7.289642E-3,1.584416E-2,9.982534E-3,-2.7807844E-3,-1.3410701E-2,6.8014064E-3,-2.772447E-2,-8.557107E-3],"split_indices":[16,38,46,50,47,17,47,30,33,29,21,32,25,16,0,0,3,20,0,41,0,19,21,6,39,47,19,0,34,0,0,0,0,0,0,0,0,0,0,0,0,0,0,0,0,0,0,0,0,0,0],"split_type":[0,0,0,0,0,0,0,0,0,0,0,0,0,0,0,0,0,0,0,0,0,0,0,0,0,0,0,0,0,0,0,0,0,0,0,0,0,0,0,0,0,0,0,0,0,0,0,0,0,0,0],"sum_hessian":[1.403571E3,8.764517E2,5.2711926E2,1.4103241E2,7.354193E2,4.7975662E2,4.736265E1,8.503197E1,5.6000435E1,1.8270654E2,5.5271277E2,9.314993E1,3.866067E2,3.728229E1,1.008036E1,1.6230375E1,6.88016E1,2.313588E1,3.286456E1,1.6444942E2,1.825713E1,3.2468567E1,5.202442E2,7.214224E1,2.1007689E1,3.097251E2,7.6881584E1,1.0381097E1,2.6901194E1,1.0181851E1,5.8619743E1,1.00648575E1,1.3071021E1,1.7794542E1,1.5070016E1,1.3713757E2,2.7311836E1,1.8722502E1,1.3746066E1,1.9950322E2,3.20741E2,5.2614532E1,1.9527712E1,1.0095652E1,1.0912037E1,2.863823E2,2.33428E1,2.2775358E1,5.4106228E1,1.1802112E1,1.5099081E1],"tree_param":{"num_deleted":"0","num_feature":"51","num_nodes":"51","size_leaf_vector":"1"}},{"base_weights":[2.1362237E-3,-4.0495613E-1,1.4239909E-1,-5.518302E-1,8.647887E-1,2.22686E-1,-6.240726E-1,-7.9478276E-1,3.4715423E-1,-1.3656641E-3,1.6805544E-2,2.9886103E-1,-4.094506E-1,1.5024076E-2,-9.6465194E-1,1.8117318E-1,-1.0221233E0,7.6590854E-1,-1.2051445E-2,3.6399016E-1,-5.9634465E-1,-2.7883813E-2,-8.063932E-2,6.6139377E-3,-1.3357581E0,7.6106456E-3,-1.2056542E-2,-2.3722537E-2,-9.227251E-3,-4.1033057E-3,1.4404092E-2,3.784245E-3,1.0540195E-2,4.3351734E-3,-1.7109519E-2,-1.7323546E-2,3.351845E-3,-2.0672653E-2,2.2901206E-3],"categories":[],"categories_nodes":[],"categories_segments":[],"categories_sizes":[],"default_left":[0,0,0,0,0,0,0,0,0,0,0,0,0,0,0,0,0,0,0,0,0,0,0,0,0,0,0,0,0,0,0,0,0,0,0,0,0,0,0],"id":8,"left_children":[1,3,5,7,9,11,13,15,17,-1,-1,19,21,-1,23,25,27,29,-1,31,33,-1,35,-1,37,-1,-1,-1,-1,-1,-1,-1,-1,-1,-1,-1,-1,-1,-1],"loss_changes":[7.7509544E1,6.600769E1,6.2459938E1,6.913274E1,1.6462019E1,4.440248E1,6.1679142E1,5.5414536E1,3.85695E1,0E0,0E0,4.8268494E1,5.7167988E1,0E0,4.6992447E1,2.3921642E1,4.6925095E1,2.1519085E1,0E0,2.342424E1,4.0117073E1,0E0,3.85308E1,0E0,2.8767685E1,0E0,0E0,0E0,0E0,0E0,0E0,0E0,0E0,0E0,0E0,0E0,0E0,0E0,0E0],"parents":[2147483647,0,0,1,1,2,2,3,3,4,4,5,5,6,6,7,7,8,8,11,11,12,12,14,14,15,15,16,16,17,17,19,19,20,20,22,22,24,24],"right_children":[2,4,6,8,10,12,14,16,18,-1,-1,20,22,-1,24,26,28,30,-1,32,34,-1,36,-1,38,-1,-1,-1,-1,-1,-1,-1,-1,-1,-1,-1,-1,-1,-1],"split_conditions":[-5.9467286E-1,5.5E1,1.0926269E0,1.482551E2,1.0153834E0,2.0151983E1,8.91664E1,9.593524E0,3.4312405E1,-1.3656641E-3,1.6805544E-2,7.5E1,2.716984E0,1.5024076E-2,2.1875E1,5.5335968E1,9.37776E1,-2.612564E-2,-1.2051445E-2,3.1E-1,6.018222E0,-2.7883813E-2,-1.5888379E0,6.6139377E-3,5.710476E0,7.6106456E-3,-1.2056542E-2,-2.3722537E-2,-9.227251E-3,-4.1033057E-3,1.4404092E-2,3.784245E-3,1.0540195E-2,4.3351734E-3,-1.7109519E-2,-1.7323546E-2,3.351845E-3,-2.0672653E-2,2.2901206E-3],"split_indices":[47,29,18,41,13,37,36,15,11,0,0,29,4,0,32,43,36,35,0,19,30,0,10,0,4,0,0,0,0,0,0,0,0,0,0,0,0,0,0],"split_type":[0,0,0,0,0,0,0,0,0,0,0,0,0,0,0,0,0,0,0,0,0,0,0,0,0,0,0,0,0,0,0,0,0,0,0,0,0,0,0],"sum_hessian":[1.3528538E3,3.453625E2,1.0074913E3,3.1084543E2,3.4517056E1,9.1361945E2,9.387187E1,2.4499776E2,6.584768E1,1.1406627E1,2.311043E1,8.1661676E2,9.700269E1,1.3975229E1,7.989664E1,4.6321724E1,1.9867604E2,5.047727E1,1.5370408E1,7.6266187E2,5.395485E1,1.3033591E1,8.39691E1,1.5780712E1,6.411593E1,3.475324E1,1.1568485E1,4.9652557E1,1.4902348E2,1.2529662E1,3.7947605E1,6.66909E2,9.575291E1,2.4361502E1,2.959335E1,1.6324572E1,6.764453E1,5.409667E1,1.001926E1],"tree_param":{"num_deleted":"0","num_feature":"51","num_nodes":"39","size_leaf_vector":"1"}},{"base_weights":[1.4594831E-2,-5.336423E-1,1.3368498E-1,-9.0644634E-1,3.9090225E-1,3.755996E-1,-9.616726E-2,-3.61316E-1,-1.3984162E0,-2.462757E-1,1.0909971E0,-4.0799457E-1,4.6453696E-1,-4.1939786E-1,1.8647179E-1,-1.2379731E0,3.7734833E-2,-1.8013673E0,3.5789094E-4,7.43137E-3,-7.5368863E-1,1.6340556E-2,7.63602E-3,9.053699E-3,-8.327307E-1,6.7719746E-1,2.364691E-1,-2.5760487E-1,-1.735925E0,-6.1079407E-1,3.2262656E-1,8.594061E-5,-2.7019368E-2,-1.2062002E-2,6.92419E-3,-1.1271711E-2,-2.5994856E-2,3.9898776E-3,-2.138773E-2,-1.6771007E-2,6.0006077E-3,-1.8602972E-3,9.957898E-3,-9.904586E-4,7.7307187E-3,5.0864774E-3,-6.599982E-3,-8.680572E-3,-2.825526E-2,3.577543E-3,-2.4681067E-2,-1.22546535E-2,5.003199E-3],"categories":[],"categories_nodes":[],"categories_segments":[],"categories_sizes":[],"default_left":[0,0,0,0,0,0,0,0,0,0,0,0,0,0,0,0,0,0,0,0,0,0,0,0,0,0,0,0,0,0,0,0,0,0,0,0,0,0,0,0,0,0,0,0,0,0,0,0,0,0,0,0,0],"id":9,"left_children":[1,3,5,7,9,11,13,15,17,19,21,23,25,27,29,31,33,35,-1,-1,37,-1,-1,-1,39,41,43,45,47,49,51,-1,-1,-1,-1,-1,-1,-1,-1,-1,-1,-1,-1,-1,-1,-1,-1,-1,-1,-1,-1,-1,-1],"loss_changes":[8.866769E1,8.4432495E1,6.2159813E1,4.516722E1,3.251996E1,3.8403923E1,5.264997E1,3.0169708E1,5.2134827E1,1.7540577E1,1.1498566E0,2.828923E1,2.3312729E1,5.598834E1,3.387511E1,2.93568E1,3.131769E1,1.01772E1,0E0,0E0,2.6167103E1,0E0,0E0,0E0,2.7704853E1,2.102198E1,2.781652E1,4.130822E1,1.0499321E1,5.4882828E1,2.3808376E1,0E0,0E0,0E0,0E0,0E0,0E0,0E0,0E0,0E0,0E0,0E0,0E0,0E0,0E0,0E0,0E0,0E0,0E0,0E0,0E0,0E0,0E0],"parents":[2147483647,0,0,1,1,2,2,3,3,4,4,5,5,6,6,7,7,8,8,9,9,10,10,11,11,12,12,13,13,14,14,15,15,16,16,17,17,20,20,24,24,25,25,26,26,27,27,28,28,29,29,30,30],"right_children":[2,4,6,8,10,12,14,16,18,20,22,24,26,28,30,32,34,36,-1,-1,38,-1,-1,-1,40,42,44,46,48,50,52,-1,-1,-1,-1,-1,-1,-1,-1,-1,-1,-1,-1,-1,-1,-1,-1,-1,-1,-1,-1,-1,-1],"split_conditions":[-7.8014684E-1,1.5332823E2,1.0909116E1,7.772301E-1,6.731816E0,9.486166E0,7.374606E0,-1.3200006E0,7.523919E-1,1.4601591E0,-1.2623973E0,-2.0245099E-1,1.706E0,2.191E1,-5.761595E0,-2.383598E0,9.39066E1,-2.4694756E1,3.5789094E-4,7.43137E-3,-1.7745245E-1,1.6340556E-2,7.63602E-3,9.053699E-3,1.3653098E2,-6.1639214E-1,-1.2297016E-3,9.090909E0,1.2479348E2,1.0366243E-1,1.1949001E2,8.594061E-5,-2.7019368E-2,-1.2062002E-2,6.92419E-3,-1.1271711E-2,-2.5994856E-2,3.9898776E-3,-2.138773E-2,-1.6771007E-2,6.0006077E-3,-1.8602972E-3,9.957898E-3,-9.904586E-4,7.7307187E-3,5.0864774E-3,-6.599982E-3,-8.680572E-3,-2.825526E-2,3.577543E-3,-2.4681067E-2,-1.22546535E-2,5.003199E-3],"split_indices":[17,41,30,18,33,16,11,48,22,4,17,5,31,0,27,33,36,11,0,0,22,0,0,0,40,3,22,43,40,22,40,0,0,0,0,0,0,0,0,0,0,0,0,0,0,0,0,0,0,0,0,0,0],"split_type":[0,0,0,0,0,0,0,0,0,0,0,0,0,0,0,0,0,0,0,0,0,0,0,0,0,0,0,0,0,0,0,0,0,0,0,0,0,0,0,0,0,0,0,0,0,0,0,0,0,0,0,0,0],"sum_hessian":[1.3533916E3,2.3989734E2,1.1134943E3,1.7105045E2,6.8846886E1,5.419093E2,5.7158496E2,8.322233E1,8.782812E1,3.6818855E1,3.2028034E1,5.4260376E1,4.8764896E2,2.6621225E2,3.0537274E2,2.4481234E1,5.8741096E1,6.801977E1,1.9808346E1,1.3822383E1,2.2996471E1,2.04343E1,1.1593736E1,1.4478543E1,3.9781834E1,2.4969334E2,2.379556E2,2.3972905E2,2.6483198E1,4.3223248E1,2.6214948E2,1.1038838E1,1.3442394E1,1.9153992E1,3.9587105E1,1.5860781E1,5.215899E1,1.1337694E1,1.1658778E1,2.9156305E1,1.0625527E1,2.6833092E1,2.2286026E2,1.291809E2,1.0877471E2,6.721458E1,1.7251447E2,1.0011493E1,1.6471704E1,2.6894497E1,1.6328749E1,1.1528346E1,2.5062114E2],"tree_param":{"num_deleted":"0","num_feature":"51","num_nodes":"53","size_leaf_vector":"1"}},{"base_weights":[2.8189205E-2,-3.6471453E-1,1.748359E-1,-7.4656993E-1,2.4984041E-1,-5.624998E-1,2.8175923E-1,-1.0285443E0,3.105333E-1,-1.0361928E0,4.9381295E-1,-1.4148116E0,-2.5639577E-2,3.261261E-1,-6.093245E-1,-1.2414927E-1,-1.3823668E0,9.130472E-1,-2.0395147E-2,-2.0330964E-2,-3.1224315E-3,-1.024345E-2,6.785263E-1,-2.7924806E-3,-2.8454931E-2,2.4284582E-1,-1.9686598E-2,-1.3032767E-1,4.1851482E-1,3.0061927E-1,-1.9632488E-2,1.13727255E-2,-1.2692629E-2,-2.2347244E-2,-6.164252E-3,1.1940823E-3,1.7412372E-2,1.1143718E-2,-1.5838626E-3,7.0085702E-3,-1.2471577E-2,3.3426895E-3,-9.572763E-3,5.7558143E-3,-8.185432E-3,1.232758E-2,-5.1007443E-3],"categories":[],"categories_nodes":[],"categories_segments":[],"categories_sizes":[],"default_left":[0,0,0,0,0,0,0,0,0,0,0,0,0,0,0,0,0,0,0,0,0,0,0,0,0,0,0,0,0,0,0,0,0,0,0,0,0,0,0,0,0,0,0,0,0,0,0],"id":10,"left_children":[1,3,5,7,9,11,13,15,17,19,21,23,25,27,29,31,33,35,-1,-1,-1,-1,37,-1,-1,39,-1,41,43,45,-1,-1,-1,-1,-1,-1,-1,-1,-1,-1,-1,-1,-1,-1,-1,-1,-1],"loss_changes":[7.8498856E1,8.7385956E1,7.858257E1,6.911076E1,4.628705E1,5.7634254E1,3.4787956E1,5.7534714E1,6.0870213E1,9.237267E0,3.0567183E1,4.5639465E1,3.348207E1,3.5099617E1,3.6434364E1,4.927449E1,4.0180847E1,1.4054859E1,0E0,0E0,0E0,0E0,1.6945965E1,0E0,0E0,2.7175312E1,0E0,3.4576378E1,2.3022217E1,1.1661197E1,0E0,0E0,0E0,0E0,0E0,0E0,0E0,0E0,0E0,0E0,0E0,0E0,0E0,0E0,0E0,0E0,0E0],"parents":[2147483647,0,0,1,1,2,2,3,3,4,4,5,5,6,6,7,7,8,8,9,9,10,10,11,11,12,12,13,13,14,14,15,15,16,16,17,17,22,22,25,25,27,27,28,28,29,29],"right_children":[2,4,6,8,10,12,14,16,18,20,22,24,26,28,30,32,34,36,-1,-1,-1,-1,38,-1,-1,40,-1,42,44,46,-1,-1,-1,-1,-1,-1,-1,-1,-1,-1,-1,-1,-1,-1,-1,-1,-1],"split_conditions":[-5.840749E-1,5.1E-1,-8.4261507E-1,1.4758992E2,9.37776E1,1.998302E2,1.960311E2,1.1857708E1,3.326568E1,9.780153E1,-4.6819286E0,4.4657096E-2,9.20545E-1,2.5396827E-1,4E0,1.1690599E0,6.996047E1,1.7519226E1,-2.0395147E-2,-2.0330964E-2,-3.1224315E-3,-1.024345E-2,6.71875E1,-2.7924806E-3,-2.8454931E-2,1.883E1,-1.9686598E-2,1.9E1,4.542E0,-2.8044827E0,-1.9632488E-2,1.13727255E-2,-1.2692629E-2,-2.2347244E-2,-6.164252E-3,1.1940823E-3,1.7412372E-2,1.1143718E-2,-1.5838626E-3,7.0085702E-3,-1.2471577E-2,3.3426895E-3,-9.572763E-3,5.7558143E-3,-8.185432E-3,1.232758E-2,-5.1007443E-3],"split_indices":[47,34,17,41,36,26,41,20,11,41,27,1,14,38,29,2,49,15,0,0,0,0,32,0,0,0,0,29,31,46,0,0,0,0,0,0,0,0,0,0,0,0,0,0,0,0,0],"split_type":[0,0,0,0,0,0,0,0,0,0,0,0,0,0,0,0,0,0,0,0,0,0,0,0,0,0,0,0,0,0,0,0,0,0,0,0,0,0,0,0,0,0,0,0,0,0,0],"sum_hessian":[1.3574874E3,3.678356E2,9.8965186E2,2.2661795E2,1.4121767E2,1.2393233E2,8.6571954E2,1.7900414E2,4.7613808E1,2.1205343E1,1.2001232E2,4.629794E1,7.763439E1,8.262135E2,3.9506035E1,5.132366E1,1.2768048E2,3.715349E1,1.0460317E1,1.1016483E1,1.018886E1,1.39346485E1,1.06077675E2,1.9910711E1,2.6387226E1,6.761973E1,1.0014667E1,1.3877937E2,6.8743414E2,2.0680338E1,1.8825695E1,2.3610281E1,2.771338E1,8.944831E1,3.8232166E1,1.4181846E1,2.2971643E1,8.557964E1,2.0498026E1,5.521802E1,1.2401705E1,8.570662E1,5.3072746E1,6.695167E2,1.7917421E1,1.0203504E1,1.0476835E1],"tree_param":{"num_deleted":"0","num_feature":"51","num_nodes":"47","size_leaf_vector":"1"}},{"base_weights":[1.6980272E-2,4.0197134E-1,-1.6342832E-1,-1.2219072E-2,4.569279E-1,-2.8973868E-1,3.7850592E-1,1.6748974E-1,8.414411E-1,-6.2286955E-1,2.9894272E-2,8.119889E-3,1.0427321E0,3.6203453E-1,-9.20124E-1,9.4077903E-1,-5.074514E-3,-7.644399E-1,9.650647E-1,-1.7354468E-2,9.95855E-2,9.007399E-1,-3.618706E-1,1.1963468E0,2.2295155E-3,-1.7455682E-2,6.1651208E-3,-2.1089109E-2,5.4332893E-3,1.29296705E-2,-3.440452E-4,-1.4102775E-2,-2.3289267E-3,5.23725E-3,1.7551413E-2,1.525889E-2,2.6548578E-4,-0E0,1.66069E-2,-1.242204E-2,1.9420941E-3,1.6511064E-2,8.77328E-3],"categories":[],"categories_nodes":[],"categories_segments":[],"categories_sizes":[],"default_left":[0,0,0,0,0,0,0,0,0,0,0,0,0,0,0,0,0,0,0,0,0,0,0,0,0,0,0,0,0,0,0,0,0,0,0,0,0,0,0,0,0,0,0],"id":11,"left_children":[1,3,5,-1,7,9,11,13,15,17,19,21,23,25,27,29,-1,31,33,-1,35,37,39,41,-1,-1,-1,-1,-1,-1,-1,-1,-1,-1,-1,-1,-1,-1,-1,-1,-1,-1,-1],"loss_changes":[9.510947E1,3.3578346E1,6.407851E1,0E0,4.6507225E1,8.075293E1,4.3491295E1,5.2341755E1,2.3120407E1,8.522983E1,3.774607E1,3.9238003E1,7.8451004E0,4.4341133E1,3.847213E1,1.119754E1,0E0,6.6421814E1,5.575283E0,0E0,3.1909296E1,1.24327965E1,2.6581501E1,2.1357727E-1,0E0,0E0,0E0,0E0,0E0,0E0,0E0,0E0,0E0,0E0,0E0,0E0,0E0,0E0,0E0,0E0,0E0,0E0,0E0],"parents":[2147483647,0,0,1,1,2,2,4,4,5,5,6,6,7,7,8,8,9,9,10,10,11,11,12,12,13,13,14,14,15,15,17,17,18,18,20,20,21,21,22,22,23,23],"right_children":[2,4,6,-1,8,10,12,14,16,18,20,22,24,26,28,30,-1,32,34,-1,36,38,40,42,-1,-1,-1,-1,-1,-1,-1,-1,-1,-1,-1,-1,-1,-1,-1,-1,-1,-1,-1],"split_conditions":[9.507281E0,-6.5E-1,6.6E-1,-1.2219072E-2,2.3729065E2,2.1941082E-1,1.11896576E2,1.6350522E0,1.2847037E2,6.411946E0,3.952569E-1,1.4740472E1,9.068744E-1,-3.6612852E0,2.2125401E0,6.541328E2,-5.074514E-3,7.3126493E0,1.4234965E0,-1.7354468E-2,8.70753E1,2.9999733E-2,2.5E-1,1.7900759E1,2.2295155E-3,-1.7455682E-2,6.1651208E-3,-2.1089109E-2,5.4332893E-3,1.29296705E-2,-3.440452E-4,-1.4102775E-2,-2.3289267E-3,5.23725E-3,1.7551413E-2,1.525889E-2,2.6548578E-4,-0E0,1.66069E-2,-1.242204E-2,1.9420941E-3,1.6511064E-2,8.77328E-3],"split_indices":[15,34,34,0,26,39,24,35,25,27,49,37,18,35,4,26,0,8,5,0,36,7,19,30,0,0,0,0,0,0,0,0,0,0,0,0,0,0,0,0,0,0,0],"split_type":[0,0,0,0,0,0,0,0,0,0,0,0,0,0,0,0,0,0,0,0,0,0,0,0,0,0,0,0,0,0,0,0,0,0,0,0,0,0,0,0,0,0,0],"sum_hessian":[1.3643495E3,4.345081E2,9.2984143E2,1.5322017E1,4.1918607E2,7.5511505E2,1.7472641E2,2.4126994E2,1.7791612E2,3.6872495E2,3.8639008E2,1.1383368E2,6.0892727E1,2.0610127E2,3.5168667E1,1.6529109E2,1.2625031E1,3.3974838E2,2.8976574E1,1.6312902E1,3.7007718E2,3.2386703E1,8.1446976E1,5.0889565E1,1.0003165E1,1.1623055E1,1.9447821E2,2.2518854E1,1.2649811E1,1.5438817E2,1.0902932E1,2.1402997E2,1.25718414E2,1.4342134E1,1.46344385E1,2.2562588E1,3.475146E2,1.0599165E1,2.1787539E1,3.6377064E1,4.5069912E1,3.986794E1,1.1021625E1],"tree_param":{"num_deleted":"0","num_feature":"51","num_nodes":"43","size_leaf_vector":"1"}},{"base_weights":[7.1870787E-3,-5.048041E-1,1.1733948E-1,-9.54573E-1,-9.1081835E-2,-1.5818821E-1,3.3021098E-1,-2.8548098E-1,-1.6288289E0,4.8150805E-1,-3.641372E-1,1.7784545E-1,-4.2443538E-1,5.3157765E-1,8.0808505E-2,1.6301732E-1,-1.8663518E-2,-5.9858197E-3,-1.9099653E0,9.2137855E-1,-4.7620954E-3,-5.513936E-1,1.0068713E-2,-8.614091E-1,3.8263947E-1,-5.514679E-1,8.746705E-1,8.563539E-1,3.225955E-1,-1.0303456E0,2.0548415E-1,1.4054892E-2,-6.2234136E-3,-2.8325135E-2,-1.3492095E-2,4.6443143E-3,1.5569227E-2,-2.603796E-3,-1.8080829E-2,-1.8929863E-2,5.7207997E-4,7.3687616E-3,-6.4485036E-3,6.854208E-3,-9.422492E-3,5.7408595E-3,1.5209524E-2,-6.192081E-3,1.2601889E-2,-5.682763E-3,6.8504824E-3,6.9455104E-4,-2.3568548E-2,8.17643E-3,-1.027694E-3],"categories":[],"categories_nodes":[],"categories_segments":[],"categories_sizes":[],"default_left":[0,0,0,0,0,0,0,0,0,0,0,0,0,0,0,0,0,0,0,0,0,0,0,0,0,0,0,0,0,0,0,0,0,0,0,0,0,0,0,0,0,0,0,0,0,0,0,0,0,0,0,0,0,0,0],"id":12,"left_children":[1,3,5,7,9,11,13,15,17,19,21,23,25,27,29,31,-1,-1,33,35,-1,37,-1,39,41,43,45,47,49,51,53,-1,-1,-1,-1,-1,-1,-1,-1,-1,-1,-1,-1,-1,-1,-1,-1,-1,-1,-1,-1,-1,-1,-1,-1],"loss_changes":[7.714643E1,4.4775307E1,6.618904E1,5.0917473E1,2.0577785E1,4.4250042E1,3.180326E1,3.2751503E1,1.6280426E1,1.6861633E1,2.0156342E1,4.7433933E1,4.6626263E1,2.3091187E1,4.0253304E1,2.9400515E1,0E0,0E0,5.682419E0,3.5456219E0,0E0,2.2476871E1,0E0,2.0786367E1,3.221949E1,5.1394753E1,1.9705772E0,2.4329239E1,3.5963615E1,2.609668E1,3.2338867E1,0E0,0E0,0E0,0E0,0E0,0E0,0E0,0E0,0E0,0E0,0E0,0E0,0E0,0E0,0E0,0E0,0E0,0E0,0E0,0E0,0E0,0E0,0E0,0E0],"parents":[2147483647,0,0,1,1,2,2,3,3,4,4,5,5,6,6,7,7,8,8,9,9,10,10,11,11,12,12,13,13,14,14,15,15,18,18,19,19,21,21,23,23,24,24,25,25,26,26,27,27,28,28,29,29,30,30],"right_children":[2,4,6,8,10,12,14,16,18,20,22,24,26,28,30,32,-1,-1,34,36,-1,38,-1,40,42,44,46,48,50,52,54,-1,-1,-1,-1,-1,-1,-1,-1,-1,-1,-1,-1,-1,-1,-1,-1,-1,-1,-1,-1,-1,-1,-1,-1],"split_conditions":[-7.8014684E-1,4.7430832E1,-2.8502202E-1,1.1917019E1,-1.577673E0,1.1029912E1,2.472559E-1,-1.8095583E1,-1.99E0,3.3371806E-1,4.739392E0,9.486166E0,3.023453E0,1.0985517E1,2.7321267E-1,7.265222E-1,-1.8663518E-2,-5.9858197E-3,-6.3336307E-1,-3.4115295E0,-4.7620954E-3,9.641499E-1,1.0068713E-2,6.528061E0,1.5823853E0,-2.5131667E0,2.7E-1,1.177E1,1.3055712E-1,3.8E1,8.218589E0,1.4054892E-2,-6.2234136E-3,-2.8325135E-2,-1.3492095E-2,4.6443143E-3,1.5569227E-2,-2.603796E-3,-1.8080829E-2,-1.8929863E-2,5.7207997E-4,7.3687616E-3,-6.4485036E-3,6.854208E-3,-9.422492E-3,5.7408595E-3,1.5209524E-2,-6.192081E-3,1.2601889E-2,-5.682763E-3,6.8504824E-3,6.9455104E-4,-2.3568548E-2,8.17643E-3,-1.027694E-3],"split_indices":[17,20,47,37,17,30,21,46,9,21,27,16,13,37,21,18,0,0,12,6,0,18,0,28,5,10,19,0,21,29,30,0,0,0,0,0,0,0,0,0,0,0,0,0,0,0,0,0,0,0,0,0,0,0,0],"split_type":[0,0,0,0,0,0,0,0,0,0,0,0,0,0,0,0,0,0,0,0,0,0,0,0,0,0,0,0,0,0,0,0,0,0,0,0,0,0,0,0,0,0,0,0,0,0,0,0,0,0,0,0,0,0,0],"sum_hessian":[1.363398E3,2.3972704E2,1.1236709E3,1.13244995E2,1.2648205E2,4.8988446E2,6.337865E2,5.864051E1,5.4604485E1,4.015267E1,8.632938E1,2.1679993E2,2.7308453E2,3.489724E2,2.848141E2,4.3876625E1,1.4763885E1,1.1957101E1,4.2647385E1,2.6419317E1,1.3733354E1,7.5387115E1,1.0942262E1,3.434105E1,1.8245888E2,2.500919E2,2.2992626E1,1.335327E2,2.154397E2,2.6883207E1,2.5793088E2,1.7339191E1,2.6537436E1,2.866224E1,1.39851465E1,1.1061937E1,1.535738E1,5.5861782E1,1.952533E1,1.9576193E1,1.4764856E1,1.5067819E2,3.1780685E1,3.545633E1,2.1463557E2,1.2326821E1,1.0665806E1,1.09203615E1,1.22612335E2,4.603988E1,1.6939983E2,1.2419932E1,1.4463275E1,1.0149547E2,1.5643541E2],"tree_param":{"num_deleted":"0","num_feature":"51","num_nodes":"55","size_leaf_vector":"1"}},{"base_weights":[-9.361234E-3,3.2042316E-1,-1.4994898E-1,-5.371976E-1,5.184374E-1,-7.112275E-1,9.214738E-3,5.1830307E-2,-2.3196913E-2,-6.348956E-1,6.0046065E-1,6.1411345E-1,-1.1286008E0,-4.3827465E-1,1.6256014E-1,-9.594665E-3,5.4017574E-1,1.3309208E-3,-1.593693E-2,1.1730082E0,4.982646E-1,-1.6239822E-2,1.1964558E0,2.2056285E-1,-1.3731513E0,-1.3969828E0,-3.4950916E-2,2.2659115E-1,-8.688903E-1,1.2650611E-2,-3.1157774E-3,7.0461044E-3,1.680326E-2,-1.3332441E-3,8.305103E-3,1.743044E-2,7.071235E-3,1.2879162E-2,-9.800628E-3,2.1517952E-3,-2.0685734E-2,-6.56291E-3,-2.2693986E-2,4.600484E-3,-7.994781E-3,-2.8088647E-3,4.891375E-3,-4.0112744E-4,-1.8250542E-2],"categories":[],"categories_nodes":[],"categories_segments":[],"categories_sizes":[],"default_left":[0,0,0,0,0,0,0,0,0,0,0,0,0,0,0,0,0,0,0,0,0,0,0,0,0,0,0,0,0,0,0,0,0,0,0,0,0,0,0,0,0,0,0,0,0,0,0,0,0],"id":13,"left_children":[1,3,5,7,9,11,13,15,-1,17,19,21,23,25,27,-1,29,-1,-1,31,33,-1,35,37,39,41,43,45,47,-1,-1,-1,-1,-1,-1,-1,-1,-1,-1,-1,-1,-1,-1,-1,-1,-1,-1,-1,-1],"loss_changes":[6.284089E1,6.946661E1,8.498071E1,5.8172695E1,3.2184395E1,1.179637E2,5.1127872E1,2.2496635E1,0E0,1.0770289E1,1.657576E1,6.052487E1,5.3845367E1,7.32942E1,3.709989E1,0E0,1.3129558E1,0E0,0E0,1.978836E0,2.4312248E1,0E0,2.3422318E0,2.254897E1,5.1433746E1,1.6205673E1,3.220683E1,3.6492104E1,1.5081213E1,0E0,0E0,0E0,0E0,0E0,0E0,0E0,0E0,0E0,0E0,0E0,0E0,0E0,0E0,0E0,0E0,0E0,0E0,0E0,0E0],"parents":[2147483647,0,0,1,1,2,2,3,3,4,4,5,5,6,6,7,7,9,9,10,10,11,11,12,12,13,13,14,14,16,16,19,19,20,20,22,22,23,23,24,24,25,25,26,26,27,27,28,28],"right_children":[2,4,6,8,10,12,14,16,-1,18,20,22,24,26,28,-1,30,-1,-1,32,34,-1,36,38,40,42,44,46,48,-1,-1,-1,-1,-1,-1,-1,-1,-1,-1,-1,-1,-1,-1,-1,-1,-1,-1,-1,-1],"split_conditions":[9.507281E0,2.777778E-1,1.543352E-1,1.099288E0,1.4178067E0,1.1004881E1,1.2669476E2,-8.404969E-1,-2.3196913E-2,-2.9752028E-1,1.875E1,4.9011856E1,-2.9831995E1,-2.799931E-1,1.6708797E0,-9.594665E-3,1.706E0,1.3309208E-3,-1.593693E-2,-7.720548E-1,8.479494E0,-1.6239822E-2,1.2200003E0,7.775534E1,-6.9801104E-1,1.1973348E2,1.4257206E-1,4.0711464E1,5.195274E-1,1.2650611E-2,-3.1157774E-3,7.0461044E-3,1.680326E-2,-1.3332441E-3,8.305103E-3,1.743044E-2,7.071235E-3,1.2879162E-2,-9.800628E-3,2.1517952E-3,-2.0685734E-2,-6.56291E-3,-2.2693986E-2,4.600484E-3,-7.994781E-3,-2.8088647E-3,4.891375E-3,-4.0112744E-4,-1.8250542E-2],"split_indices":[15,38,21,5,45,37,40,12,0,22,32,43,11,39,45,0,31,0,0,39,37,0,7,25,22,40,22,20,23,0,0,0,0,0,0,0,0,0,0,0,0,0,0,0,0,0,0,0,0],"split_type":[0,0,0,0,0,0,0,0,0,0,0,0,0,0,0,0,0,0,0,0,0,0,0,0,0,0,0,0,0,0,0,0,0,0,0,0,0,0,0,0,0,0,0,0,0,0,0,0,0],"sum_hessian":[1.3506777E3,4.0261105E2,9.4806665E2,7.466729E1,3.2794376E2,2.0767816E2,7.403885E2,5.26107E1,2.2056591E1,2.0621796E1,3.0732196E2,4.9420776E1,1.582574E2,1.8768304E2,5.5270544E2,1.938422E1,3.322648E1,1.0178217E1,1.044358E1,4.2559902E1,2.6476205E2,1.0972743E1,3.8448032E1,2.42757E1,1.3398169E2,5.3739998E1,1.3394305E2,5.222618E2,3.044365E1,2.0808392E1,1.2418087E1,1.002811E1,3.253179E1,5.278643E1,2.1197563E2,2.8410084E1,1.0037947E1,1.3529288E1,1.074641E1,1.817869E1,1.1580301E2,1.7739965E1,3.6000034E1,8.0755104E1,5.3187946E1,1.3442271E2,3.8783908E2,1.3217306E1,1.7226345E1],"tree_param":{"num_deleted":"0","num_feature":"51","num_nodes":"49","size_leaf_vector":"1"}},{"base_weights":[-5.9959535E-3,9.5800824E-2,-5.8886474E-1,1.9340606E-1,-5.5441856E-1,1.3820344E-2,-8.074375E-1,3.2259053E-1,-1.0757828E-1,-8.042958E-1,7.388214E-1,-1.044321E0,6.987663E-1,1.9939213E-1,9.68176E-1,-4.5722562E-1,4.3746567E-1,1.5355866E-1,-1.3684477E0,9.860063E-4,1.5250894E-2,-1.2415891E0,8.383679E-3,3.0656098E-3,1.3491272E-2,-5.0632353E-3,4.1753557E-3,-2.2860088E-3,1.4191545E-2,2.0095634E-3,-1.0794545E-2,-1.1171569E-2,7.617937E-3,7.0680687E-3,-1.1785084E-2,-2.2191685E-2,7.265373E-3,2.4437553E-3,-1.9197593E-2],"categories":[],"categories_nodes":[],"categories_segments":[],"categories_sizes":[],"default_left":[0,0,0,0,0,0,0,0,0,0,0,0,0,0,0,0,0,0,0,0,0,0,0,0,0,0,0,0,0,0,0,0,0,0,0,0,0,0,0],"id":14,"left_children":[1,3,5,7,9,-1,11,13,15,17,19,21,23,25,27,29,31,33,35,-1,-1,37,-1,-1,-1,-1,-1,-1,-1,-1,-1,-1,-1,-1,-1,-1,-1,-1,-1],"loss_changes":[7.913797E1,7.2266846E1,7.4381516E1,3.8545193E1,4.950079E1,0E0,6.487951E1,5.4529312E1,5.7395004E1,6.858806E1,7.241625E0,5.3550186E1,3.4306335E0,4.4257957E1,1.8149597E1,4.3687225E1,2.546899E1,2.2049597E1,5.8349792E1,0E0,0E0,5.171643E1,0E0,0E0,0E0,0E0,0E0,0E0,0E0,0E0,0E0,0E0,0E0,0E0,0E0,0E0,0E0,0E0,0E0],"parents":[2147483647,0,0,1,1,2,2,3,3,4,4,6,6,7,7,8,8,9,9,10,10,11,11,12,12,13,13,14,14,15,15,16,16,17,17,18,18,21,21],"right_children":[2,4,6,8,10,-1,12,14,16,18,20,22,24,26,28,30,32,34,36,-1,-1,38,-1,-1,-1,-1,-1,-1,-1,-1,-1,-1,-1,-1,-1,-1,-1,-1,-1],"split_conditions":[9.508779E-1,2.0548178E1,9.05191E1,1.26441376E2,2.2E-1,1.3820344E-2,2.8119206E0,5.891301E2,5.6E-1,-1.9390497E0,-2.6843815E1,4.0393513E1,7.7078927E-1,2.6984128E-1,-6.571496E-1,1.109543E1,9.26726E1,8E0,2.9044342E1,9.860063E-4,1.5250894E-2,-1.7528825E0,8.383679E-3,3.0656098E-3,1.3491272E-2,-5.0632353E-3,4.1753557E-3,-2.2860088E-3,1.4191545E-2,2.0095634E-3,-1.0794545E-2,-1.1171569E-2,7.617937E-3,7.0680687E-3,-1.1785084E-2,-2.2191685E-2,7.265373E-3,2.4437553E-3,-1.9197593E-2],"split_indices":[18,37,36,25,19,0,6,26,34,13,42,42,39,38,10,37,36,29,42,0,0,39,0,0,0,0,0,0,0,0,0,0,0,0,0,0,0,0,0],"split_type":[0,0,0,0,0,0,0,0,0,0,0,0,0,0,0,0,0,0,0,0,0,0,0,0,0,0,0,0,0,0,0,0,0,0,0,0,0,0,0],"sum_hessian":[1.3283992E3,1.1325255E3,1.9587369E2,9.862994E2,1.4622617E2,2.1548927E1,1.7432475E2,6.901474E2,2.9615198E2,1.23369095E2,2.2857069E1,1.5132341E2,2.300135E1,5.823315E2,1.0781591E2,1.8073563E2,1.1541635E2,4.6340622E1,7.702847E1,1.04906E1,1.2366469E1,1.3620453E2,1.51188755E1,1.1879553E1,1.1121798E1,1.0110708E2,4.812244E2,1.154316E1,9.627275E1,7.014715E1,1.1058847E2,1.111597E1,1.04300385E2,3.4720398E1,1.1620228E1,6.5104904E1,1.192357E1,2.0735394E1,1.1546914E2],"tree_param":{"num_deleted":"0","num_feature":"51","num_nodes":"39","size_leaf_vector":"1"}},{"base_weights":[7.197044E-2,4.0460926E-1,-8.845384E-2,-5.224314E-1,5.6806475E-1,6.839712E-1,-1.6254294E-1,5.7490222E-2,-2.195912E-2,1.0164173E0,3.5807794E-1,-5.8574113E-3,9.2375946E-1,-3.715384E-1,1.2792353E-1,6.2577546E-1,-4.6382478E-1,3.4971744E-1,1.2170235E0,-5.62652E-1,4.4975054E-1,1.1779668E0,2.877621E-1,-4.351948E-1,1.438922E-2,-2.1781638E-2,2.0359349E-1,1.3949603E-2,2.5164502E-4,-2.1192491E-2,8.181736E-3,-6.8677375E-3,1.1486606E-2,1.6675333E-2,9.4102025E-3,-1.5309171E-2,1.1506615E-3,-9.669593E-4,7.5207106E-3,5.287696E-3,1.8158196E-2,-4.6086614E-3,1.1266088E-2,-1.4084222E-2,-3.5923782E-3,3.6934821E-3,-1.2107321E-2],"categories":[],"categories_nodes":[],"categories_segments":[],"categories_sizes":[],"default_left":[0,0,0,0,0,0,0,0,0,0,0,0,0,0,0,0,0,0,0,0,0,0,0,0,0,0,0,0,0,0,0,0,0,0,0,0,0,0,0,0,0,0,0,0,0,0,0],"id":15,"left_children":[1,3,5,7,9,11,13,15,-1,17,19,-1,21,23,25,27,29,31,33,35,37,39,41,43,-1,-1,45,-1,-1,-1,-1,-1,-1,-1,-1,-1,-1,-1,-1,-1,-1,-1,-1,-1,-1,-1,-1],"loss_changes":[7.419187E1,6.926111E1,5.393867E1,4.8019653E1,3.532551E1,2.364331E1,5.2241005E1,1.5157692E1,0E0,1.51085205E1,2.3110584E1,0E0,1.0229233E1,4.8703285E1,5.064057E1,6.717677E0,3.7742138E1,1.6515436E1,1.2721405E0,1.0712561E1,1.7705036E1,7.301384E0,9.628494E0,4.863314E1,0E0,0E0,3.450283E1,0E0,0E0,0E0,0E0,0E0,0E0,0E0,0E0,0E0,0E0,0E0,0E0,0E0,0E0,0E0,0E0,0E0,0E0,0E0,0E0],"parents":[2147483647,0,0,1,1,2,2,3,3,4,4,5,5,6,6,7,7,9,9,10,10,12,12,13,13,14,14,15,15,16,16,17,17,18,18,19,19,20,20,21,21,22,22,23,23,26,26],"right_children":[2,4,6,8,10,12,14,16,-1,18,20,-1,22,24,26,28,30,32,34,36,38,40,42,44,-1,-1,46,-1,-1,-1,-1,-1,-1,-1,-1,-1,-1,-1,-1,-1,-1,-1,-1,-1,-1,-1,-1],"split_conditions":[9.712969E0,2.5396827E-1,1.0395068E1,1.099288E0,1.496E0,1.2648221E1,9.566841E0,-4.2000008E-1,-2.195912E-2,2.2924902E1,1.4133685E0,-5.8574113E-3,5.2532446E-1,6.411946E0,-1.417498E1,7.844614E0,8.55342E0,1.224E0,1.0162039E2,5.2173912E1,-1.48E0,-1.1400003E0,4.9802372E1,-3.6600008E0,1.438922E-2,-2.1781638E-2,1.6708797E0,1.3949603E-2,2.5164502E-4,-2.1192491E-2,8.181736E-3,-6.8677375E-3,1.1486606E-2,1.6675333E-2,9.4102025E-3,-1.5309171E-2,1.1506615E-3,-9.669593E-4,7.5207106E-3,5.287696E-3,1.8158196E-2,-4.6086614E-3,1.1266088E-2,-1.4084222E-2,-3.5923782E-3,3.6934821E-3,-1.2107321E-2],"split_indices":[15,38,37,5,31,43,11,48,0,16,45,0,23,27,28,15,15,31,25,16,9,44,16,44,0,0,45,0,0,0,0,0,0,0,0,0,0,0,0,0,0,0,0,0,0,0,0],"split_type":[0,0,0,0,0,0,0,0,0,0,0,0,0,0,0,0,0,0,0,0,0,0,0,0,0,0,0,0,0,0,0,0,0,0,0,0,0,0,0,0,0,0,0,0,0,0,0],"sum_hessian":[1.3858038E3,4.4982397E2,9.359798E2,6.655364E1,3.8327036E2,8.00728E1,8.55907E2,4.6284626E1,2.0269016E1,1.1914528E2,2.6412506E2,1.346823E1,6.660457E1,4.975076E2,3.5839938E2,2.1976423E1,2.43082E1,2.9192469E1,8.995281E1,2.270786E1,2.414172E2,4.6015514E1,2.0589052E1,4.7888904E2,1.8618584E1,1.2125308E1,3.4627408E2,1.1291648E1,1.0684775E1,1.113283E1,1.3175371E1,1.11091795E1,1.8083288E1,7.293848E1,1.701433E1,1.0559119E1,1.2148742E1,5.009446E1,1.9132274E2,1.2606129E1,3.3409386E1,1.0228069E1,1.0360983E1,8.7685135E1,3.912039E2,3.242741E2,2.199996E1],"tree_param":{"num_deleted":"0","num_feature":"51","num_nodes":"47","size_leaf_vector":"1"}},{"base_weights":[-9.50211E-3,-2.0952564E-1,3.2283375E-1,-1.2439495E0,-1.3086009E-1,3.806507E-1,-1.8742276E-2,7.632452E-3,-1.6669328E0,2.014624E-1,-4.0081403E-1,-2.9604632E-1,5.170991E-1,-3.110285E-3,-2.725436E-2,-3.5138276E-1,5.7340795E-1,-1.222738E0,-2.2470978E-1,-2.454506E-2,1.6370129E-2,-3.3670658E-1,6.00284E-1,-1.0225379E-2,4.473062E-3,1.01597365E-2,9.05903E-4,-2.7738111E-2,-8.28017E-3,-1.8616231E-2,-1.7477996E-3,-3.8091543E-3,1.3818745E-2,2.3989524E-3,-1.6441915E-2,1.0907867E-2,4.5065074E-3],"categories":[],"categories_nodes":[],"categories_segments":[],"categories_sizes":[],"default_left":[0,0,0,0,0,0,0,0,0,0,0,0,0,0,0,0,0,0,0,0,0,0,0,0,0,0,0,0,0,0,0,0,0,0,0,0,0],"id":16,"left_children":[1,3,5,7,9,11,-1,-1,13,15,17,19,21,-1,-1,23,25,27,29,-1,31,33,35,-1,-1,-1,-1,-1,-1,-1,-1,-1,-1,-1,-1,-1,-1],"loss_changes":[8.809154E1,6.6832504E1,5.2672268E1,4.7729797E1,6.944545E1,4.509954E1,0E0,0E0,2.995494E1,7.194723E1,6.0995483E1,4.2059086E1,2.920237E1,0E0,0E0,4.4863846E1,2.2816376E1,3.6931E1,3.785302E1,0E0,2.4726917E1,1.9183079E1,2.2200409E1,0E0,0E0,0E0,0E0,0E0,0E0,0E0,0E0,0E0,0E0,0E0,0E0,0E0,0E0],"parents":[2147483647,0,0,1,1,2,2,3,3,4,4,5,5,8,8,9,9,10,10,11,11,12,12,15,15,16,16,17,17,18,18,20,20,21,21,22,22],"right_children":[2,4,6,8,10,12,-1,-1,14,16,18,20,22,-1,-1,24,26,28,30,-1,32,34,36,-1,-1,-1,-1,-1,-1,-1,-1,-1,-1,-1,-1,-1,-1],"split_conditions":[7.2332016E1,1.2427856E-1,3.7721516E1,-6.752934E-1,2.413136E-1,-7.634595E-1,-1.8742276E-2,7.632452E-3,1.1857708E1,-4.651917E-1,2.6984128E-1,-4.0386683E-1,1.2698413E-1,-3.110285E-3,-2.725436E-2,1.659382E-1,1.2767632E2,1.2648221E1,-8.134868E-1,-2.454506E-2,8.90625E1,1.5043916E0,-1.0447811E0,-1.0225379E-2,4.473062E-3,1.01597365E-2,9.05903E-4,-2.7738111E-2,-8.28017E-3,-1.8616231E-2,-1.7477996E-3,-3.8091543E-3,1.3818745E-2,2.3989524E-3,-1.6441915E-2,1.0907867E-2,4.5065074E-3],"split_indices":[16,21,6,22,21,17,0,0,20,47,38,22,38,0,0,21,25,49,47,0,32,45,33,0,0,0,0,0,0,0,0,0,0,0,0,0,0],"split_type":[0,0,0,0,0,0,0,0,0,0,0,0,0,0,0,0,0,0,0,0,0,0,0,0,0,0,0,0,0,0,0,0,0,0,0,0,0],"sum_hessian":[1.3203733E3,8.249684E2,4.9540485E2,5.5678867E1,7.6928955E2,4.8176703E2,1.3637817E1,1.0191005E1,4.548786E1,3.4497144E2,4.243181E2,8.027358E1,4.0149347E2,1.2050737E1,3.3437122E1,1.3872198E2,2.0624944E2,7.223571E1,3.520824E2,1.0991528E1,6.928205E1,3.490572E1,3.6658774E2,8.45706E1,5.4151386E1,1.4250821E2,6.3741226E1,2.4828804E1,4.7406902E1,2.1036861E1,3.3104553E2,5.479341E1,1.4488642E1,2.3680418E1,1.1225301E1,1.793773E2,1.8721043E2],"tree_param":{"num_deleted":"0","num_feature":"51","num_nodes":"37","size_leaf_vector":"1"}},{"base_weights":[5.4796144E-2,-4.4442165E-1,1.6828953E-1,-7.8620565E-1,3.6559138E-1,-4.4459444E-1,2.7774587E-1,-2.1476503E-1,-1.285256E0,5.572004E-1,-8.8733E-3,-2.335313E-1,-1.5571929E0,6.310437E-1,9.540569E-2,6.310059E-1,-6.745484E-1,-1.5596987E0,2.0264504E-3,-8.762895E-3,8.8825923E-1,-2.1233067E-2,-6.4557135E-2,-2.5145104E-2,-1.0841165E-2,9.1256225E-1,4.0030453E-1,-3.275317E-1,3.128093E-1,1.3194717E-2,-2.2209655E-3,-1.619423E-2,2.5820704E-3,-2.4370085E-2,-7.858863E-3,-5.9416965E-3,7.501397E-3,1.4386941E-2,1.659208E-3,-6.2848735E-3,4.245171E-3,9.459278E-3,1.5765766E-2,-4.7375E-3,8.550228E-3,-7.993551E-3,4.622758E-3,5.7092765E-3,-6.227924E-3],"categories":[],"categories_nodes":[],"categories_segments":[],"categories_sizes":[],"default_left":[0,0,0,0,0,0,0,0,0,0,0,0,0,0,0,0,0,0,0,0,0,0,0,0,0,0,0,0,0,0,0,0,0,0,0,0,0,0,0,0,0,0,0,0,0,0,0,0,0],"id":17,"left_children":[1,3,5,7,9,11,13,15,17,19,-1,21,23,25,27,29,31,33,-1,35,37,-1,39,-1,-1,41,43,45,47,-1,-1,-1,-1,-1,-1,-1,-1,-1,-1,-1,-1,-1,-1,-1,-1,-1,-1,-1,-1],"loss_changes":[7.6963875E1,7.039911E1,7.4506676E1,4.9923393E1,1.6396545E1,3.8546295E1,6.037422E1,3.4445442E1,3.80813E1,1.244746E1,0E0,3.437887E1,3.3367043E0,1.9767464E1,5.755271E1,1.0583282E1,3.0054459E1,2.2712646E1,0E0,7.869474E0,6.978031E0,0E0,2.2624851E1,0E0,0E0,5.499687E0,3.763288E1,4.3927055E1,4.430128E1,0E0,0E0,0E0,0E0,0E0,0E0,0E0,0E0,0E0,0E0,0E0,0E0,0E0,0E0,0E0,0E0,0E0,0E0,0E0,0E0],"parents":[2147483647,0,0,1,1,2,2,3,3,4,4,5,5,6,6,7,7,8,8,9,9,11,11,12,12,13,13,14,14,15,15,16,16,17,17,19,19,20,20,22,22,25,25,26,26,27,27,28,28],"right_children":[2,4,6,8,10,12,14,16,18,20,-1,22,24,26,28,30,32,34,-1,36,38,-1,40,-1,-1,42,44,46,48,-1,-1,-1,-1,-1,-1,-1,-1,-1,-1,-1,-1,-1,-1,-1,-1,-1,-1,-1,-1],"split_conditions":[-7.634595E-1,1.523574E2,2.3809524E-1,7.772301E-1,1.1295735E0,1.7938526E1,9.507281E0,1.1917019E1,1.414244E2,-5.674347E0,-8.8733E-3,1.208E1,1.3043478E1,2.2530267E-1,-4.74731E-1,-1.823093E1,2.254E0,1.4378009E0,2.0264504E-3,8.695652E1,2.173913E1,-2.1233067E-2,7.2332016E1,-2.5145104E-2,-1.0841165E-2,7.035573E1,2.7321267E-1,5.5E-1,1.5691595E0,1.3194717E-2,-2.2209655E-3,-1.619423E-2,2.5820704E-3,-2.4370085E-2,-7.858863E-3,-5.9416965E-3,7.501397E-3,1.4386941E-2,1.659208E-3,-6.2848735E-3,4.245171E-3,9.459278E-3,1.5765766E-2,-4.7375E-3,8.550228E-3,-7.993551E-3,4.622758E-3,5.7092765E-3,-6.227924E-3],"split_indices":[17,41,38,18,45,37,15,37,40,28,0,0,43,21,47,46,31,45,0,20,43,0,16,0,0,49,21,34,45,0,0,0,0,0,0,0,0,0,0,0,0,0,0,0,0,0,0,0,0],"split_type":[0,0,0,0,0,0,0,0,0,0,0,0,0,0,0,0,0,0,0,0,0,0,0,0,0,0,0,0,0,0,0,0,0,0,0,0,0,0,0,0,0,0,0,0,0,0,0,0,0],"sum_hessian":[1.3530746E3,2.491939E2,1.1038807E3,1.7536124E2,7.383266E1,1.6603716E2,9.3784357E2,8.344893E1,9.19123E1,6.35489E1,1.0283755E1,1.4210269E2,2.393447E1,3.1707516E2,6.207684E2,2.9012785E1,5.4436146E1,7.710464E1,1.4807663E1,2.425176E1,3.9297142E1,1.2750086E1,1.293526E2,1.244691E1,1.148756E1,1.394271E2,1.7764806E2,2.1022548E2,4.105429E2,1.9000986E1,1.0011799E1,3.1950428E1,2.248572E1,5.4772472E1,2.233216E1,1.41081085E1,1.0143652E1,2.9055098E1,1.02420435E1,6.211738E1,6.723522E1,9.539597E1,4.4031124E1,4.5414062E1,1.32234E2,1.4720381E2,6.3021664E1,3.530629E2,5.748003E1],"tree_param":{"num_deleted":"0","num_feature":"51","num_nodes":"49","size_leaf_vector":"1"}},{"base_weights":[5.5595892E-3,9.198602E-2,-7.072735E-1,-2.5443116E-2,1.1488495E-1,-9.679537E-1,5.3861034E-1,-6.0263984E-2,3.9151993E-1,3.3908915E-3,-1.2087021E0,1.6353726E-2,-1.5352397E-3,-4.7462758E-1,1.0969423E-1,5.9300315E-1,1.612905E-1,-1.7765725E-1,-1.5073543E0,-8.666514E-3,8.63671E-3,2.7187297E-3,-9.609615E-3,8.71376E-3,-8.043081E-3,-3.756817E-3,6.7563485E-3,-1.1809886E-2,8.239359E-3,-2.2852628E-2,-4.5290827E-3],"categories":[],"categories_nodes":[],"categories_segments":[],"categories_sizes":[],"default_left":[0,0,0,0,0,0,0,0,0,0,0,0,0,0,0,0,0,0,0,0,0,0,0,0,0,0,0,0,0,0,0],"id":18,"left_children":[1,3,5,-1,7,9,11,13,15,-1,17,-1,-1,19,21,23,25,27,29,-1,-1,-1,-1,-1,-1,-1,-1,-1,-1,-1,-1],"loss_changes":[8.373168E1,5.811207E1,4.903321E1,0E0,5.8314606E1,3.718489E1,1.3543617E1,5.211845E1,2.134816E1,0E0,3.0917892E1,0E0,0E0,5.095432E1,4.659417E1,2.733142E1,3.7179543E1,1.7305319E1,2.359137E1,0E0,0E0,0E0,0E0,0E0,0E0,0E0,0E0,0E0,0E0,0E0,0E0],"parents":[2147483647,0,0,1,1,2,2,4,4,5,5,6,6,7,7,8,8,10,10,13,13,14,14,15,15,16,16,17,17,18,18],"right_children":[2,4,6,-1,8,10,12,14,16,-1,18,-1,-1,20,22,24,26,28,30,-1,-1,-1,-1,-1,-1,-1,-1,-1,-1,-1,-1],"split_conditions":[2.5194478E0,-1.1933962E1,3.2702164E1,-2.5443116E-2,7.2332016E1,-4.2700005E0,-2.600313E1,-5.4012847E-1,1.276433E0,3.3908915E-3,1.0740752E1,1.6353726E-2,-1.5352397E-3,5.3E1,7.2E1,2.500925E1,7.6155386E0,1.1390403E1,6.9E-1,-8.666514E-3,8.63671E-3,2.7187297E-3,-9.609615E-3,8.71376E-3,-8.043081E-3,-3.756817E-3,6.7563485E-3,-1.1809886E-2,8.239359E-3,-2.2852628E-2,-4.5290827E-3],"split_indices":[2,8,42,0,16,48,6,47,10,0,15,0,0,29,29,30,8,8,34,0,0,0,0,0,0,0,0,0,0,0,0],"split_type":[0,0,0,0,0,0,0,0,0,0,0,0,0,0,0,0,0,0,0,0,0,0,0,0,0,0,0,0,0,0,0],"sum_hessian":[1.3548052E3,1.210295E3,1.4451006E2,1.0876942E1,1.1994182E3,1.2000438E2,2.450567E1,7.354356E2,4.6398254E2,1.952116E1,1.0048322E2,1.0528305E1,1.39773655E1,2.1276028E2,5.2267535E2,2.452174E2,2.1876514E2,2.3498657E1,7.698456E1,1.8189572E2,3.0864563E1,4.6873074E2,5.3944595E1,2.2997758E2,1.5239818E1,9.770855E1,1.2105659E2,1.2213625E1,1.1285033E1,6.100429E1,1.5980269E1],"tree_param":{"num_deleted":"0","num_feature":"51","num_nodes":"31","size_leaf_vector":"1"}},{"base_weights":[-1.6377673E-2,-2.09588E-1,2.3113948E-1,1.9584297E-1,-4.3822837E-1,-1.862126E-2,2.801091E-1,1.3577161E-2,1.0257932E0,-5.1604253E-1,9.243303E-1,-4.9072343E-1,3.9050117E-1,-1.7173223E-2,1.0855828E-1,5.61736E-1,1.6652752E-2,-6.946833E-1,1.9986616E-1,1.5003145E-2,5.5275355E-3,-2.0934321E-2,-5.3388532E-2,-1.2589666E-2,4.275419E-1,9.847212E-3,-1.1966102E-3,1.2129172E-2,7.458387E-4,-1.1313522E-2,5.0177384E-4,7.666051E-3,-1.3571078E-2,6.8269777E-3,-1.1668082E-2,9.382963E-3,2.6710748E-3],"categories":[],"categories_nodes":[],"categories_segments":[],"categories_sizes":[],"default_left":[0,0,0,0,0,0,0,0,0,0,0,0,0,0,0,0,0,0,0,0,0,0,0,0,0,0,0,0,0,0,0,0,0,0,0,0,0],"id":19,"left_children":[1,3,5,7,9,-1,11,13,15,17,19,21,23,-1,25,27,-1,29,31,-1,-1,-1,33,-1,35,-1,-1,-1,-1,-1,-1,-1,-1,-1,-1,-1,-1],"loss_changes":[6.403558E1,6.994336E1,4.9317833E1,4.115323E1,5.2215446E1,0E0,4.9172897E1,2.9349583E1,4.305355E0,5.886547E1,1.9118118E0,3.600666E1,2.6524216E1,0E0,2.8695421E1,4.1682477E0,0E0,5.0763107E1,4.822416E1,0E0,0E0,0E0,2.8923372E1,0E0,3.231501E1,0E0,0E0,0E0,0E0,0E0,0E0,0E0,0E0,0E0,0E0,0E0,0E0],"parents":[2147483647,0,0,1,1,2,2,3,3,4,4,6,6,7,7,8,8,9,9,10,10,11,11,12,12,14,14,15,15,17,17,18,18,22,22,24,24],"right_children":[2,4,6,8,10,-1,12,14,16,18,20,22,24,-1,26,28,-1,30,32,-1,-1,-1,34,-1,36,-1,-1,-1,-1,-1,-1,-1,-1,-1,-1,-1,-1],"split_conditions":[2.7024415E-1,9.712969E0,-1.0998664E1,2.3449643E0,6.411946E0,-1.862126E-2,-4.5E-1,-7.1965855E-1,7.934927E1,6.8E-1,7.4322655E1,1.210499E2,6.1920013E0,-1.7173223E-2,-1.8133417E1,6.1291477E1,1.6652752E-2,1.4257587E2,8.090725E-1,1.5003145E-2,5.5275355E-3,-2.0934321E-2,1.1615207E1,-1.2589666E-2,1.0810727E2,9.847212E-3,-1.1966102E-3,1.2129172E-2,7.458387E-4,-1.1313522E-2,5.0177384E-4,7.666051E-3,-1.3571078E-2,6.8269777E-3,-1.1668082E-2,9.382963E-3,2.6710748E-3],"split_indices":[39,15,8,45,27,0,34,47,25,34,25,36,15,0,6,25,0,40,14,0,0,0,37,0,25,0,0,0,0,0,0,0,0,0,0,0,0],"split_type":[0,0,0,0,0,0,0,0,0,0,0,0,0,0,0,0,0,0,0,0,0,0,0,0,0,0,0,0,0,0,0,0,0,0,0,0,0],"sum_hessian":[1.3341268E3,7.496334E2,5.844934E2,2.7032385E2,4.7930954E2,1.4492343E1,5.7000104E2,2.237563E2,4.6567547E1,4.549024E2,2.4407139E1,7.026777E1,4.9973328E2,1.2519883E1,2.1123642E2,2.0140392E1,2.6427155E1,3.6419733E2,9.070508E1,1.3935507E1,1.0471633E1,1.755139E1,5.271638E1,1.1438216E1,4.8829507E2,4.797395E1,1.6326248E2,1.011693E1,1.0023462E1,2.8956454E2,7.463279E1,6.992071E1,2.0784372E1,3.180693E1,2.090945E1,2.017514E2,2.8654367E2],"tree_param":{"num_deleted":"0","num_feature":"51","num_nodes":"37","size_leaf_vector":"1"}},{"base_weights":[5.3758826E-2,3.4311968E-1,-6.3646585E-2,-4.7816816E-1,4.957659E-1,-1.20327964E-1,8.430661E-1,1.93479E-1,-2.139347E-2,-8.991999E-3,5.597813E-1,-3.8598108E-1,5.5741284E-2,1.1668739E0,5.074879E-4,6.011979E-1,-5.2753263E-3,7.213474E-1,1.5294226E-1,-5.567402E-1,2.5278616E-1,-2.030874E-1,2.9523218E-1,1.7195936E-2,6.659346E-3,1.4456713E-2,-8.7040296E-4,-7.646627E-4,1.0264143E-2,-4.9241493E-3,1.37959765E-2,-2.2398477E-2,-5.795521E-3,-1.2907972E-2,8.662201E-3,-7.7896016E-3,6.856076E-4,7.3352945E-3,2.9241492E-5],"categories":[],"categories_nodes":[],"categories_segments":[],"categories_sizes":[],"default_left":[0,0,0,0,0,0,0,0,0,0,0,0,0,0,0,0,0,0,0,0,0,0,0,0,0,0,0,0,0,0,0,0,0,0,0,0,0,0,0],"id":20,"left_children":[1,3,5,7,9,11,13,15,-1,-1,17,19,21,23,-1,25,-1,27,29,31,33,35,37,-1,-1,-1,-1,-1,-1,-1,-1,-1,-1,-1,-1,-1,-1,-1,-1],"loss_changes":[4.6641975E1,5.025181E1,5.0407974E1,5.151516E1,2.6658424E1,4.31892E1,1.4815182E1,1.1131319E1,0E0,0E0,2.0686836E1,4.0491978E1,3.4637264E1,2.8021965E0,0E0,9.613925E0,0E0,1.434774E1,4.7759686E1,3.4146133E1,4.3862427E1,2.8021141E1,2.3508509E1,0E0,0E0,0E0,0E0,0E0,0E0,0E0,0E0,0E0,0E0,0E0,0E0,0E0,0E0,0E0,0E0],"parents":[2147483647,0,0,1,1,2,2,3,3,4,4,5,5,6,6,7,7,10,10,11,11,12,12,13,13,15,15,17,17,18,18,19,19,20,20,21,21,22,22],"right_children":[2,4,6,8,10,12,14,16,-1,-1,18,20,22,24,-1,26,-1,28,30,32,34,36,38,-1,-1,-1,-1,-1,-1,-1,-1,-1,-1,-1,-1,-1,-1,-1,-1],"split_conditions":[9.459901E0,2.3809524E-1,1.5373589E2,3.9E1,1.4133685E0,-1.8828744E-1,1.2072187E2,-1.3999939E-1,-2.139347E-2,-8.991999E-3,6.3636364E1,4.8445514E-1,1.63E0,1.3622487E0,5.074879E-4,7.9871097E0,-5.2753263E-3,-3.8439798E-1,1.1104037E1,-6.023714E-1,-2.412357E0,1.1269495E2,1.19675316E2,1.7195936E-2,6.659346E-3,1.4456713E-2,-8.7040296E-4,-7.646627E-4,1.0264143E-2,-4.9241493E-3,1.37959765E-2,-2.2398477E-2,-5.795521E-3,-1.2907972E-2,8.662201E-3,-7.7896016E-3,6.856076E-4,7.3352945E-3,2.9241492E-5],"split_indices":[15,38,40,29,45,39,25,48,0,0,43,21,50,5,0,15,0,2,8,2,8,41,25,0,0,0,0,0,0,0,0,0,0,0,0,0,0,0,0],"split_type":[0,0,0,0,0,0,0,0,0,0,0,0,0,0,0,0,0,0,0,0,0,0,0,0,0,0,0,0,0,0,0,0,0,0,0,0,0,0,0],"sum_hessian":[1.368323E3,3.9376108E2,9.7456195E2,6.0823666E1,3.329374E2,9.1929395E2,5.5267982E1,4.0164597E1,2.065907E1,1.5602851E1,3.1733456E2,3.6542914E2,5.538648E2,3.8540245E1,1.672774E1,2.407695E1,1.6087645E1,2.2565442E2,9.168015E1,2.8868332E2,7.674584E1,2.6621982E2,2.8764502E2,2.8186049E1,1.0354196E1,1.2592125E1,1.1484825E1,2.0839851E1,2.0481456E2,5.881904E1,3.286112E1,2.01297E1,2.6855362E2,1.8402433E1,5.8343403E1,1.0209896E2,1.6412083E2,1.4648279E2,1.4116223E2],"tree_param":{"num_deleted":"0","num_feature":"51","num_nodes":"39","size_leaf_vector":"1"}},{"base_weights":[-7.6472904E-3,8.549563E-2,-4.2543882E-1,3.4861964E-1,-1.0933591E-1,-8.669411E-1,1.0757512E-1,7.663343E-1,1.0350519E-1,-7.526435E-1,8.461014E-2,-5.419705E-1,-1.5212933E0,-6.945909E-1,5.1619995E-1,9.648928E-1,2.4807803E-1,5.366876E-1,-1.4145091E-1,-2.0628791E-2,-1.1191785E0,-5.791667E-1,2.3438013E-1,-8.895819E-1,1.1005979E-2,-7.429313E-3,-2.7018487E-2,3.6824362E-3,-1.401267E0,-9.545962E-2,9.2528796E-1,1.4550028E-2,4.6606883E-3,1.0019988E-2,-1.6701603E-2,-1.3606007E-2,9.848068E-3,7.456076E-3,-6.9123306E-3,1.0500955E-2,-9.952898E-3,7.096436E-3,-1.7148467E-2,-1.2580946E-2,6.985528E-3,-1.537701E-2,3.6613313E-3,-3.6788296E-3,-1.9200103E-2,-8.134658E-3,-2.4379732E-2,-9.967693E-3,1.1019942E-2,1.5805185E-2,-1.13131595E-4],"categories":[],"categories_nodes":[],"categories_segments":[],"categories_sizes":[],"default_left":[0,0,0,0,0,0,0,0,0,0,0,0,0,0,0,0,0,0,0,0,0,0,0,0,0,0,0,0,0,0,0,0,0,0,0,0,0,0,0,0,0,0,0,0,0,0,0,0,0,0,0,0,0,0,0],"id":21,"left_children":[1,3,5,7,9,11,13,15,17,19,21,23,25,27,29,31,33,35,37,39,41,43,45,47,-1,-1,-1,-1,49,51,53,-1,-1,-1,-1,-1,-1,-1,-1,-1,-1,-1,-1,-1,-1,-1,-1,-1,-1,-1,-1,-1,-1,-1,-1],"loss_changes":[5.191179E1,5.6005848E1,5.7515686E1,4.7313522E1,7.8577965E1,2.6195213E1,3.766913E1,1.695707E1,3.159423E1,3.8992867E1,4.8499363E1,4.7145973E1,2.048986E1,2.8042238E1,1.925575E1,1.148037E1,4.456086E1,4.177633E1,5.5659527E1,3.40803E1,3.742373E1,4.200689E1,3.0020195E1,2.6594051E1,0E0,0E0,0E0,0E0,5.724945E0,2.2845007E1,1.3278877E1,0E0,0E0,0E0,0E0,0E0,0E0,0E0,0E0,0E0,0E0,0E0,0E0,0E0,0E0,0E0,0E0,0E0,0E0,0E0,0E0,0E0,0E0,0E0,0E0],"parents":[2147483647,0,0,1,1,2,2,3,3,4,4,5,5,6,6,7,7,8,8,9,9,10,10,11,11,12,12,13,13,14,14,15,15,16,16,17,17,18,18,19,19,20,20,21,21,22,22,23,23,28,28,29,29,30,30],"right_children":[2,4,6,8,10,12,14,16,18,20,22,24,26,28,30,32,34,36,38,40,42,44,46,48,-1,-1,-1,-1,50,52,54,-1,-1,-1,-1,-1,-1,-1,-1,-1,-1,-1,-1,-1,-1,-1,-1,-1,-1,-1,-1,-1,-1,-1,-1],"split_conditions":[8.1937486E-1,1.0701334E1,-5.596474E0,1.502E0,4.1897232E1,6.640316E1,5.13834E0,1.02222805E1,-2.2755377E0,9.881423E0,1.308E0,9.899158E0,1.1268009E0,-1.2E-1,2.5253034E0,1.2685068E1,-1.9779709E1,-2.7028778E0,5.15625E1,5.6162906E0,-2.8E0,1.7561754E0,-1.0998664E1,2.0299572E-1,1.1005979E-2,-7.429313E-3,-2.7018487E-2,3.6824362E-3,-1.4876159E1,1.2080608E1,3.0257857E-1,1.4550028E-2,4.6606883E-3,1.0019988E-2,-1.6701603E-2,-1.3606007E-2,9.848068E-3,7.456076E-3,-6.9123306E-3,1.0500955E-2,-9.952898E-3,7.096436E-3,-1.7148467E-2,-1.2580946E-2,6.985528E-3,-1.537701E-2,3.6613313E-3,-3.6788296E-3,-1.9200103E-2,-8.134658E-3,-2.4379732E-2,-9.967693E-3,1.1019942E-2,1.5805185E-2,-1.13131595E-4],"split_indices":[18,30,11,31,20,43,43,15,33,20,31,8,18,19,8,37,11,35,32,8,9,39,8,23,0,0,0,0,6,33,22,0,0,0,0,0,0,0,0,0,0,0,0,0,0,0,0,0,0,0,0,0,0,0,0],"split_type":[0,0,0,0,0,0,0,0,0,0,0,0,0,0,0,0,0,0,0,0,0,0,0,0,0,0,0,0,0,0,0,0,0,0,0,0,0,0,0,0,0,0,0,0,0,0,0,0,0,0,0,0,0,0,0],"sum_hessian":[1.3286427E3,1.0878813E3,2.4076135E2,4.6216196E2,6.257194E2,1.3092114E2,1.098402E2,1.6887642E2,2.9328552E2,1.4339966E2,4.8231973E2,9.053752E1,4.038362E1,3.643258E1,7.340762E1,1.2047358E2,4.840284E1,1.0499458E2,1.8829094E2,4.8773045E1,9.462662E1,8.741371E1,3.9490604E2,7.3293175E1,1.7244352E1,1.742147E1,2.296215E1,1.5811315E1,2.0621265E1,3.0100416E1,4.3307205E1,9.207411E1,2.8399471E1,3.6948353E1,1.1454487E1,1.2148629E1,9.284595E1,6.636249E1,1.2192846E2,2.2960457E1,2.5812588E1,1.0480428E1,8.414619E1,6.464227E1,2.2771437E1,1.1703351E1,3.832027E2,3.8699375E1,3.4593796E1,1.0399744E1,1.0221521E1,1.7868366E1,1.2232049E1,3.2037174E1,1.1270031E1],"tree_param":{"num_deleted":"0","num_feature":"51","num_nodes":"55","size_leaf_vector":"1"}},{"base_weights":[3.1201892E-2,-1.4713702E-1,3.2413787E-1,-2.3928326E-2,-7.954217E-1,4.0268302E-1,-4.150088E-1,-5.7469696E-1,1.4262344E-1,-1.7664622E0,-1.9756676E-1,4.7593462E-1,-6.883334E-1,-1.0206668E0,1.1259685E-2,-9.2547154E-1,5.5006087E-1,7.69806E-1,1.0531105E-2,-1.2900597E-2,-2.5586044E-2,-1.9627377E-2,2.7005538E-1,7.1128976E-1,2.2919656E-1,-2.1628443E-2,2.001488E-3,-1.5187758E-3,-2.6028834E-2,-1.5444862E-2,2.9330435E-3,1.396469E-2,-9.991738E-3,1.1428828E-2,-1.2262852E-3,3.7604298E-3,-3.932822E-3,-6.800762E-3,1.2565033E-2,9.9544395E-3,-6.145125E-3,-7.3148087E-3,6.5500126E-3],"categories":[],"categories_nodes":[],"categories_segments":[],"categories_sizes":[],"default_left":[0,0,0,0,0,0,0,0,0,0,0,0,0,0,0,0,0,0,0,0,0,0,0,0,0,0,0,0,0,0,0,0,0,0,0,0,0,0,0,0,0,0,0],"id":22,"left_children":[1,3,5,7,9,11,13,15,17,19,21,23,25,27,-1,29,31,33,35,-1,-1,-1,37,39,41,-1,-1,-1,-1,-1,-1,-1,-1,-1,-1,-1,-1,-1,-1,-1,-1,-1,-1],"loss_changes":[7.0680176E1,6.7064995E1,3.0130047E1,6.529353E1,7.687464E1,3.787657E1,4.1606956E1,6.647597E1,4.5194553E1,3.7427979E0,5.46355E1,2.48768E1,2.6190413E1,3.1547321E1,0E0,4.1732437E1,3.1357042E1,1.029089E1,4.0982933E1,0E0,0E0,0E0,3.86107E1,1.824421E1,4.960572E1,0E0,0E0,0E0,0E0,0E0,0E0,0E0,0E0,0E0,0E0,0E0,0E0,0E0,0E0,0E0,0E0,0E0,0E0],"parents":[2147483647,0,0,1,1,2,2,3,3,4,4,5,5,6,6,7,7,8,8,9,9,10,10,11,11,12,12,13,13,15,15,16,16,17,17,18,18,22,22,23,23,24,24],"right_children":[2,4,6,8,10,12,14,16,18,20,22,24,26,28,-1,30,32,34,36,-1,-1,-1,38,40,42,-1,-1,-1,-1,-1,-1,-1,-1,-1,-1,-1,-1,-1,-1,-1,-1,-1,-1],"split_conditions":[7.2332016E1,8.1937486E-1,2.416442E0,-6.1905366E-1,1.587E1,5.502858E0,2.098E0,1.4540688E2,-2.5446074E1,-1.0186924E0,1.019612E0,1.276433E0,9.206349E-1,1.58E0,1.1259685E-2,4.5E1,1E-1,2.958864E0,-8.039104E-1,-1.2900597E-2,-2.5586044E-2,-1.9627377E-2,4.034761E0,9.21875E1,6.855553E0,-2.1628443E-2,2.001488E-3,-1.5187758E-3,-2.6028834E-2,-1.5444862E-2,2.9330435E-3,1.396469E-2,-9.991738E-3,1.1428828E-2,-1.2262852E-3,3.7604298E-3,-3.932822E-3,-6.800762E-3,1.2565033E-2,9.9544395E-3,-6.145125E-3,-7.3148087E-3,6.5500126E-3],"split_indices":[16,18,2,47,0,4,31,41,11,10,5,10,38,50,0,29,9,35,13,0,0,0,4,32,8,0,0,0,0,0,0,0,0,0,0,0,0,0,0,0,0,0,0],"split_type":[0,0,0,0,0,0,0,0,0,0,0,0,0,0,0,0,0,0,0,0,0,0,0,0,0,0,0,0,0,0,0,0,0,0,0,0,0,0,0,0,0,0,0],"sum_hessian":[1.3480199E3,8.385084E2,5.0951154E2,7.06821E2,1.3168745E2,4.6166342E2,4.784811E1,1.6282326E2,5.439977E2,4.8314774E1,8.337267E1,4.3397073E2,2.7692705E1,3.2979214E1,1.48688965E1,1.24494736E2,3.832853E1,9.2491844E1,4.5150586E2,1.435659E1,3.3958183E1,2.0236137E1,6.313654E1,2.1960333E2,2.1436739E2,1.1604499E1,1.6088207E1,1.8903769E1,1.4075446E1,1.0017512E2,2.4319613E1,2.7616718E1,1.0711811E1,8.107225E1,1.1419594E1,2.3894989E2,2.1255597E2,2.9924711E1,3.3211826E1,2.0902145E2,1.05818815E1,5.5138878E1,1.592285E2],"tree_param":{"num_deleted":"0","num_feature":"51","num_nodes":"43","size_leaf_vector":"1"}},{"base_weights":[1.5642786E-2,-5.204706E-1,1.2706156E-1,-8.399686E-1,2.5006965E-1,-1.1375462E-1,3.2598534E-1,5.6811264E-3,-1.0097378E0,1.5081696E-2,-7.366673E-2,-2.2768816E-1,6.998631E-1,-5.6126964E-1,3.9608288E-1,3.4866612E-2,-1.1739919E0,3.5773024E-1,-1.0716313E-2,-4.267657E-1,3.287276E-1,1.099172E0,-5.507673E-3,-1.1056341E0,1.0544996E-2,4.5019266E-1,-7.4483216E-1,8.801977E-3,-7.84633E-3,-1.7670834E-2,-1.1020891E-3,-4.742429E-3,1.0686245E-2,-2.091782E-3,-1.5520327E-2,-8.137587E-3,7.0392443E-3,3.9179376E-3,1.677891E-2,-2.009851E-3,-2.3977505E-2,-8.355516E-3,6.360263E-3,7.4414215E-3,-2.3292176E-2],"categories":[],"categories_nodes":[],"categories_segments":[],"categories_sizes":[],"default_left":[0,0,0,0,0,0,0,0,0,0,0,0,0,0,0,0,0,0,0,0,0,0,0,0,0,0,0,0,0,0,0,0,0,0,0,0,0,0,0,0,0,0,0,0,0],"id":23,"left_children":[1,3,5,7,9,11,13,-1,15,-1,17,19,21,23,25,27,29,31,-1,33,35,37,-1,39,-1,41,43,-1,-1,-1,-1,-1,-1,-1,-1,-1,-1,-1,-1,-1,-1,-1,-1,-1,-1],"loss_changes":[8.221985E1,5.8859413E1,5.4708923E1,3.774408E1,2.1663818E1,4.830607E1,3.9403778E1,0E0,2.5782028E1,0E0,1.8870375E1,5.0823322E1,3.0099277E1,3.7431118E1,3.6651352E1,1.0563322E1,2.837471E1,1.3540822E1,0E0,6.902301E1,2.6641178E1,6.918171E0,0E0,2.4261154E1,0E0,2.9039207E1,4.1282776E1,0E0,0E0,0E0,0E0,0E0,0E0,0E0,0E0,0E0,0E0,0E0,0E0,0E0,0E0,0E0,0E0,0E0,0E0],"parents":[2147483647,0,0,1,1,2,2,3,3,4,4,5,5,6,6,8,8,10,10,11,11,12,12,13,13,14,14,15,15,16,16,17,17,19,19,20,20,21,21,23,23,25,25,26,26],"right_children":[2,4,6,8,10,12,14,-1,16,-1,18,20,22,24,26,28,30,32,-1,34,36,38,-1,40,-1,42,44,-1,-1,-1,-1,-1,-1,-1,-1,-1,-1,-1,-1,-1,-1,-1,-1,-1,-1],"split_conditions":[-7.634595E-1,1.523574E2,-2.7357098E-1,8.10361E1,-8.857982E-1,2.0344062E0,1.177E1,5.6811264E-3,-1.736711E0,1.5081696E-2,1.1796454E0,5.7E-1,7.489067E0,3.4153109E0,1.960311E2,1.66E0,8.6E-1,7.114625E1,-1.0716313E-2,1.612009E1,8.790826E1,1.2723589E2,-5.507673E-3,6.7193675E0,1.0544996E-2,3.952569E-1,1.421975E1,8.801977E-3,-7.84633E-3,-1.7670834E-2,-1.1020891E-3,-4.742429E-3,1.0686245E-2,-2.091782E-3,-1.5520327E-2,-8.137587E-3,7.0392443E-3,3.9179376E-3,1.677891E-2,-2.009851E-3,-2.3977505E-2,-8.355516E-3,6.360263E-3,7.4414215E-3,-2.3292176E-2],"split_indices":[17,41,47,41,47,45,0,0,39,0,18,34,30,27,41,31,34,16,0,30,25,40,0,43,0,49,15,0,0,0,0,0,0,0,0,0,0,0,0,0,0,0,0,0,0],"split_type":[0,0,0,0,0,0,0,0,0,0,0,0,0,0,0,0,0,0,0,0,0,0,0,0,0,0,0,0,0,0,0,0,0,0,0,0,0,0,0,0,0,0,0,0,0],"sum_hessian":[1.3717766E3,2.3438147E2,1.1373951E3,1.6559294E2,6.878852E1,5.148295E2,6.225656E2,1.8837503E1,1.4675545E2,1.6197765E1,5.2590755E1,4.5321378E2,6.1615765E1,4.4254776E1,5.7831085E2,2.0142542E1,1.266129E2,3.4357227E1,1.8233526E1,3.3430383E2,1.1890995E2,4.5619644E1,1.5996119E1,3.21531E1,1.2101676E1,5.535988E2,2.4712027E1,1.0014499E1,1.0128043E1,1.05941666E2,2.0671234E1,1.3743391E1,2.0613836E1,2.5250441E2,8.179944E1,2.1229158E1,9.7680786E1,1.0879878E1,3.473977E1,1.5713607E1,1.6439493E1,2.0877098E1,5.327217E2,1.15251E1,1.3186927E1],"tree_param":{"num_deleted":"0","num_feature":"51","num_nodes":"45","size_leaf_vector":"1"}},{"base_weights":[3.5718318E-2,-7.5515576E-2,4.8013955E-1,3.1023082E-1,-2.4813025E-1,8.3775425E-1,1.854023E-1,7.1203333E-1,-6.1216883E-2,4.7560406E-1,-3.442315E-1,5.949542E-1,1.6677823E-2,-5.964082E-1,4.253903E-1,3.8119575E-1,1.187936E0,-6.879008E-1,4.650641E-1,7.2531873E-1,-4.579102E-3,-6.2244457E-1,6.889671E-2,-4.132504E-3,8.502505E-1,-2.2540845E-2,3.0030257E-1,8.866078E-1,-6.2122643E-2,-3.8703796E-3,1.1884271E-2,1.6843313E-2,6.3922997E-3,-2.6271176E-2,-4.4575385E-3,1.2581253E-2,1.946724E-4,1.1966713E-2,-1.6497226E-3,-8.8460455E-3,1.0803359E-2,-1.795457E-2,2.0801427E-3,1.9548233E-3,1.333517E-2,7.047034E-4,6.1276364E-3,1.449025E-2,-1.8064692E-3,-1.642623E-2,3.7963102E-3],"categories":[],"categories_nodes":[],"categories_segments":[],"categories_sizes":[],"default_left":[0,0,0,0,0,0,0,0,0,0,0,0,0,0,0,0,0,0,0,0,0,0,0,0,0,0,0,0,0,0,0,0,0,0,0,0,0,0,0,0,0,0,0,0,0,0,0,0,0,0,0],"id":24,"left_children":[1,3,5,7,9,11,13,15,17,19,21,23,-1,25,27,29,31,33,35,37,-1,39,41,-1,43,-1,45,47,49,-1,-1,-1,-1,-1,-1,-1,-1,-1,-1,-1,-1,-1,-1,-1,-1,-1,-1,-1,-1,-1,-1],"loss_changes":[6.6720024E1,7.206643E1,2.8022758E1,5.0106487E1,5.2367065E1,1.1620781E1,2.9005714E1,2.4139038E1,5.8870167E1,1.9075302E1,7.614271E1,2.0426489E1,0E0,3.9440178E1,2.6569588E1,3.755978E1,3.910698E0,3.579822E1,2.2461624E1,1.2634766E1,0E0,4.072107E1,3.7294197E1,0E0,8.368839E0,0E0,8.8577104E-1,1.5639019E1,2.6888887E1,0E0,0E0,0E0,0E0,0E0,0E0,0E0,0E0,0E0,0E0,0E0,0E0,0E0,0E0,0E0,0E0,0E0,0E0,0E0,0E0,0E0,0E0],"parents":[2147483647,0,0,1,1,2,2,3,3,4,4,5,5,6,6,7,7,8,8,9,9,10,10,11,11,13,13,14,14,15,15,16,16,17,17,18,18,19,19,21,21,22,22,24,24,26,26,27,27,28,28],"right_children":[2,4,6,8,10,12,14,16,18,20,22,24,-1,26,28,30,32,34,36,38,-1,40,42,-1,44,-1,46,48,50,-1,-1,-1,-1,-1,-1,-1,-1,-1,-1,-1,-1,-1,-1,-1,-1,-1,-1,-1,-1,-1,-1],"split_conditions":[5.585236E2,9.507281E0,1.2586846E2,1.764E0,9.05191E1,4.9802372E1,1.112E0,3.0279896E-1,2.2730115E2,-1.1E-1,5E-1,4.1897232E1,1.6677823E-2,-1.6113085E-1,3.6135945E-1,9.59106E1,1.9174193E0,1.83E0,4.6875E1,2.7050337E-1,-4.579102E-3,4.738338E0,-6.03443E0,-4.132504E-3,1.379475E0,-2.2540845E-2,9.4071144E1,3.17211E1,4.7811458E-1,-3.8703796E-3,1.1884271E-2,1.6843313E-2,6.3922997E-3,-2.6271176E-2,-4.4575385E-3,1.2581253E-2,1.946724E-4,1.1966713E-2,-1.6497226E-3,-8.8460455E-3,1.0803359E-2,-1.795457E-2,2.0801427E-3,1.9548233E-3,1.333517E-2,7.047034E-4,6.1276364E-3,1.449025E-2,-1.8064692E-3,-1.642623E-2,3.7963102E-3],"split_indices":[26,15,41,31,36,20,31,39,26,19,34,16,0,47,21,36,45,31,32,22,0,2,27,0,5,0,16,46,21,0,0,0,0,0,0,0,0,0,0,0,0,0,0,0,0,0,0,0,0,0,0],"split_type":[0,0,0,0,0,0,0,0,0,0,0,0,0,0,0,0,0,0,0,0,0,0,0,0,0,0,0,0,0,0,0,0,0,0,0,0,0,0,0,0,0,0,0,0,0,0,0,0,0,0,0],"sum_hessian":[1.344832E3,1.0771101E3,2.677218E2,3.322519E2,7.448583E2,1.1881306E2,1.4890875E2,1.5862079E2,1.7363112E2,8.6092766E1,6.587655E2,8.174357E1,3.706949E1,3.4050613E1,1.1485815E2,9.625851E1,6.2362278E1,7.897522E1,9.46559E1,6.65446E1,1.9548162E1,3.930257E2,2.657398E2,1.7593811E1,6.414976E1,1.3839134E1,2.0211477E1,5.8068256E1,5.6789886E1,4.3190598E1,5.3067905E1,5.073549E1,1.1626789E1,1.3279954E1,6.569526E1,4.263711E1,5.201879E1,5.337288E1,1.3171723E1,3.7692227E2,1.6103401E1,1.3788747E1,2.5195107E2,1.4773245E1,4.937651E1,1.001007E1,1.0201407E1,4.678057E1,1.1287689E1,1.151163E1,4.5278255E1],"tree_param":{"num_deleted":"0","num_feature":"51","num_nodes":"51","size_leaf_vector":"1"}},{"base_weights":[1.9625263E-2,3.496636E-1,-1.3974184E-1,2.522092E-1,1.0847083E0,-4.3552607E-2,-6.589501E-1,3.921709E-1,-4.0905216E-1,4.7494746E-3,1.5882384E-2,-1.4205099E0,-0E0,-9.566563E-1,5.6398E-1,4.6883836E-1,-1.2631103E-2,8.921606E-3,-2.635352E-2,-2.4256025E-2,-7.967154E-3,-2.0846665E-1,2.0628722E-1,-6.1963713E-1,-2.536022E-2,-1.2774969E-3,1.4493997E-2,9.311016E-3,-1.2657324E-4,-1.0510258E-2,5.523608E-3,-5.389301E-3,3.87363E-3,-1.444159E-2,3.3844542E-3,-1.7859472E-2,1.4640273E-3],"categories":[],"categories_nodes":[],"categories_segments":[],"categories_sizes":[],"default_left":[0,0,0,0,0,0,0,0,0,0,0,0,0,0,0,0,0,0,0,0,0,0,0,0,0,0,0,0,0,0,0,0,0,0,0,0,0],"id":25,"left_children":[1,3,5,7,9,11,13,15,17,-1,-1,19,21,23,25,27,-1,29,-1,-1,-1,31,33,35,-1,-1,-1,-1,-1,-1,-1,-1,-1,-1,-1,-1,-1],"loss_changes":[7.145083E1,3.0923302E1,4.56247E1,3.6843002E1,4.3875847E0,4.6598106E1,5.336608E1,3.5570366E1,4.832762E1,0E0,0E0,5.928253E0,3.2536724E1,3.673098E1,1.1437189E1,3.842536E1,0E0,2.1188639E1,0E0,0E0,0E0,4.106176E1,2.9985537E1,5.202546E1,0E0,0E0,0E0,0E0,0E0,0E0,0E0,0E0,0E0,0E0,0E0,0E0,0E0],"parents":[2147483647,0,0,1,1,2,2,3,3,4,4,5,5,6,6,7,7,8,8,11,11,12,12,13,13,14,14,15,15,17,17,21,21,22,22,23,23],"right_children":[2,4,6,8,10,12,14,16,18,-1,-1,20,22,24,26,28,-1,30,-1,-1,-1,32,34,36,-1,-1,-1,-1,-1,-1,-1,-1,-1,-1,-1,-1,-1],"split_conditions":[9.712969E0,1.2092844E1,8.692514E-1,2.310249E0,1.286E1,9.253407E1,1.8757019E2,2.82E0,1.157676E2,4.7494746E-3,1.5882384E-2,1.1029449E0,2.3148821E-1,1.0778643E2,-3.9720207E-1,4E1,-1.2631103E-2,1.212E1,-2.635352E-2,-2.4256025E-2,-7.967154E-3,1.1671618E0,3.952569E-1,3.1225296E1,-2.536022E-2,-1.2774969E-3,1.4493997E-2,9.311016E-3,-1.2657324E-4,-1.0510258E-2,5.523608E-3,-5.389301E-3,3.87363E-3,-1.444159E-2,3.3844542E-3,-1.7859472E-2,1.4640273E-3],"split_indices":[15,8,14,35,0,24,41,50,36,0,0,45,39,25,13,29,0,0,0,0,0,13,49,43,0,0,0,0,0,0,0,0,0,0,0,0,0],"split_type":[0,0,0,0,0,0,0,0,0,0,0,0,0,0,0,0,0,0,0,0,0,0,0,0,0,0,0,0,0,0,0,0,0,0,0,0,0],"sum_hessian":[1.353448E3,4.399254E2,9.1352264E2,3.9141257E2,4.8512836E1,7.73088E2,1.4043462E2,3.2394965E2,6.746291E1,1.0195872E1,3.8316963E1,2.1377092E1,7.5171094E2,1.1341619E2,2.7018427E1,3.0845117E2,1.5498494E1,5.571471E1,1.17481985E1,1.1274024E1,1.0103068E1,3.7371597E2,3.7799496E2,8.8301796E1,2.511439E1,1.331812E1,1.3700307E1,1.9978261E2,1.0866856E2,1.7960833E1,3.775388E1,2.6447256E2,1.092434E2,1.3778023E1,3.6421695E2,4.195504E1,4.634676E1],"tree_param":{"num_deleted":"0","num_feature":"51","num_nodes":"37","size_leaf_vector":"1"}},{"base_weights":[2.7291095E-2,-1.3985172E-1,3.142874E-1,-5.0813353E-1,3.8962718E-2,5.257933E-1,-8.021504E-2,-6.809E-1,4.8208004E-1,1.4414996E-1,-1.0522968E0,6.052666E-1,-3.1921622E-1,-3.1835875E-1,9.6195227E-1,5.577302E-1,-8.6552465E-1,1.50810545E-2,-6.3490504E-3,3.216894E-1,-2.317953E-1,-2.5758758E-2,-2.5564859E-2,-3.950486E-3,6.556386E-1,4.2420323E-3,-1.5618845E-2,-1.5176733E0,-8.45231E-2,4.1459757E-3,1.581553E-2,1.4174347E-2,-1.4475439E-3,-1.7167501E-2,-5.932627E-3,-3.3626643E-3,5.8576646E-3,-1.9068224E-2,1.8952637E-4,-1.1420571E-2,1.0972717E-2,4.8856004E-3,1.029901E-2,-7.604211E-3,-2.7022338E-2,7.403986E-3,-7.942508E-3],"categories":[],"categories_nodes":[],"categories_segments":[],"categories_sizes":[],"default_left":[0,0,0,0,0,0,0,0,0,0,0,0,0,0,0,0,0,0,0,0,0,0,0,0,0,0,0,0,0,0,0,0,0,0,0,0,0,0,0,0,0,0,0,0,0,0,0],"id":26,"left_children":[1,3,5,7,9,11,13,15,17,19,21,23,25,27,29,31,33,-1,-1,35,37,-1,39,-1,41,-1,-1,43,45,-1,-1,-1,-1,-1,-1,-1,-1,-1,-1,-1,-1,-1,-1,-1,-1,-1,-1],"loss_changes":[6.506694E1,5.65294E1,4.1789463E1,4.8796883E1,6.678287E1,2.234703E1,4.4441517E1,5.6056793E1,3.0698282E1,3.5592667E1,5.002404E1,1.4249084E1,1.830401E1,4.0332767E1,4.7033825E0,1.234814E1,3.8390274E1,0E0,0E0,2.8890839E1,5.3261093E1,0E0,2.262779E1,0E0,1.0685516E1,0E0,0E0,9.593353E0,4.4930073E1,0E0,0E0,0E0,0E0,0E0,0E0,0E0,0E0,0E0,0E0,0E0,0E0,0E0,0E0,0E0,0E0,0E0,0E0],"parents":[2147483647,0,0,1,1,2,2,3,3,4,4,5,5,6,6,7,7,8,8,9,9,10,10,11,11,12,12,13,13,14,14,15,15,16,16,19,19,20,20,22,22,24,24,27,27,28,28],"right_children":[2,4,6,8,10,12,14,16,18,20,22,24,26,28,30,32,34,-1,-1,36,38,-1,40,-1,42,-1,-1,44,46,-1,-1,-1,-1,-1,-1,-1,-1,-1,-1,-1,-1,-1,-1,-1,-1,-1,-1],"split_conditions":[7.312253E1,-5.4012847E-1,8.3794464E1,1.482551E2,1.0252566E0,5.0199995E0,2.5E-1,6.223858E0,-8.6014813E-1,1.1843242E2,1.577E1,9.52381E-2,-2.5901413E0,2.4012534E-1,4.9693492E-1,7.095383E0,-6.813963E-1,1.50810545E-2,-6.3490504E-3,2.857143E-1,-9.867088E0,-2.5758758E-2,-6.112256E-1,-3.950486E-3,5.4157275E-1,4.2420323E-3,-1.5618845E-2,9.444938E1,-8.1468815E-1,4.1459757E-3,1.581553E-2,1.4174347E-2,-1.4475439E-3,-1.7167501E-2,-5.932627E-3,-3.3626643E-3,5.8576646E-3,-1.9068224E-2,1.8952637E-4,-1.1420571E-2,1.0972717E-2,4.8856004E-3,1.029901E-2,-7.604211E-3,-2.7022338E-2,7.403986E-3,-7.942508E-3],"split_indices":[16,47,49,41,18,44,19,30,47,25,0,38,33,27,22,15,13,0,0,38,11,0,17,0,13,0,0,24,35,0,0,0,0,0,0,0,0,0,0,0,0,0,0,0,0,0,0],"split_type":[0,0,0,0,0,0,0,0,0,0,0,0,0,0,0,0,0,0,0,0,0,0,0,0,0,0,0,0,0,0,0,0,0,0,0,0,0,0,0,0,0,0,0,0,0,0,0],"sum_hessian":[1.3514799E3,8.547103E2,4.9676944E2,2.780159E2,5.7669446E2,3.2297873E2,1.7379074E2,2.3742746E2,4.058844E1,5.279892E2,4.8705284E1,2.9592575E2,2.7052954E1,1.4290332E2,3.0887411E1,3.0107552E1,2.073199E2,2.347782E1,1.7110619E1,3.5899768E2,1.689915E2,2.3951994E1,2.4753288E1,1.4735731E1,2.8119003E2,1.6552973E1,1.049998E1,2.1075949E1,1.2182738E2,1.0910211E1,1.99772E1,1.5750799E1,1.4356752E1,9.251086E1,1.14809044E2,6.7026085E1,2.919716E2,2.575851E1,1.4323299E2,1.2519366E1,1.2233921E1,1.0176036E2,1.7942967E2,1.0177921E1,1.0898027E1,5.430544E1,6.7521935E1],"tree_param":{"num_deleted":"0","num_feature":"51","num_nodes":"47","size_leaf_vector":"1"}},{"base_weights":[1.1456369E-2,-6.1887596E-2,5.706198E-1,5.5469817E-1,-1.2457635E-1,-6.697681E-1,7.724216E-1,4.2851113E-2,9.209311E-1,-6.840666E-2,-9.0804154E-1,6.3231657E-3,-2.1329507E-2,9.3066335E-1,7.520709E-4,-8.289886E-1,1.3385786E-2,-1.0236388E-3,1.1306823E0,-2.546514E-1,3.631697E-1,4.4227157E-2,-1.2838619E0,1.1226043E0,2.0455265E-1,8.657506E-3,-1.0663648E-2,4.3872264E-3,-2.1762196E-2,4.2062546E-3,1.6841533E-2,-8.14852E-3,-7.6256966E-4,5.6833974E-3,-1.7063282E-2,-1.005134E-2,1.11883795E-2,-1.0267225E-2,-2.8058993E-2,1.575209E-2,3.921353E-3,-8.198011E-3,1.238827E-2],"categories":[],"categories_nodes":[],"categories_segments":[],"categories_sizes":[],"default_left":[0,0,0,0,0,0,0,0,0,0,0,0,0,0,0,0,0,0,0,0,0,0,0,0,0,0,0,0,0,0,0,0,0,0,0,0,0,0,0,0,0,0,0],"id":27,"left_children":[1,3,5,7,9,11,13,15,17,19,21,-1,-1,23,25,27,-1,-1,29,31,33,35,37,39,41,-1,-1,-1,-1,-1,-1,-1,-1,-1,-1,-1,-1,-1,-1,-1,-1,-1,-1],"loss_changes":[5.6337032E1,4.7056774E1,4.1145977E1,2.089761E1,4.835827E1,2.9336594E1,1.6805779E1,4.5371098E1,1.4003986E1,8.323401E1,2.6555782E1,0E0,0E0,1.531427E1,1.5998146E1,2.981743E1,0E0,0E0,6.808571E0,5.3641426E1,4.3877197E1,1.7562075E1,1.861338E1,6.802681E0,1.8925606E1,0E0,0E0,0E0,0E0,0E0,0E0,0E0,0E0,0E0,0E0,0E0,0E0,0E0,0E0,0E0,0E0,0E0,0E0],"parents":[2147483647,0,0,1,1,2,2,3,3,4,4,5,5,6,6,7,7,8,8,9,9,10,10,13,13,14,14,15,15,18,18,19,19,20,20,21,21,22,22,23,23,24,24],"right_children":[2,4,6,8,10,12,14,16,18,20,22,-1,-1,24,26,28,-1,-1,30,32,34,36,38,40,42,-1,-1,-1,-1,-1,-1,-1,-1,-1,-1,-1,-1,-1,-1,-1,-1,-1,-1],"split_conditions":[5.988381E2,-7.2451574E-1,-6.882374E-1,3.9928874E-1,1.6431143E0,1.516E1,1.3846466E2,1.3946942E2,-8.930169E-1,7.2332016E1,-1.2E-1,6.3231657E-3,-2.1329507E-2,9.051383E1,-2.6457334E-1,-1.3613491E1,1.3385786E-2,-1.0236388E-3,1.0932785E-1,-5.4012847E-1,8.670001E0,7.618706E0,-6.9999695E-2,1.0605025E0,-1.7E-1,8.657506E-3,-1.0663648E-2,4.3872264E-3,-2.1762196E-2,4.2062546E-3,1.6841533E-2,-8.14852E-3,-7.6256966E-4,5.6833974E-3,-1.7063282E-2,-1.005134E-2,1.11883795E-2,-1.0267225E-2,-2.8058993E-2,1.575209E-2,3.921353E-3,-8.198011E-3,1.238827E-2],"split_indices":[26,22,10,39,10,0,25,40,12,16,19,0,0,49,47,6,0,0,14,47,44,28,7,18,50,0,0,0,0,0,0,0,0,0,0,0,0,0,0,0,0,0,0],"split_type":[0,0,0,0,0,0,0,0,0,0,0,0,0,0,0,0,0,0,0,0,0,0,0,0,0,0,0,0,0,0,0,0,0,0,0,0,0,0,0,0,0,0,0],"sum_hessian":[1.3682528E3,1.211402E3,1.5685088E2,1.099207E2,1.1014812E3,2.110445E1,1.3574643E2,4.7067226E1,6.2853474E1,1.030361E3,7.112031E1,1.0262402E1,1.0842049E1,1.1215115E2,2.3595282E1,2.5351286E1,2.1715942E1,1.1093294E1,5.176018E1,7.205711E2,3.0978986E2,2.0681688E1,5.0438618E1,8.756885E1,2.4582302E1,1.3337236E1,1.0258045E1,1.1394415E1,1.395687E1,1.0974916E1,4.0785263E1,2.4198875E2,4.7858234E2,2.97536E2,1.2253819E1,1.0364709E1,1.0316978E1,3.595978E1,1.4478835E1,7.629037E1,1.1278481E1,1.1804201E1,1.2778101E1],"tree_param":{"num_deleted":"0","num_feature":"51","num_nodes":"43","size_leaf_vector":"1"}},{"base_weights":[6.291068E-2,-2.8708935E-1,1.9290952E-1,-4.9140987E-1,4.5698187E-1,2.7806517E-1,-4.8314732E-1,-7.1351683E-1,2.6582068E-1,6.9223595E-1,-1.2522916E-2,-2.171745E-1,3.7613642E-1,-1.1500746E0,4.1616272E-2,-1.2020372E0,-2.8438854E-1,7.187308E-1,-1.747309E-2,-2.8964255E-3,1.0183313E0,2.498956E-1,-6.2252575E-1,2.0370913E-1,6.110467E-1,-1.5751823E0,3.0334883E-3,-1.0348366E-2,4.1902062E-1,-1.8052964E-2,5.5408827E-3,-7.50422E-3,1.2426926E-2,-2.186667E-3,1.3869477E-2,2.9876619E-3,1.7130284E-2,8.69365E-3,-6.7826463E-3,-2.3852712E-2,-2.4756368E-3,4.6012932E-3,-5.8527817E-3,-4.9615577E-3,8.630429E-3,-2.5552081E-2,-9.136966E-3,9.479887E-3,-1.7907403E-3],"categories":[],"categories_nodes":[],"categories_segments":[],"categories_sizes":[],"default_left":[0,0,0,0,0,0,0,0,0,0,0,0,0,0,0,0,0,0,0,0,0,0,0,0,0,0,0,0,0,0,0,0,0,0,0,0,0,0,0,0,0,0,0,0,0,0,0,0,0],"id":28,"left_children":[1,3,5,7,9,11,13,15,17,19,-1,21,23,25,27,29,31,33,-1,-1,35,37,39,41,43,45,-1,-1,47,-1,-1,-1,-1,-1,-1,-1,-1,-1,-1,-1,-1,-1,-1,-1,-1,-1,-1,-1,-1],"loss_changes":[6.2916016E1,5.749672E1,5.8334663E1,5.013198E1,2.9261597E1,4.3764435E1,3.9934593E1,4.70496E1,5.300011E1,2.2125973E1,0E0,2.8740807E1,2.999643E1,3.056997E1,2.1899435E1,3.743849E1,4.863201E1,1.8410799E1,0E0,0E0,1.24999275E1,2.4657719E1,4.2001575E1,4.5131424E1,2.0333855E1,1.0314148E1,0E0,0E0,8.763384E0,0E0,0E0,0E0,0E0,0E0,0E0,0E0,0E0,0E0,0E0,0E0,0E0,0E0,0E0,0E0,0E0,0E0,0E0,0E0,0E0],"parents":[2147483647,0,0,1,1,2,2,3,3,4,4,5,5,6,6,7,7,8,8,9,9,11,11,12,12,13,13,14,14,15,15,16,16,17,17,20,20,21,21,22,22,23,23,24,24,25,25,28,28],"right_children":[2,4,6,8,10,12,14,16,18,20,-1,22,24,26,28,30,32,34,-1,-1,36,38,40,42,44,46,-1,-1,48,-1,-1,-1,-1,-1,-1,-1,-1,-1,-1,-1,-1,-1,-1,-1,-1,-1,-1,-1,-1],"split_conditions":[-5.840749E-1,2.9E1,9.941738E-1,1.482551E2,1.672012E1,2.3809524E-1,-1.1086544E1,-2.935063E-1,3.4312405E1,-3.5E-1,-1.2522916E-2,3.2381746E-1,1.16567345E2,3.834324E-1,7E0,4E-1,1.2671572E0,1.7428394E1,-1.747309E-2,-2.8964255E-3,2.4768456E2,1.123357E2,-7.3432785E-1,1.8383616E0,-2.3500004E0,1.3E-1,3.0334883E-3,-1.0348366E-2,2.7368778E-1,-1.8052964E-2,5.5408827E-3,-7.50422E-3,1.2426926E-2,-2.186667E-3,1.3869477E-2,2.9876619E-3,1.7130284E-2,8.69365E-3,-6.7826463E-3,-2.3852712E-2,-2.4756368E-3,4.6012932E-3,-5.8527817E-3,-4.9615577E-3,8.630429E-3,-2.5552081E-2,-9.136966E-3,9.479887E-3,-1.7907403E-3],"split_indices":[47,29,18,41,30,38,11,13,11,19,0,23,24,39,29,19,5,15,0,0,26,36,10,35,48,19,0,0,10,0,0,0,0,0,0,0,0,0,0,0,0,0,0,0,0,0,0,0,0],"split_type":[0,0,0,0,0,0,0,0,0,0,0,0,0,0,0,0,0,0,0,0,0,0,0,0,0,0,0,0,0,0,0,0,0,0,0,0,0,0,0,0,0,0,0,0,0,0,0,0,0],"sum_hessian":[1.3775103E3,3.7212302E2,1.00538727E3,2.926805E2,7.944249E1,8.9428906E2,1.1109819E2,2.2648529E2,6.619523E1,6.937722E1,1.0065272E1,1.4720915E2,7.470799E2,4.7699875E1,6.3398315E1,1.0377557E2,1.2270972E2,5.2900433E1,1.3294795E1,1.8319874E1,5.1057346E1,6.875054E1,7.845861E1,4.3364804E2,3.1343185E2,3.6294025E1,1.1405849E1,1.8591766E1,4.480655E1,9.246517E1,1.1310406E1,1.0004402E2,2.26657E1,1.5668137E1,3.7232296E1,1.60169E1,3.5040447E1,4.4620747E1,2.4129799E1,1.8052395E1,6.0406216E1,3.5206277E2,8.158527E1,1.7624361E1,2.958075E2,2.2214174E1,1.4079849E1,2.8045916E1,1.6760633E1],"tree_param":{"num_deleted":"0","num_feature":"51","num_nodes":"49","size_leaf_vector":"1"}},{"base_weights":[-8.515689E-3,-4.545083E-1,9.199656E-2,-6.764169E-1,1.8007988E-1,-2.0954897E-1,2.3840044E-1,-9.2836326E-1,4.044741E-1,5.5919987E-1,-1.0933345E-2,-4.626092E-1,3.5980764E-1,5.3928274E-1,7.590317E-2,-1.5662196E-1,-1.1885022E0,8.510413E-1,-4.0020198E-3,-2.0584348E-3,1.059863E0,-1.7788413E0,-2.0680198E-1,-1.2916704E-2,6.0965705E-1,-1.0950859E-2,6.3030696E-1,1.2415574E-1,-1.8515915E-2,6.9132037E-3,-1.4223237E-2,3.1774996E-3,-1.759603E-2,1.6539128E-2,2.8368686E-3,7.3710363E-3,1.5819438E-2,-2.7304232E-2,-8.644118E-3,8.1148534E-4,-1.22553455E-2,1.0260057E-2,-9.914386E-3,1.3355773E-2,5.172111E-3,3.8303677E-3,-2.0907307E-3],"categories":[],"categories_nodes":[],"categories_segments":[],"categories_sizes":[],"default_left":[0,0,0,0,0,0,0,0,0,0,0,0,0,0,0,0,0,0,0,0,0,0,0,0,0,0,0,0,0,0,0,0,0,0,0,0,0,0,0,0,0,0,0,0,0,0,0],"id":29,"left_children":[1,3,5,7,9,11,13,15,17,19,-1,21,23,25,27,29,31,33,-1,-1,35,37,39,-1,41,-1,43,45,-1,-1,-1,-1,-1,-1,-1,-1,-1,-1,-1,-1,-1,-1,-1,-1,-1,-1,-1],"loss_changes":[6.018074E1,3.5105713E1,4.8472115E1,5.094075E1,2.6928968E1,5.2149475E1,3.5963856E1,2.9491272E1,1.232192E1,1.838559E1,0E0,8.3045135E1,3.9669594E1,3.4087296E1,3.575183E1,2.8452177E1,3.046614E1,5.589039E0,0E0,0E0,6.4500046E-1,1.1927704E1,4.3116096E1,0E0,2.6894676E1,0E0,2.1655533E1,2.3723381E1,0E0,0E0,0E0,0E0,0E0,0E0,0E0,0E0,0E0,0E0,0E0,0E0,0E0,0E0,0E0,0E0,0E0,0E0,0E0],"parents":[2147483647,0,0,1,1,2,2,3,3,4,4,5,5,6,6,7,7,8,8,9,9,11,11,12,12,13,13,14,14,15,15,16,16,17,17,20,20,21,21,22,22,24,24,26,26,27,27],"right_children":[2,4,6,8,10,12,14,16,18,20,-1,22,24,26,28,30,32,34,-1,-1,36,38,40,-1,42,-1,44,46,-1,-1,-1,-1,-1,-1,-1,-1,-1,-1,-1,-1,-1,-1,-1,-1,-1,-1,-1],"split_conditions":[-7.8014684E-1,9.885237E0,-4.651917E-1,5.6194836E2,6.48855E-2,5.5E-1,-4.077722E0,9.838293E0,3.8569584E-1,2.03E0,-1.0933345E-2,2.5874254E-1,1.9727172E-1,3.952569E-1,3.9822395E1,-4.110674E-1,-1.5413282E1,2.4609277E-1,-4.0020198E-3,-2.0584348E-3,1.9589682E1,4.536874E-1,1.4903278E1,-1.2916704E-2,4.793487E1,-1.0950859E-2,4.347826E0,1.0701334E1,-1.8515915E-2,6.9132037E-3,-1.4223237E-2,3.1774996E-3,-1.759603E-2,1.6539128E-2,2.8368686E-3,7.3710363E-3,1.5819438E-2,-2.7304232E-2,-8.644118E-3,8.1148534E-4,-1.22553455E-2,1.0260057E-2,-9.914386E-3,1.3355773E-2,5.172111E-3,3.8303677E-3,-2.0907307E-3],"split_indices":[17,33,47,26,1,34,33,15,21,50,0,14,21,49,46,47,33,13,0,0,15,21,30,0,11,0,43,30,0,0,0,0,0,0,0,0,0,0,0,0,0,0,0,0,0,0,0],"split_type":[0,0,0,0,0,0,0,0,0,0,0,0,0,0,0,0,0,0,0,0,0,0,0,0,0,0,0,0,0,0,0,0,0,0,0,0,0,0,0,0,0,0,0,0,0,0,0],"sum_hessian":[1.3371815E3,2.444803E2,1.0927013E3,1.8110295E2,6.3377354E1,3.566235E2,7.3607776E2,1.4720288E2,3.3900066E1,4.7236416E1,1.6140938E1,2.4729427E2,1.0932922E2,2.559832E2,4.8009454E2,3.8167393E1,1.0903549E2,2.0666527E1,1.323354E1,1.999928E1,2.7237133E1,3.7826E1,2.0946828E2,1.5696631E1,9.363259E1,1.4386889E1,2.415963E2,4.6755188E2,1.2542665E1,2.2629059E1,1.5538336E1,1.2273461E1,9.6762024E1,1.0592215E1,1.0074313E1,1.0101678E1,1.7135456E1,2.6915394E1,1.0910605E1,1.5554987E2,5.3918396E1,8.3225815E1,1.0406774E1,8.2539314E1,1.5905699E2,2.9082492E2,1.7672696E2],"tree_param":{"num_deleted":"0","num_feature":"51","num_nodes":"47","size_leaf_vector":"1"}},{"base_weights":[2.546996E-2,-3.7701556E-1,1.16758876E-1,6.045774E-1,-5.6254625E-1,2.0168854E-1,-4.1051295E-1,-6.762928E-4,9.240742E-1,-1.7256338E-2,-9.052847E-1,4.0806237E-1,-7.5092437E-3,-5.8554244E-1,1.2133955E-2,4.6326024E-3,1.5704835E-2,2.3708773E-1,-1.600737E-2,-1.0555279E0,5.1177316E-3,5.61276E-1,-1.2428587E-1,8.202148E-2,-9.9893713E-1,-1.5950671E-1,-1.826622E0,6.9042947E-3,-1.0510948E-2,-1.813492E-2,-2.9945155E-3,7.877359E-3,-3.024874E-3,-8.755384E-3,8.366323E-3,-3.4695237E-3,4.3530506E-3,4.9408376E-5,-1.8655812E-2,-7.5369594E-3,7.329169E-3,-2.6181232E-2,-1.3049554E-2],"categories":[],"categories_nodes":[],"categories_segments":[],"categories_sizes":[],"default_left":[0,0,0,0,0,0,0,0,0,0,0,0,0,0,0,0,0,0,0,0,0,0,0,0,0,0,0,0,0,0,0,0,0,0,0,0,0,0,0,0,0,0,0],"id":30,"left_children":[1,3,5,7,9,11,13,-1,15,17,19,21,23,25,-1,-1,-1,27,-1,29,-1,31,33,35,37,39,41,-1,-1,-1,-1,-1,-1,-1,-1,-1,-1,-1,-1,-1,-1,-1,-1],"loss_changes":[5.0675232E1,4.7262756E1,5.0532684E1,8.928949E0,4.0220673E1,4.1916107E1,3.8546616E1,0E0,3.5897274E0,2.769451E1,2.7022552E1,4.0048553E1,4.3223766E1,7.33371E1,0E0,0E0,0E0,2.4395432E1,0E0,3.4362E1,0E0,1.6559555E1,4.933875E1,4.0772076E1,1.8595573E1,3.4424538E1,9.1589355E-1,0E0,0E0,0E0,0E0,0E0,0E0,0E0,0E0,0E0,0E0,0E0,0E0,0E0,0E0,0E0,0E0],"parents":[2147483647,0,0,1,1,2,2,3,3,4,4,5,5,6,6,8,8,9,9,10,10,11,11,12,12,13,13,17,17,19,19,21,21,22,22,23,23,24,24,25,25,26,26],"right_children":[2,4,6,8,10,12,14,-1,16,18,20,22,24,26,-1,-1,-1,28,-1,30,-1,32,34,36,38,40,42,-1,-1,-1,-1,-1,-1,-1,-1,-1,-1,-1,-1,-1,-1,-1,-1],"split_conditions":[-7.634595E-1,-1.125E1,2.0151983E1,1.1627907E-2,1.8383616E0,4.8002145E-1,6.411946E0,-6.762928E-4,1.6034977E1,5.5731224E1,5.555139E0,1.1879376E2,6.151703E-1,1.2582173E0,1.2133955E-2,4.6326024E-3,1.5704835E-2,1.0463842E2,-1.600737E-2,7.7409554E0,5.1177316E-3,1.8828301E0,8.893281E1,7.2523117E0,-1.0418166E1,-3.2331526E0,5.252872E0,6.9042947E-3,-1.0510948E-2,-1.813492E-2,-2.9945155E-3,7.877359E-3,-3.024874E-3,-8.755384E-3,8.366323E-3,-3.4695237E-3,4.3530506E-3,4.9408376E-5,-1.8655812E-2,-7.5369594E-3,7.329169E-3,-2.6181232E-2,-1.3049554E-2],"split_indices":[17,44,37,1,35,23,27,0,30,43,6,25,22,28,0,0,0,25,0,8,0,5,16,6,33,28,27,0,0,0,0,0,0,0,0,0,0,0,0,0,0,0,0],"split_type":[0,0,0,0,0,0,0,0,0,0,0,0,0,0,0,0,0,0,0,0,0,0,0,0,0,0,0,0,0,0,0,0,0,0,0,0,0,0,0,0,0,0,0],"sum_hessian":[1.3743369E3,2.5252644E2,1.1218104E3,3.920308E1,2.1332336E2,9.676015E2,1.5420891E2,1.3415955E1,2.5787123E1,8.3405334E1,1.2991803E2,4.8609177E2,4.8150977E2,1.3787344E2,1.6335463E1,1.095509E1,1.4832034E1,7.071928E1,1.2686058E1,1.1696967E2,1.294836E1,3.7745883E2,1.0863291E2,4.436188E2,3.7890957E1,1.04736755E2,3.3136692E1,5.600645E1,1.4712828E1,8.0080956E1,3.6888714E1,3.543714E2,2.3087444E1,6.341367E1,4.5219246E1,1.8708183E2,2.5653696E2,1.2568039E1,2.5322918E1,6.640203E1,3.8334717E1,2.3124294E1,1.0012398E1],"tree_param":{"num_deleted":"0","num_feature":"51","num_nodes":"43","size_leaf_vector":"1"}},{"base_weights":[1.0990987E-2,3.069252E-1,-1.2184332E-1,6.442402E-1,-6.367284E-3,-6.079319E-1,-4.078586E-3,7.337241E-1,-8.467789E-3,-6.979274E-1,2.4785206E-1,-1.6836403E-1,-1.125051E0,5.650587E-2,-1.3268838E0,1.4309618E-1,8.724381E-1,-1.08226344E-1,-1.3929816E0,-1.433485E-1,6.50365E-1,-9.336284E-1,1.2536445E-1,-1.8190024E0,-2.4651316E-1,-6.891914E-2,6.343572E-1,-6.058202E-3,-2.652349E-2,1.0772625E-2,-5.532385E-3,-5.391657E-4,1.2774787E-2,1.00316135E-2,-9.133178E-3,-3.5615093E-3,-2.5695514E-2,3.2128284E-3,-1.1511152E-2,-3.9398246E-3,1.1772416E-2,-1.9649964E-2,-2.4052856E-3,-8.029203E-3,6.387479E-3,-2.6692398E-2,-1.302218E-2,2.6517315E-3,-1.280442E-2,-1.1166246E-2,2.8932554E-4,1.0542833E-2,-3.5479874E-3],"categories":[],"categories_nodes":[],"categories_segments":[],"categories_sizes":[],"default_left":[0,0,0,0,0,0,0,0,0,0,0,0,0,0,0,0,0,0,0,0,0,0,0,0,0,0,0,0,0,0,0,0,0,0,0,0,0,0,0,0,0,0,0,0,0,0,0,0,0,0,0,0,0],"id":31,"left_children":[1,3,5,7,9,11,13,15,-1,17,19,21,23,25,27,29,31,33,35,37,39,41,43,45,47,49,51,-1,-1,-1,-1,-1,-1,-1,-1,-1,-1,-1,-1,-1,-1,-1,-1,-1,-1,-1,-1,-1,-1,-1,-1,-1,-1],"loss_changes":[5.310347E1,4.42872E1,5.3307972E1,2.4742088E1,3.9011856E1,4.0733772E1,6.0614388E1,1.5183815E1,0E0,2.3978848E1,2.578756E1,2.3077845E1,4.9329903E1,5.2492916E1,1.8441238E1,1.6612974E1,1.7605362E1,2.0201614E1,1.6986237E1,2.5617615E1,2.1397804E1,1.1880882E1,2.184039E1,4.3292236E0,1.4036934E1,